tree
version=v4
num_class=1
num_tree_per_iteration=1
label_index=0
max_feature_idx=45
objective=binary sigmoid:1
feature_names=Age Sex history__sudden_onset_pain history__severe_pain history__tearing_pain history__migrating_pain history__trauma_related history__marfan_or_ctd history__aortic_disease_history exam__pulse_deficit exam__bp_difference exam__new_aortic_regurgitation_murmur exam__neurologic_deficit exam__hypotension_or_shock exam__text_suggests_ais exam__text_suggests_aos troponin_abnormal D_D_abnormal D_D_log NT_proBNP_log Mb_log CK_MB_log echo__ascending_aorta_dilated echo__aortic_valve_disease echo__pericardial_effusion echo__suspected_intimal_flap echo__suggest_ad_on_echo history__sudden_onset_pain_missing history__severe_pain_missing history__tearing_pain_missing history__migrating_pain_missing history__trauma_related_missing history__marfan_or_ctd_missing history__aortic_disease_history_missing exam__pulse_deficit_missing exam__bp_difference_missing exam__new_aortic_regurgitation_murmur_missing exam__neurologic_deficit_missing exam__hypotension_or_shock_missing exam__text_suggests_ais_missing exam__text_suggests_aos_missing echo__ascending_aorta_dilated_missing echo__aortic_valve_disease_missing echo__pericardial_effusion_missing echo__suspected_intimal_flap_missing echo__suggest_ad_on_echo_missing
feature_infos=[13:100] [0:1] [0:1] [0:1] [0:1] [0:1] [0:1] [0:1] [0:1] [0:1] [0:1] [0:1] [0:1] [0:1] none none [0:1] [0:1] [0.00099950033308349997:7.9966538754626084] [1.791759469228055:10.463131911491969] [1.791759469228055:13.07422510071008] [0.69314718055994529:7.259819610363186] [0:1] [0:1] [0:1] [0:1] [0:1] [0:1] [0:1] [0:1] [0:1] none [0:1] [0:1] [0:1] [0:1] [0:1] [0:1] [0:1] none none none none none [0:1] none
tree_sizes=1173 1077 1196 1195 1403 1299 1186 1308 1409 1101 1182 1299 1392 1411 1299 1287 1514 1314 1401 1413 1632 1736 1401 1738 1627 1500 1520 1506 1406 1526 1937 1608 1526 1615 1738 1712 1528 1639 2147 1627 1406 1416 2067 1589 1734 1307 1631 1530 1511 1524 1603 1632 1735 1827 1735 1537 1629 1949 1416 1843 1721 1715 1729 1817 1612 1620 1722 2164 2033 2049 1939 1739 1780 1937 1858 2060 1914 1839 2162 1960 1827 2372 1947 1828 1860 2064 1721 1814 1835 2277 2362 2268 1731 1864 1629 1930 2472 1942 1951 2055 1923 1863 1820 2060 2337 2040 2249 2363 1943 2488 1809 1809 2049 1975 2147 2252 2772 2167 2365 2350 2273 2275 2052 2473 2277 2361 2566 2062 2274 2076 1962 2267 2477 2136 2170 2157 2571 2375 2361 2174 1958 2377 2055 2503 2773 2578 2463 2174 1956 1937 2675 2165 2023 2073 2349 2485 2396 2466 2382 2364 2155 2254 2031 2569 2680 2490 2236 2072 2366 2275 1646 2357 2781 2164 2872 2513 2686 2393 2392 2292 1854 2482 2270 2049 2588 2478 2793 1829 2063 2559 2485 2152 2685 2511 2476 2605 2238 2176 2066 2497 2464 2723 2274 2368 2722 2177 1973 2696 2355 2651 1859 2030 2587 2709 2250 2674 1933 2720 2587 2708 2491 2393 1853 2161 2168 2484 2377 2084 2480 1831 2142 2244 1766 2697 2161 2168 2180 2366 2272 2487 2698 2923 1838 2291 2716 2590 2155 2294 2412 2725 2786 1962 2040 1866 2371 2599 2583 2600 2593 2051 2389 2167 2071 2792 2614 2515 1985 2259 2406 2711 2095 2609 2270 1762 2508 2275 2805 2078 2509 2410 2289 2724 2194 2068 2470 2055 2398 2859 2284 2180 2582 2938 2516 2257 2492 2827 2803 2192 2405 2333 2258 1933 2059 2789 2637 2183 2508 2403 2050 2722 2279 2296 2384 2509 1956 2158 2204 2169 2383 1942 2280 2413 2167 2166 2390 2378 2178 2290 2057 2288 2845 2600 2410 2059 2065 1729 2297 2169 2402 2305 2292 2372 2509 2283 2070 2625 2515 2176 2504 2475 2492 2292 2289 2286 2421 2194 2620 2213 2036 2102 2414 2642 2417 2718 2842 2093 1980 2216 1943 2200 2432 2828 2202 2093 2086 1758 2282 2422 2413 2526 2436 2200 2097 2312 2099 2522 2471 2196 2208 2180 2637 2532 2198 2594 2414 2076 1880 2176 2615 1887 2190 2189 2102 2078 2394 2519 1652 2221 2417 2406 1865 2646 2216 2404 1767 2418 2089 2536 2406 2399 1858 1974 2527 2323 2634 2213 2097 2731 2285 2536 2320 1968 2293 2516 1749 2292 2191 2290 1887 1974 2312 2095 2311 2390 2519 2222 2297 2313 2628 2293 2329 1874 1887 2072 2280 2302 2411 2522 2073 1979 2175 2256 1783 2086 2205 1973 1859 2241 2648 2092 2256 2218 2113 2216 1972 2508 2530 2100 2323 1648 2219 2508 2527 2324 2090 1958 1777 2067 2227 2106 2194 1752 2320 2202 2206 1871 1971 2202 1975 2113 2081 2183 2096 2005 2190 2440 2111 2087 2307 2428 2194 2418 2079 1987 2434 2196 2307 2205 2008 2116 2015 2323 2655 1974 2223 2099 2394 2000 1640 2117 2101 2425 2319 2333 2484 2098 1774 1990 2296 2331 2336 2213 2010 2007 2330 2321 2194 1891 1642 2214 1568 2342 2118 2530 2210 2106 1799 2231 1991 2007 1912 2437 1774 2129 2082 2339 2206 2203 1862 2275 2006 2115 2204 1992 1571 1768 2118 2015 2330 2190 2090 1999 1681 1990 2213 2337 2452 1795 2123 2651 1782 1865 2528 1676 2569 2218 2332 2124 2106 1993

Tree=0
num_leaves=10
num_cat=0
split_feature=3 8 2 18 0 18 0 18 18
split_gain=198.624 174.122 50.4743 32.6697 5.29054 6.01325 5.13029 3.14846 2.42219
threshold=1.0000000180025095e-35 1.0000000180025095e-35 1.0000000180025095e-35 0.53940883066996526 54.500000000000007 0.91027063532675367 70.500000000000014 0.4478807203108312 1.6154120791920212
decision_type=10 8 8 2 2 2 2 2 2
left_child=1 4 -2 -4 5 -1 -5 -3 -8
right_child=2 7 3 6 -6 -7 8 -9 -10
leaf_value=0.022057307598479556 0.020429851758953739 0.083520469407475192 0.054993358614212451 0.11752735785707359 0.0098104610485696547 0.062220064976149278 0.072221893150132221 0.11225946121147307 0.10289280837182219
leaf_weight=11.392713874578478 5.9619172513484946 6.4420364350080517 9.4704793244600278 53.238692164421082 61.743655025959015 4.8363636434078208 4.804707467555998 17.38804666697979 4.7097389400005341
leaf_count=46 24 27 39 227 248 20 20 74 20
internal_value=0.0632517 0.035757 0.0989748 0.105985 0.0141957 0.0331423 0.113724 0.10553 0.0895188
internal_weight=179.988 101.803 78.1855 72.2236 77.9727 16.2291 62.7531 23.8301 9.51445
internal_count=745 415 330 306 314 66 267 101 40
is_linear=0
shrinkage=1


Tree=1
num_leaves=9
num_cat=0
split_feature=4 8 0 2 18 18 0 11
split_gain=246.468 171.627 19.6143 18.2579 16.9985 6.49331 4.64366 2.1789
threshold=1.0000000180025095e-35 1.0000000180025095e-35 54.500000000000007 1.0000000180025095e-35 0.91027063532675367 0.31114771979399708 70.500000000000014 inf
decision_type=10 8 2 10 2 2 2 8
left_child=1 2 3 -1 -5 -3 -7 -4
right_child=-2 5 7 4 -6 6 -8 -9
leaf_value=-0.040542788838057328 0.055109178897093387 0.0035277387803132236 -0.029680483402550861 -0.025764460047316685 0.043609102226659952 0.048542771684852944 0.017090392945760532 -0.05356082910417545
leaf_weight=14.352552726864815 48.567724406719208 5.0515384674072257 8.1177609562873823 5.3985564857721329 5.3880607336759567 20.139567613601688 7.1492938846349707 63.763305872678757
leaf_count=58 208 21 33 22 23 86 30 256
internal_value=-0.0018425 -0.0234834 -0.0433391 -0.0194617 0.00964842 0.0355963 0.0411981 -0.0513082
internal_weight=177.928 129.361 97.0202 25.1392 10.7866 32.3404 27.2889 71.8811
internal_count=737 529 392 103 45 137 116 289
is_linear=0
shrinkage=0.03


Tree=2
num_leaves=10
num_cat=0
split_feature=4 8 0 18 2 26 0 18 0
split_gain=244.094 168.717 14.7358 19.4913 14.8568 6.18666 2.96634 1.22947 6.54974
threshold=1.0000000180025095e-35 1.0000000180025095e-35 54.500000000000007 0.612475605355564 1.0000000180025095e-35 1.0000000180025095e-35 63.500000000000007 0.75376903420262753 66.500000000000014
decision_type=10 8 2 2 10 8 2 2 2
left_child=1 2 3 -1 -5 6 -3 -4 -9
right_child=-2 5 7 4 -6 -7 -8 8 -10
leaf_value=-0.048163096204255185 0.053218022190440216 0.031976466021892129 -0.056180891462540031 -0.028950939436924176 0.033106269133438317 0.047467652571787568 0.0059568414731347562 -0.01814360732135752 -0.050730641400661629
leaf_weight=11.45149213075638 50.728037238121033 7.5334611237049094 40.202574834227562 5.4201891124248487 6.5900247842073441 16.346266150474548 8.3867675960063917 9.2887019217014331 22.660266548395157
leaf_count=46 218 32 161 22 28 70 35 38 91
internal_value=-0.00184308 -0.0239285 -0.0438456 -0.0218421 0.00502735 0.0346346 0.0194315 -0.0506042 -0.0420946
internal_weight=178.608 127.88 95.6132 23.4617 12.0102 32.2665 15.9202 72.1515 31.949
internal_count=741 523 386 96 50 137 67 290 129
is_linear=0
shrinkage=0.03


Tree=3
num_leaves=10
num_cat=0
split_feature=4 8 0 18 22 0 20 18 3
split_gain=233.561 151.92 14.5646 17.2415 5.52885 3.92601 2.80003 2.24757 8.02975
threshold=1.0000000180025095e-35 1.0000000180025095e-35 54.500000000000007 0.91027063532675367 1.0000000180025095e-35 63.500000000000007 4.1343659160588695 0.98394763346746184 1.0000000180025095e-35
decision_type=10 8 2 2 10 2 2 2 10
left_child=1 2 3 6 5 -3 -1 -4 -9
right_child=-2 4 7 -5 -6 -7 -8 8 -10
leaf_value=-0.048185916913699695 0.05247860432106935 0.03223966888232168 -0.053313930705138485 0.011196348593779284 0.046161110757371483 0.0021767887471239749 -0.015979170498738308 -0.046714017797794744 -0.0073652387021021044
leaf_weight=9.9581117779016513 50.222199186682701 7.9739425331354141 46.822464555501938 9.3134305626153928 15.82084447145462 7.2021471261978149 4.8825498521327964 19.867492556571964 6.5559280663728705
leaf_count=40 217 34 188 39 68 30 20 80 27
internal_value=-0.00175316 -0.0232074 -0.0415306 -0.020138 0.033867 0.0189892 -0.0392676 -0.048219 -0.0375758
internal_weight=178.619 128.397 97.4 24.1541 30.9969 15.1761 14.8407 73.2459 26.4234
internal_count=743 526 394 99 132 64 60 295 107
is_linear=0
shrinkage=0.03


Tree=4
num_leaves=12
num_cat=0
split_feature=3 8 2 18 0 0 16 18 0 19 0
split_gain=170.062 129.833 43.7683 20.0645 4.20983 4.11734 7.94246 3.9692 0.921022 0.780183 0.130982
threshold=1.0000000180025095e-35 1.0000000180025095e-35 1.0000000180025095e-35 0.53940883066996526 72.500000000000014 62.500000000000007 1.0000000180025095e-35 0.4478807203108312 69.500000000000014 3.2523087303165323 61.500000000000007
decision_type=10 8 8 2 2 2 10 2 2 2 2
left_child=1 5 -2 -4 10 6 9 -3 -9 -1 -5
right_child=2 7 3 4 -6 -7 -8 8 -10 -11 -12
leaf_value=-0.023778384103296132 -0.041438101387323997 0.010295991739984097 -0.004627727206354737 0.049805430872273425 0.017703980396589249 -0.051462578271882713 -0.0082735946495382084 0.045401933020200007 0.021889520245321328 -0.047612935274040251 0.03580169930981867
leaf_weight=4.9038358777761486 5.949023872613906 6.1872672140598324 8.4313743710517866 41.700522258877754 6.623956322669982 48.398845493793488 8.4878973513841647 12.729208290576937 5.1847574114799491 16.626440659165382 14.892745018005369
leaf_count=20 24 26 35 181 28 195 35 55 22 67 64
internal_value=-0.00148263 -0.0267355 0.0317959 0.0383632 0.0440798 -0.0453344 -0.0341132 0.0331742 0.040114 -0.0434806 0.0468059
internal_weight=180.116 102.518 77.5976 71.6486 63.2172 78.417 30.0182 24.1012 17.914 21.5303 56.5933
internal_count=752 420 332 308 273 317 122 103 77 87 245
is_linear=0
shrinkage=0.03


Tree=5
num_leaves=11
num_cat=0
split_feature=4 8 0 18 2 18 0 18 0 21
split_gain=203.034 144.102 16.4569 15.8937 14.2753 5.84172 3.98891 2.52747 6.34616 0.710249
threshold=1.0000000180025095e-35 1.0000000180025095e-35 54.500000000000007 0.612475605355564 1.0000000180025095e-35 0.31114771979399708 71.500000000000014 0.75376903420262753 65.500000000000014 2.411429443309669
decision_type=10 8 2 2 10 2 2 2 2 2
left_child=1 2 3 -1 -5 -3 9 -4 -9 -7
right_child=-2 5 7 4 -6 6 -8 8 -10 -11
leaf_value=-0.042220630877308658 0.050376579332375312 0.0020775228878935712 -0.052283904958320554 -0.026674747942802054 0.030903669549869988 0.023691808545179108 0.012749391707930042 -0.010931465773228915 -0.044260232166443481 0.046949060478680069
leaf_weight=10.888401567935945 49.377071902155876 5.0337190330028525 41.098833233118057 6.1475556790828687 7.4975093454122543 4.8918730467557969 5.930985912680625 7.5257548540830639 23.446481317281723 17.732461452484131
leaf_count=44 216 21 166 25 32 21 25 31 95 77
internal_value=-0.000822404 -0.0204761 -0.038997 -0.0168403 0.00491257 0.0323791 0.0374696 -0.0462057 -0.0367571 0.0431361
internal_weight=179.571 130.194 96.6045 24.5335 13.6451 33.589 28.5553 72.0711 30.9722 22.6243
internal_count=753 537 393 101 57 144 123 292 126 98
is_linear=0
shrinkage=0.03


Tree=6
num_leaves=10
num_cat=0
split_feature=4 8 18 11 0 18 1 3 0
split_gain=196.068 124.805 15.1907 22.5954 12.1378 6.92147 2.6953 1.84262 1.03389
threshold=1.0000000180025095e-35 1.0000000180025095e-35 0.73476597984497327 inf 58.500000000000007 0.34003097050564496 1.0000000180025095e-35 1.0000000180025095e-35 51.500000000000007
decision_type=10 8 2 8 2 2 2 8 2
left_child=1 2 8 -4 7 -3 -7 -5 -1
right_child=-2 5 3 4 -6 6 -8 -9 -10
leaf_value=-0.03048110443615942 0.048673844649859382 -0.00073149661385704993 0.0260336804556726 -0.01579416036214551 -0.043570303603854339 0.017694897455515779 0.043177156858029801 0.0073573845992239437 -0.051510643019128999
leaf_weight=7.8494910001754752 48.077686488628387 5.2788426429033306 6.1304285973310471 5.6039473861455891 26.324673146009445 7.2494962364435223 17.906855210661888 4.9877376258373269 46.082294508814812
leaf_count=32 212 22 26 23 107 31 78 21 187
internal_value=-0.00234357 -0.0218234 -0.0383772 -0.0241825 -0.0329882 0.0304667 0.036791 -0.00519767 -0.0490605
internal_weight=175.491 127.414 96.9786 43.0468 36.9164 30.4352 25.1564 10.5917 53.9318
internal_count=739 527 396 177 151 131 109 44 219
is_linear=0
shrinkage=0.03


Tree=7
num_leaves=11
num_cat=0
split_feature=4 8 3 18 19 18 0 37 0 16
split_gain=176.235 120.794 13.9661 13.6473 10.2508 6.72068 3.56764 6.96732 3.44309 2.2889
threshold=1.0000000180025095e-35 1.0000000180025095e-35 1.0000000180025095e-35 0.91827080599997424 5.4625589999258937 0.34003097050564496 62.500000000000007 1.0000000180025095e-35 71.500000000000014 1.0000000180025095e-35
decision_type=10 8 10 2 2 2 2 2 2 10
left_child=1 2 6 -4 -5 -3 7 -1 -7 -9
right_child=-2 5 3 4 -6 8 -8 9 -10 -11
leaf_value=-0.0045098459625922864 0.047557678881746432 -0.00064789107760000058 -0.038000760378544648 0.036455213929294544 -0.018197209965290874 0.041705001803044386 -0.049413868656946948 -0.045455401103533001 0.011571080890855861 -0.018376532349870973
leaf_weight=6.497171804308894 45.6047353297472 5.2806271761655834 9.8117990642786044 5.1129451841115934 5.3543144464492798 20.492970123887066 44.493026733398438 18.425685331225399 5.1953758150339118 5.5921926796436301
leaf_count=27 203 22 40 22 22 90 182 75 22 23
internal_value=-0.00236713 -0.0206324 -0.03728 -0.0142694 0.00934992 0.0301537 -0.0432315 -0.0329352 0.0362724 -0.0401371
internal_weight=171.861 126.256 95.2871 20.2791 10.4673 30.969 75.0081 30.515 25.6883 24.0179
internal_count=728 525 391 84 44 134 307 125 112 98
is_linear=0
shrinkage=0.03


Tree=8
num_leaves=12
num_cat=0
split_feature=4 8 18 2 0 26 1 0 18 20 19
split_gain=173.426 123.792 12.7098 18.2568 19.3172 6.84022 4.16796 2.15628 0.857889 0.829865 0.705204
threshold=1.0000000180025095e-35 1.0000000180025095e-35 0.91027063532675367 1.0000000180025095e-35 66.500000000000014 1.0000000180025095e-35 1.0000000180025095e-35 51.500000000000007 1.3042696051166378 4.2202424591657879 4.4880742561260005
decision_type=10 8 2 10 2 8 2 2 2 2 2
left_child=1 2 7 8 -5 6 -3 10 -4 -8 -1
right_child=-2 5 3 4 -6 -7 9 -9 -10 -11 -12
leaf_value=-0.03481684593066886 0.046747632048302179 -0.0070822060398658066 -0.022682852355974534 0.037260247510954664 -0.029248278060665666 0.044254318568425689 0.03222071033581915 -0.047610089417439688 -0.042182244217371163 0.011667540100561893 -0.013888884654638953
leaf_weight=4.8914880156517011 47.152940914034843 4.7723718136549005 7.2402787506580379 7.1907389461994153 6.5812588036060333 16.28548975288868 5.9845132827758789 51.765939354896545 15.897816672921179 4.6691537350416183 4.845777839422226
leaf_count=20 212 20 30 31 27 72 26 213 65 20 20
internal_value=-0.00195455 -0.0198245 -0.0363609 -0.0215312 0.00564922 0.031037 0.0152386 -0.0447738 -0.0372731 0.0249871 -0.0266655
internal_weight=177.278 130.125 98.4133 36.9101 13.772 31.7115 15.426 61.5032 23.1381 10.6537 9.73727
internal_count=756 544 406 153 58 138 66 253 95 46 40
is_linear=0
shrinkage=0.03


Tree=9
num_leaves=9
num_cat=0
split_feature=4 8 18 2 19 26 20 1
split_gain=157.503 119.103 10.9905 13.2147 10.7794 5.65123 2.76884 0.258157
threshold=1.0000000180025095e-35 1.0000000180025095e-35 0.91027063532675367 1.0000000180025095e-35 5.0479308725904701 1.0000000180025095e-35 4.2143470814835746 1.0000000180025095e-35
decision_type=10 8 2 10 2 8 2 2
left_child=1 2 -1 7 -5 6 -3 -4
right_child=-2 5 3 4 -6 -7 -8 -9
leaf_value=-0.044012896019951946 0.045771660391639497 0.027162921297182983 -0.043829125031973337 0.031828135299504734 -0.019377449957157497 0.043191053527460443 0.0018459133649927862 -0.027503378908032939
leaf_weight=59.118480056524277 44.870293289422989 8.0948318392038363 8.5243628770112991 5.3129074275493604 7.9472697973251343 15.908113107085226 7.0631297081708899 12.083897560834885
leaf_count=245 204 35 35 23 33 71 30 50
internal_value=-0.00178885 -0.0192201 -0.0361298 -0.0215021 0.00193215 0.0309425 0.0162103 -0.0359722
internal_weight=168.923 124.053 92.9869 33.8684 13.2602 31.0661 15.158 20.6083
internal_count=726 522 386 141 56 136 65 85
is_linear=0
shrinkage=0.03


Tree=10
num_leaves=10
num_cat=0
split_feature=4 8 18 11 2 0 18 0 0
split_gain=158.734 109.502 12.7424 17.4289 9.68657 16.1574 5.20471 4.24113 1.60488
threshold=1.0000000180025095e-35 1.0000000180025095e-35 0.91027063532675367 inf 1.0000000180025095e-35 66.500000000000014 0.31114771979399708 72.500000000000014 51.500000000000007
decision_type=10 8 2 8 10 2 2 2 2
left_child=1 2 8 -4 -5 -6 -3 -8 -1
right_child=-2 6 3 4 5 -7 7 -9 -10
leaf_value=-0.026426353363956667 0.045057422388093668 0.0010521469407674009 0.02837381467448858 -0.040123879297600397 0.03102706567181324 -0.036794112049922188 0.04015054324276518 0.0070155924929974798 -0.046168895610742708
leaf_weight=9.1916808187961561 46.304217323660851 5.0145303457975414 4.9062950313091278 20.301436558365822 5.0821572691202181 5.6020701080560684 20.986974671483043 4.6995693743228903 50.443499624729156
leaf_count=38 213 21 21 84 22 23 94 20 211
internal_value=-0.00187416 -0.0193089 -0.0350755 -0.0200943 -0.0284159 -0.00463923 0.0293082 0.0345783 -0.043612
internal_weight=172.532 126.228 95.5271 35.892 30.9857 10.6842 30.7011 25.6865 59.6352
internal_count=747 534 399 150 129 45 135 114 249
is_linear=0
shrinkage=0.03


Tree=11
num_leaves=11
num_cat=0
split_feature=4 8 0 18 2 22 19 18 0 0
split_gain=142.447 110.838 15.185 12.7572 11.3184 3.92009 1.55488 1.5417 3.66499 0.588745
threshold=1.0000000180025095e-35 1.0000000180025095e-35 54.500000000000007 0.612475605355564 1.0000000180025095e-35 1.0000000180025095e-35 6.8168898315476083 0.91027063532675367 65.500000000000014 63.500000000000007
decision_type=10 8 2 2 10 8 2 2 2 2
left_child=1 2 3 -1 -5 6 9 -4 -9 -3
right_child=-2 5 7 4 -6 -7 -8 8 -10 -11
leaf_value=-0.03545980732144613 0.044212289658300395 0.030661027935184312 -0.045237810386102459 -0.020314098141551318 0.033898753777074048 0.041717032414546024 0.0038361631118800166 -0.011883786051764846 -0.038701217108899559 0.012245056504140707
leaf_weight=9.6052780896425265 44.849657356739044 6.2915874719619804 43.962463706731796 5.5814373195171338 6.4396247863769531 15.004807710647581 5.1067359000444403 7.4200360924005535 19.381190583109856 4.6820306330919266
leaf_count=40 209 28 186 23 28 68 22 31 81 20
internal_value=-0.000998336 -0.0176434 -0.0340551 -0.0113833 0.00910049 0.030676 0.0185342 -0.0407287 -0.0319712 0.0244825
internal_weight=168.325 123.475 92.39 21.6263 12.0211 31.0852 16.0804 70.7637 26.8012 10.9736
internal_count=736 527 389 91 51 138 70 298 112 48
is_linear=0
shrinkage=0.03


Tree=12
num_leaves=12
num_cat=0
split_feature=4 8 0 2 18 26 11 0 0 21 19
split_gain=137.914 91.9639 12.5625 11.716 10.0338 4.62398 3.30728 2.47438 1.19723 0.121744 0.0867265
threshold=1.0000000180025095e-35 1.0000000180025095e-35 54.500000000000007 1.0000000180025095e-35 1.0801073758511597 1.0000000180025095e-35 inf 63.500000000000007 59.500000000000007 2.545523582195059 4.9341140914454957
decision_type=10 8 2 10 2 8 8 2 2 2 2
left_child=1 2 3 10 -5 7 -4 -3 -8 -7 -1
right_child=-2 5 6 4 -6 9 8 -9 -10 -11 -12
leaf_value=-0.037399526370406388 0.043493206980697231 0.025426064894528106 -0.017756801383133909 -0.016174942384046376 0.037034658882657459 0.022828172918380678 -0.024457188838296447 0.0014279601511126597 -0.044015552813353759 0.043316425517062447 -0.019810523817505209
leaf_weight=7.1876575797796249 43.86085806787014 7.2163999825716036 7.7985003441572189 5.9733318835496902 4.9697687327861786 4.4355353713035575 7.5311058461666098 7.5429138243198395 52.185272991657257 10.219658702611921 4.8245477825403214
leaf_count=30 207 32 33 25 22 20 32 32 222 47 20
internal_value=-0.00143758 -0.0180997 -0.0330071 -0.0130788 0.00906759 0.0273287 -0.039493 0.0140304 -0.0419924 0.0389697 -0.0324005
internal_weight=163.746 119.885 90.4702 22.9553 10.9431 29.4145 67.5149 14.7593 59.7164 14.6552 12.0122
internal_count=722 515 384 97 47 131 287 64 254 67 50
is_linear=0
shrinkage=0.03


Tree=13
num_leaves=12
num_cat=0
split_feature=4 8 1 0 2 17 20 22 20 3 0
split_gain=139.148 86.0228 10.542 11.8919 9.4681 6.53116 2.16408 2.06728 1.94465 1.02065 0.810459
threshold=1.0000000180025095e-35 1.0000000180025095e-35 1.0000000180025095e-35 60.500000000000007 1.0000000180025095e-35 1.0000000180025095e-35 4.09684109692797 1.0000000180025095e-35 4.2348306176854429 1.0000000180025095e-35 51.500000000000007
decision_type=10 8 2 2 10 2 2 8 2 10 2
left_child=1 2 -1 4 6 -3 -4 8 -7 -5 -6
right_child=-2 5 3 9 10 7 -8 -9 -10 -11 -12
leaf_value=-0.0453375403322928 0.042835135315062813 -0.0028616928991180243 -0.036884265487277211 -0.037908333388388421 0.020262347587325476 0.030240836114214478 -0.0097572718581086081 0.040848686236304825 0.0053663982726896067 -0.018951012035536563 0.0036306705795669716
leaf_weight=36.850436985492706 44.482254758477211 5.8778072744607952 5.4252299517393112 26.882398098707199 5.5182123780250549 6.2606077045202273 6.1902333498001099 12.241063863039015 5.4851727038621902 6.4075922816991797 5.3193399310112
leaf_count=157 213 25 23 116 24 28 26 57 24 27 23
internal_value=-0.00203481 -0.0185485 -0.0327537 -0.0237824 -0.00648655 0.025128 -0.0243469 0.0318267 0.0199571 -0.0349185 0.0130954
internal_weight=166.94 122.458 92.5934 55.743 22.453 29.8647 11.6155 23.9868 11.7458 33.29 10.8376
internal_count=743 530 396 239 96 134 49 109 52 143 47
is_linear=0
shrinkage=0.03


Tree=14
num_leaves=11
num_cat=0
split_feature=4 8 1 3 19 1 12 20 25 19
split_gain=124.219 85.4065 10.9534 11.7533 6.65361 4.94889 3.52533 0.770056 0.541345 0.253409
threshold=1.0000000180025095e-35 1.0000000180025095e-35 1.0000000180025095e-35 1.0000000180025095e-35 5.4992132179189657 1.0000000180025095e-35 inf 4.09684109692797 1.0000000180025095e-35 7.1666513296886452
decision_type=10 8 2 10 2 2 8 2 8 2
left_child=1 2 -1 6 -5 7 -4 -3 -7 -8
right_child=-2 5 3 4 -6 8 9 -9 -10 -11
leaf_value=-0.044452532763305012 0.04214715739442871 0.014286630664687125 -0.010460091508480939 0.019203124142146439 -0.021360549335061985 0.024082331688070877 -0.036026030704082966 -0.0019780496695222362 0.040607112380877386 -0.020132534408350135
leaf_weight=35.062176510691643 43.027914851903915 4.5490142405033129 8.1744508892297727 7.7880073636770231 5.2226988226175308 10.488463073968889 28.174541845917702 4.5582951903343201 10.761300429701803 5.5750195831060401
leaf_count=151 209 20 35 34 22 47 122 20 50 24
internal_value=-0.00102446 -0.0166789 -0.0312824 -0.022232 0.00255782 0.0262315 -0.0298057 0.00675572 0.0338998 -0.0340555
internal_weight=163.382 120.354 89.9969 54.9347 13.0107 30.3571 41.924 9.10731 21.2498 33.7496
internal_count=734 525 388 237 56 137 181 40 97 146
is_linear=0
shrinkage=0.03


Tree=15
num_leaves=11
num_cat=0
split_feature=4 8 0 18 18 20 0 11 19 19
split_gain=125.786 79.2759 12.5386 10.6859 5.17894 5.06219 3.63028 1.96013 0.0485355 0.71536
threshold=1.0000000180025095e-35 1.0000000180025095e-35 54.500000000000007 1.1249243262543802 0.31114771979399708 4.1343659160588695 70.500000000000014 inf 7.1666513296886452 8.1637911854124603
decision_type=10 8 2 2 2 2 2 8 2 2
left_child=1 2 3 5 -3 -1 -6 -4 -9 -10
right_child=-2 4 7 -5 6 -7 -8 8 9 -11
leaf_value=-0.036552708134169144 0.041561316818677266 -0.0027505619883003859 -0.019545576684547709 0.015026017357526492 0.037495154175937191 -0.0013025431770433693 0.0087447189201772749 -0.04143465292912614 -0.01435162118200054 -0.035726927100687735
leaf_weight=10.793560132384306 42.611375316977501 4.7444045394659069 7.9027318805456161 8.0577133446931821 17.736130669713024 5.4310575127601615 5.9411951303482047 50.395442828536034 4.5747230648994428 5.5300797373056412
leaf_count=46 210 20 34 35 83 23 26 221 20 24
internal_value=-0.00218719 -0.0177944 -0.0311706 -0.011999 0.0254034 -0.0255137 0.0309277 -0.0377054 -0.0397211 -0.0282136
internal_weight=163.718 121.107 92.6853 24.2823 28.4217 16.2246 23.6773 68.403 60.5002 10.1048
internal_count=742 532 403 104 129 69 109 299 265 44
is_linear=0
shrinkage=0.03


Tree=16
num_leaves=13
num_cat=0
split_feature=4 8 0 2 18 1 18 3 20 20 20 18
split_gain=116.571 82.9513 12.1078 12.7392 6.94507 3.97703 3.59302 4.60787 1.33051 0.702613 0.528534 0.477207
threshold=1.0000000180025095e-35 1.0000000180025095e-35 54.500000000000007 1.0000000180025095e-35 1.1249243262543802 1.0000000180025095e-35 0.91027063532675367 1.0000000180025095e-35 4.158101222371581 3.7600359708137669 4.6415016502785855 1.3042696051166378
decision_type=10 8 2 10 2 2 2 10 2 2 2 2
left_child=1 2 3 8 -5 -3 -4 11 -1 -7 -11 -8
right_child=-2 5 6 4 -6 9 7 -9 -10 10 -12 -13
leaf_value=-0.038184356318702338 0.040953984393874793 0.0080979523689321264 -0.042498902479164428 -0.0099748519329303491 0.036131531955064168 0.016748380401299643 -0.022273050032709511 -0.0040820857944506902 -0.014804265215503147 0.042790990733613504 0.022385198665395074 -0.038649300960689581
leaf_weight=7.1742855608463287 42.123423546552658 8.1259873211383837 41.894605115056038 5.1793969422578812 4.9118898808956146 4.3784393370151546 8.6849830448627525 6.8451740443706504 5.720685750246048 10.648180916905405 5.813961222767829 11.661255493760107
leaf_count=31 211 36 187 22 22 20 38 29 24 50 27 51
internal_value=-0.001454 -0.0164273 -0.030296 -0.0108253 0.0137015 0.0271953 -0.0365274 -0.0261458 -0.029624 0.0339299 0.0372789 -0.0330298
internal_weight=163.162 121.039 92.0723 22.9863 10.0913 28.9666 69.086 27.1914 12.895 20.8406 16.4621 20.3462
internal_count=748 537 404 99 44 133 305 118 55 97 77 89
is_linear=0
shrinkage=0.03


Tree=17
num_leaves=11
num_cat=0
split_feature=4 8 0 26 2 18 18 9 0 20
split_gain=112.04 76.1965 12.0824 11.9965 8.82797 9.48664 6.16324 3.04874 1.67329 0.48025
threshold=1.0000000180025095e-35 1.0000000180025095e-35 59.500000000000007 1.0000000180025095e-35 1.0000000180025095e-35 0.63392430295670454 0.38184941825544505 1.0000000180025095e-35 70.500000000000014 4.2009540167320898
decision_type=10 8 2 10 10 2 2 8 2 2
left_child=1 2 3 4 9 -6 -3 -4 -8 -1
right_child=-2 6 7 -5 5 -7 8 -9 -10 -11
leaf_value=-0.042286662041766829 0.041099511405186057 -0.0015730260793770036 -0.012647655604154838 0.021063002565098236 -0.029465238265346323 0.023373051179286286 0.037913595860758917 -0.039118710245629705 0.014978217754724689 -0.021935106385457176
leaf_weight=9.3916666507720965 41.439006328582764 5.5843496322631863 5.5222089439630508 6.3800097852945319 4.6297642141580582 5.6959240436553955 17.333925694227222 53.698824554681778 5.6285990327596656 5.677453577518464
leaf_count=41 211 24 24 28 20 25 83 241 25 24
internal_value=-0.000826118 -0.0155799 -0.0289369 -0.0134198 -0.0225528 -0.000828044 0.0265352 -0.0369014 0.0331513 -0.0364612
internal_weight=160.982 119.543 90.9959 31.7748 25.3948 10.3257 28.5469 59.221 22.9625 15.0691
internal_count=746 535 403 138 110 45 132 265 108 65
is_linear=0
shrinkage=0.03


Tree=18
num_leaves=12
num_cat=0
split_feature=4 8 0 18 18 0 20 18 0 21 19
split_gain=108.065 67.6269 13.6375 10.6544 4.9579 4.10194 3.95779 2.61957 4.75043 1.48963 0.500562
threshold=1.0000000180025095e-35 1.0000000180025095e-35 54.500000000000007 0.91027063532675367 0.34003097050564496 70.500000000000014 4.1343659160588695 0.75376903420262753 67.500000000000014 2.411429443309669 4.8402344967050359
decision_type=10 8 2 2 2 2 2 2 2 2 2
left_child=1 2 3 6 -3 9 -1 -4 -9 -6 -5
right_child=-2 4 7 10 5 -7 -8 8 -10 -11 -12
leaf_value=-0.036290916581987132 0.039903593988938509 -0.0035827868573230569 -0.041676772203290774 0.022312872593055887 0.015874114369353494 0.0057447972280338377 -0.002887610560472259 -0.0099070377025280293 -0.036099724096859347 0.041341004834635292 0.0066876079875147591
leaf_weight=8.2571737468242663 41.361789509654045 4.7149188965559032 36.854884967207909 4.4485260695219022 4.5031267404556337 5.641466259956359 5.1556991934776297 10.764658495783808 17.926749095320702 13.294071689248083 4.6486070156097412
leaf_count=36 214 20 169 20 21 25 22 47 80 65 20
internal_value=-0.0011698 -0.0160045 -0.0288789 -0.00826791 0.0238724 0.0293159 -0.0245424 -0.0357266 -0.0269372 0.0360846 0.0157815
internal_weight=157.572 116.21 88.0563 22.51 28.1536 23.4387 13.4129 65.5463 28.6914 17.7972 9.09713
internal_count=739 525 394 98 131 111 58 296 127 86 40
is_linear=0
shrinkage=0.03


Tree=19
num_leaves=12
num_cat=0
split_feature=4 8 18 9 0 26 0 0 1 21 21
split_gain=99.6124 67.3758 11.6307 13.4655 6.39862 3.53635 2.27761 2.13913 1.29794 3.66764 0.286922
threshold=1.0000000180025095e-35 1.0000000180025095e-35 0.91027063532675367 1.0000000180025095e-35 57.500000000000007 1.0000000180025095e-35 51.500000000000007 63.500000000000007 1.0000000180025095e-35 2.8564536912166019 2.545523582195059
decision_type=10 8 2 8 2 8 2 2 2 2 2
left_child=1 2 6 -4 -5 7 -1 -3 -6 -10 -7
right_child=-2 5 3 4 8 10 -8 -9 9 -11 -12
leaf_value=-0.019154857367506498 0.039380375930868537 0.023065095759145275 0.029106895507071118 0.00046006751313355663 -0.038638854783553257 0.019686643178694885 -0.039408603756902472 3.1120111486569603e-05 -0.0015175418206257523 -0.034844714504795059 0.039924672427525829
leaf_weight=8.9746292829513532 40.472826480865479 7.2993470728397387 4.7968809306621552 8.7656189948320407 9.5845773816108704 4.2226788699626914 44.118844389915466 6.4524404853582382 5.5628950148820877 5.624004915356636 9.8564342707395536
leaf_count=39 213 34 21 38 43 20 204 28 25 25 49
internal_value=-0.000539324 -0.0147752 -0.0276572 -0.0134863 -0.0211302 0.0252477 -0.0364024 0.0129921 -0.029844 -0.0197565 0.0355629
internal_weight=155.731 115.258 87.4275 34.334 29.5371 27.8309 53.0935 13.7518 20.7715 11.1869 14.0791
internal_count=739 526 395 152 131 131 243 62 93 50 69
is_linear=0
shrinkage=0.03


Tree=20
num_leaves=14
num_cat=0
split_feature=4 8 18 2 3 26 20 18 26 21 21 20 18
split_gain=94.5056 64.7208 11.1879 14.796 6.28517 3.65175 2.34115 1.23922 0.976963 0.427679 0.279712 0.0424928 0.0192998
threshold=1.0000000180025095e-35 1.0000000180025095e-35 0.91027063532675367 1.0000000180025095e-35 1.0000000180025095e-35 1.0000000180025095e-35 4.3174872246466327 1.3042696051166378 1.0000000180025095e-35 2.8986667661772656 2.545523582195059 4.1343659160588695 0.57941449207832885
decision_type=10 8 2 10 8 8 2 2 10 2 2 2 2
left_child=1 2 8 7 -5 6 -3 -4 11 -10 -7 -1 -2
right_child=12 5 3 4 -6 10 -8 -9 9 -11 -12 -13 -14
leaf_value=-0.042441086316806098 0.021551390309224774 0.021418689486533592 -0.014665022030840209 -0.013738293622865874 0.026255540795998393 0.019312650411498163 -0.0025059556207189357 -0.034108316511704762 -0.011200620152745639 -0.028453352120804729 0.039300206924504234 -0.030867196125497133 0.040126777104967815
leaf_weight=25.017791450023651 3.9040679037570944 8.5513979047536868 6.6571901291608837 4.983076632022855 8.0933912396430969 4.19628982245922 5.6789839118719092 13.725083872675894 4.3033337891101819 5.0450861006975174 9.7066963016986829 18.173085525631905 35.311322450637817
leaf_count=116 20 39 30 22 36 20 25 61 20 23 49 84 190
internal_value=-0.000736755 -0.0145613 -0.0274194 -0.0132909 0.0111217 0.0243353 0.0123333 -0.0287407 -0.0360006 -0.0223612 0.0349681 -0.0383799 0.0388594
internal_weight=153.347 114.131 85.998 33.4587 13.0765 28.1334 14.2304 20.3823 52.5393 9.34842 13.903 43.1909 39.2154
internal_count=735 525 392 149 58 133 64 91 243 43 69 200 210
is_linear=0
shrinkage=0.03


Tree=21
num_leaves=15
num_cat=0
split_feature=4 25 18 0 2 0 19 20 19 20 22 12 19 18
split_gain=95.6305 46.5638 10.3825 10.9374 11.6949 2.32983 5.69736 2.16969 2.09987 4.18517 1.91335 1.38102 0.871492 0.0454148
threshold=1.0000000180025095e-35 1.0000000180025095e-35 0.43501867367834662 65.500000000000014 1.0000000180025095e-35 80.500000000000014 7.1666513296886452 4.0792294928978405 5.6292348826004863 5.1278096960934834 1.0000000180025095e-35 1.0000000180025095e-35 4.4784699561505237 0.612475605355564
decision_type=10 10 2 2 10 2 2 2 2 2 10 8 2 2
left_child=1 2 11 4 8 6 10 -6 12 -10 -5 -1 -4 -2
right_child=13 -3 3 5 7 -7 -8 -9 9 -11 -12 -13 -14 -15
leaf_value=-0.016776412276528607 0.021082927868341636 0.04329878423431021 -0.010979159978988922 -0.031814648145293792 0.0048493015237935557 -0.039146610661497244 0.0062918761934086685 0.03119486201473598 0.011833400971981142 -0.02290820320093765 -0.0091998169561034928 -0.037340316548054975 -0.032642793223618807 0.039679781075559431
leaf_weight=5.9415218681097031 3.8576895892620078 10.042383372783659 4.3386981338262576 15.733750551939016 5.0864655524492282 8.8697741925716382 5.5885247886180869 6.7582082897424698 5.5729960054159147 5.0164081752300262 5.5216917246580115 30.318934753537178 5.1720629781484604 34.843010187149048
leaf_count=27 20 49 20 73 23 41 26 31 26 22 26 142 23 191
internal_value=-0.00175076 -0.0156025 -0.0216529 -0.0143593 -0.00147521 -0.0255297 -0.0197861 0.0211396 -0.015172 -0.00518096 -0.0266172 -0.0345115 -0.0247449 0.0384038
internal_weight=152.662 113.961 103.919 67.6586 31.9448 35.7137 26.844 11.8447 20.1002 10.5894 21.2554 36.2605 9.51076 38.7007
internal_count=740 529 480 311 145 166 125 54 91 48 99 169 43 211
is_linear=0
shrinkage=0.03


Tree=22
num_leaves=12
num_cat=0
split_feature=4 8 0 26 1 1 20 11 21 1 22
split_gain=93.574 65.3556 9.51187 7.39217 4.6336 4.24237 3.44299 1.38782 1.26912 2.99037 0.508526
threshold=1.0000000180025095e-35 1.0000000180025095e-35 54.500000000000007 1.0000000180025095e-35 1.0000000180025095e-35 1.0000000180025095e-35 4.1343659160588695 inf 2.4973207021709531 1.0000000180025095e-35 1.0000000180025095e-35
decision_type=10 8 2 8 2 2 2 8 2 2 8
left_child=1 2 3 5 -3 -1 -7 -4 9 -9 -6
right_child=-2 4 7 -5 10 6 -8 8 -10 -11 -12
leaf_value=-0.037069853021426576 0.038054322354720838 0.0046565312494374041 -0.018442089407618378 0.020720416860575026 0.022663175708885139 -0.020495643293600509 0.010482292896412086 -0.036665566337074143 -0.038560996400152495 -0.0059306756931477569 0.038921783957142402
leaf_weight=6.2928732484579131 39.282407939434052 8.3315331041812914 8.1985626667737943 4.5210302472114554 10.40552341938019 6.163876548409462 5.0307163596153259 5.667536184191702 43.996264472603798 5.7798551768064499 9.1885936558246595
leaf_count=28 218 38 37 20 48 28 22 27 210 27 47
internal_value=-0.00128406 -0.0151033 -0.0280318 -0.0104118 0.024148 -0.0191459 -0.00685652 -0.0338698 -0.035784 -0.0228705 0.0318073
internal_weight=152.859 113.576 85.6507 22.0085 27.9257 17.4875 11.1946 63.6422 55.4437 11.4474 19.5941
internal_count=750 532 399 98 133 78 50 301 264 54 95
is_linear=0
shrinkage=0.03


Tree=23
num_leaves=15
num_cat=0
split_feature=3 25 2 18 18 0 22 37 0 1 21 0 21 18
split_gain=64.3603 27.4055 24.1883 14.4667 7.01318 6.49035 4.62955 4.9778 3.24787 1.8237 1.12441 1.07617 2.73525 0.329663
threshold=1.0000000180025095e-35 1.0000000180025095e-35 1.0000000180025095e-35 0.53940883066996526 0.56814667781789929 74.500000000000014 1.0000000180025095e-35 1.0000000180025095e-35 72.500000000000014 1.0000000180025095e-35 2.7757039971150994 59.500000000000007 2.5915093710922874 0.89812468725045369
decision_type=10 10 8 2 2 2 10 2 2 2 2 2 2 2
left_child=1 4 -2 -4 11 6 7 -6 13 -9 -11 12 -1 -5
right_child=2 -3 3 8 5 -7 -8 9 -10 10 -12 -13 -14 -15
leaf_value=-0.0021544914481042899 -0.033359267859445964 0.040229146091784879 -0.010029657193893286 0.021050260455876213 0.012149568184816011 -0.033045026357091528 0.014895261681394075 -0.029930876409416395 0.009561322593311038 0.0003311609382899839 -0.017917490924618421 -0.036041281754349612 -0.029967168875836073 0.037315207491179822
leaf_weight=4.6561146825551978 5.6661932766437522 5.9285214990377417 7.6017328947782508 5.8209105730056754 5.287280395627028 9.8720658719539625 6.6428498774766913 7.3737136274576196 5.6580081433057776 5.3330925554037094 5.9557666182518005 24.133799031376839 10.312998130917547 40.177977189421654
leaf_count=22 26 30 36 30 24 47 32 34 28 25 27 118 48 219
internal_value=-0.000563852 -0.0175792 0.0217696 0.027507 -0.0223323 -0.0130762 -0.00579043 -0.011895 0.0331164 -0.0189785 -0.00997103 -0.0313458 -0.0219927 0.0357486
internal_weight=150.421 85.4962 64.9248 59.2586 79.5677 40.4648 30.5927 23.9499 51.6569 18.6626 11.2889 39.1029 14.9691 45.9989
internal_count=746 407 339 313 377 189 142 110 277 86 52 188 70 249
is_linear=0
shrinkage=0.03


Tree=24
num_leaves=14
num_cat=0
split_feature=4 8 3 18 19 18 0 37 19 1 19 21 18
split_gain=84.906 59.8778 9.74252 9.32041 7.85294 4.01954 2.6372 5.21662 1.21926 0.520946 0.679717 0.0678345 0.0484468
threshold=1.0000000180025095e-35 1.0000000180025095e-35 1.0000000180025095e-35 0.91827080599997424 5.4625589999258937 0.38184941825544505 61.500000000000007 1.0000000180025095e-35 7.3307301836408225 1.0000000180025095e-35 4.1979532626040763 2.7819152571143779 0.57941449207832885
decision_type=10 8 10 2 2 2 2 2 2 2 2 2 2
left_child=1 2 6 -4 -5 -3 7 -1 11 -9 -11 -7 -2
right_child=12 5 3 4 -6 8 -8 9 -10 10 -12 -13 -14
leaf_value=0.0013933349929633328 0.020310276968374001 0.0019273035463770723 -0.0290820466650165 0.036516223279407019 -0.011657313148960081 0.039231646867375181 -0.03735210649286648 -0.038624726017919768 0.013144602320186875 -0.010796752624833053 -0.028004149752267078 0.023114318728100099 0.038551425375621208
leaf_weight=6.0648447871208218 3.7800969779491416 6.0033712834119823 8.2428493350744265 4.7569005936384183 5.7078623324632645 9.2419007271528297 38.614644467830658 7.2642200738191613 5.0216432660818091 5.0423041731119165 8.638287350535391 6.9061492979526511 34.192826613783836
leaf_count=27 20 26 38 22 25 47 191 34 24 24 39 35 198
internal_value=-0.000863617 -0.0140774 -0.0264962 -0.00694028 0.0115157 0.0240372 -0.0318833 -0.0230102 0.0299374 -0.0298181 -0.0228294 0.0340885 0.0373033
internal_weight=149.478 111.505 84.3319 18.7076 10.4648 27.1731 65.6243 27.0097 21.1697 20.9448 13.6806 16.1481 37.9729
internal_count=750 532 400 85 47 132 315 124 106 97 63 82 218
is_linear=0
shrinkage=0.03


Tree=25
num_leaves=13
num_cat=0
split_feature=4 8 1 3 18 0 12 18 0 21 21 36
split_gain=80.5228 55.867 9.79475 10.3682 7.44907 4.5519 5.50515 3.4056 1.93815 1.36268 1.12269 0.1229
threshold=1.0000000180025095e-35 1.0000000180025095e-35 1.0000000180025095e-35 1.0000000180025095e-35 0.75376903420262753 62.500000000000007 inf 0.34003097050564496 70.500000000000014 2.7113724724615449 2.411429443309669 1.0000000180025095e-35
decision_type=10 8 2 10 2 2 8 2 2 2 2 2
left_child=1 2 11 5 -5 6 -4 -3 10 -8 -9 -1
right_child=-2 7 3 4 -6 -7 9 8 -10 -11 -12 -13
leaf_value=-0.022323811049594557 0.036939389665361401 0.00029497490637294928 0.013460590781666804 -0.022055389675864127 0.022785917221894381 -0.034418421541240772 -0.0064593774032084056 0.014434877252521971 0.0097984006938146642 -0.028271220950173762 0.036947773807662218 -0.04091779311436957
leaf_weight=4.4992221891880062 37.454490587115288 5.143711686134341 4.6181017756462097 4.3690922409296018 7.9301235675811768 20.053910493850708 4.4388125687837627 4.5052770078182283 5.7087054699659339 9.0925007909536344 12.743992298841475 26.818596854805946
leaf_count=21 219 22 20 20 36 100 21 22 26 42 67 132
internal_value=-0.00047274 -0.0134385 -0.0259049 -0.0171722 0.00639614 -0.0247295 -0.0127855 0.0225013 0.0272566 -0.022053 0.0321809 -0.0390199
internal_weight=147.377 109.922 81.8204 50.5025 12.2992 38.2033 18.1494 28.1017 22.958 13.5313 17.2493 31.3178
internal_count=748 529 392 239 56 183 83 137 115 63 89 153
is_linear=0
shrinkage=0.03


Tree=26
num_leaves=13
num_cat=0
split_feature=4 8 18 9 0 1 3 0 21 25 19 18
split_gain=75.806 52.8878 9.50607 13.1407 5.67952 4.5295 2.59666 2.18174 0.688506 0.452386 0.6335 0.108837
threshold=1.0000000180025095e-35 1.0000000180025095e-35 0.73476597984497327 1.0000000180025095e-35 58.500000000000007 1.0000000180025095e-35 1.0000000180025095e-35 51.500000000000007 2.5610883344145821 1.0000000180025095e-35 5.9951136983485389 0.57941449207832885
decision_type=10 8 2 8 2 2 8 2 2 8 2 2
left_child=1 2 7 -4 6 -3 -5 -1 -6 10 -7 -2
right_child=11 5 3 4 8 9 -8 -9 -10 -11 -12 -13
leaf_value=-0.01694646413507046 0.019363683059114036 0.0021620280903555801 0.025974533317419852 -0.015817225059064136 -0.015812544376628861 0.026620695543406927 0.012020872851278947 -0.038532379523444828 -0.033642867568423489 0.035796775299974881 0.0087213306794755377 0.037791869441746659
leaf_weight=7.3961886763572684 3.6827887594699851 7.8242243975400951 5.4011369645595551 5.2472950369119653 5.449258670210841 6.146080210804941 4.8586503267288217 35.503473252058029 15.694519460201262 9.3047127127647382 4.2140987366437912 32.026460617780685
leaf_count=34 20 36 24 23 26 30 22 181 76 49 20 193
internal_value=-0.000780078 -0.0134297 -0.0257553 -0.0139639 -0.0214582 0.0218912 -0.00255618 -0.0352816 -0.0299692 0.0292565 0.0207486 0.0364706
internal_weight=142.749 107.04 79.5505 36.6509 31.2497 27.4891 10.1059 42.8997 21.1438 19.6649 10.3602 35.7092
internal_count=734 521 386 171 147 135 45 215 102 99 50 213
is_linear=0
shrinkage=0.03


Tree=27
num_leaves=13
num_cat=0
split_feature=3 8 2 18 0 0 20 0 5 18 19 18
split_gain=61.8244 43.553 24.5643 9.49217 3.22452 2.61744 4.66521 1.99391 2.05636 1.16601 1.16339 1.15407
threshold=1.0000000180025095e-35 1.0000000180025095e-35 1.0000000180025095e-35 0.50982061439855786 64.500000000000014 54.500000000000007 4.1343659160588695 61.500000000000007 1.0000000180025095e-35 1.8515945406470218 7.1666513296886452 1.1330124188411219
decision_type=10 8 8 2 2 2 2 2 10 2 2 2
left_child=1 5 -2 -4 -3 6 -1 -5 9 -9 -7 -6
right_child=2 4 3 7 11 10 -8 8 -10 -11 -12 -13
leaf_value=-0.030125500844059652 -0.035452761261820016 0.029687805275769266 -0.0057896491828946985 0.037737909075645795 -0.004323805144327157 -0.036263108738620278 0.0035757989680591917 0.0020607643833765949 0.03337569060240321 0.022446693380321545 -0.019051622688588437 0.014567906090805497
leaf_weight=8.4564400762319547 5.2428696006536475 10.73375014960766 6.2758609950542441 29.979489803314209 4.8871566355228406 40.63182444870472 5.7527185529470435 6.0584935843944567 7.1993402689695349 3.6283408999443054 7.9070602506399146 5.09979148209095
leaf_count=40 25 55 31 175 22 210 25 30 42 20 39 24
internal_value=-0.00161443 -0.0180939 0.0218533 0.0280574 0.0189568 -0.0304343 -0.0171432 0.0326162 0.0219217 0.0110825 -0.0339005 0.00577105
internal_weight=141.853 83.4687 58.3844 53.1415 20.7207 62.748 14.2092 46.8657 16.8862 9.68683 48.5389 9.98695
internal_count=738 415 323 298 101 314 65 267 92 50 249 46
is_linear=0
shrinkage=0.03


Tree=28
num_leaves=12
num_cat=0
split_feature=3 8 2 18 0 26 37 25 0 25 1
split_gain=54.084 42.6856 19.7889 12.4268 3.62401 4.79637 3.52514 3.06208 3.26394 2.76193 1.85668
threshold=1.0000000180025095e-35 1.0000000180025095e-35 1.0000000180025095e-35 0.53940883066996526 62.500000000000007 1.0000000180025095e-35 1.0000000180025095e-35 1.0000000180025095e-35 64.500000000000014 inf 1.0000000180025095e-35
decision_type=10 8 8 2 2 10 2 8 2 8 2
left_child=1 4 -2 -4 5 6 -1 8 -3 10 -5
right_child=2 7 3 9 -6 -7 -8 -9 -10 -11 -12
leaf_value=-0.0018777535643380585 -0.031284604119056474 0.025458658479608192 -0.0082917256460959231 0.017121325246979714 -0.035701139865211513 0.0084664856017740778 -0.03096471250600475 0.032632115667406696 -0.0051853578865658397 0.012252895560057852 0.038209517866487713
leaf_weight=4.8956972956657472 5.1892432272434226 4.5977343320846575 7.7516114413738242 6.9983242452144614 35.345272749662399 4.1559345871210089 17.156107425689697 8.9527910202741605 6.4751595705747604 7.1184376180171958 31.957223996520042
leaf_count=22 25 23 38 39 187 19 83 47 29 39 189
internal_value=-0.00119463 -0.0169372 0.0204866 0.0259574 -0.0292102 -0.0194657 -0.0248687 0.0203813 0.00859358 0.0317733 0.0349444
internal_weight=140.594 81.5787 59.0148 53.8256 61.553 26.2077 22.0518 20.0257 11.0729 46.074 38.9555
internal_count=740 410 330 305 311 124 105 99 52 267 228
is_linear=0
shrinkage=0.03


Tree=29
num_leaves=13
num_cat=0
split_feature=4 8 1 18 2 26 20 0 0 21 36 18
split_gain=66.51 44.4688 9.00881 8.92819 13.613 4.54847 3.8946 3.49607 3.01397 2.16669 0.865392 0.10057
threshold=1.0000000180025095e-35 1.0000000180025095e-35 1.0000000180025095e-35 0.73476597984497327 1.0000000180025095e-35 1.0000000180025095e-35 4.2348306176854429 51.500000000000007 60.500000000000007 2.8986667661772656 1.0000000180025095e-35 0.61788106340767179
decision_type=10 8 2 2 10 8 2 2 2 2 2 2
left_child=1 2 10 7 9 6 -3 -4 -6 -5 -1 -2
right_child=11 5 3 4 8 -7 -8 -9 -10 -11 -12 -13
leaf_value=-0.018125976857495597 0.018696484155955363 0.021079103521743896 -0.0037001972017095628 -0.0079334886603148452 0.033338110569127298 0.033629817077896258 -0.0092860640615443409 -0.033439706886438318 0.0013826545054121014 -0.032125927200801319 -0.039490670122149026 0.036812488085595119
leaf_weight=4.5667083263397243 3.6027562469243994 7.6312418133020419 4.6126187890768078 7.1098569184541702 6.3698830157518387 11.904807865619658 6.0033480823040009 19.863059982657433 4.2937775850296021 7.1471972167491913 25.588516369462013 28.813425645232201
leaf_count=22 20 36 21 34 30 65 27 104 20 34 134 184
internal_value=-0.0015012 -0.013116 -0.0241135 -0.0157051 -0.00281853 0.0207575 0.00798829 -0.0282003 0.0216928 -0.0213721 -0.0369408 0.0354188
internal_weight=137.507 105.091 79.5516 49.3964 24.9207 25.5394 13.6346 24.4757 10.6637 14.2571 30.1552 32.4162
internal_count=731 527 399 243 118 128 63 125 50 68 156 204
is_linear=0
shrinkage=0.03


Tree=30
num_leaves=17
num_cat=0
split_feature=4 25 1 18 0 2 0 21 2 11 19 21 22 0 18 21
split_gain=62.9677 34.3682 15.6835 7.82436 7.30453 4.91994 4.29393 3.90281 2.04994 1.6665 1.66293 1.39108 1.38974 0.401899 0.0896912 0.0121195
threshold=1.0000000180025095e-35 1.0000000180025095e-35 1.0000000180025095e-35 0.43501867367834662 74.500000000000014 1.0000000180025095e-35 59.500000000000007 2.9626890809900615 1.0000000180025095e-35 inf 7.519404996982753 2.8243462541691211 1.0000000180025095e-35 57.500000000000007 0.612475605355564 2.788088175025528
decision_type=10 10 2 2 2 10 2 2 8 8 2 2 10 2 2 2
left_child=1 2 9 8 5 7 -7 10 15 -1 13 -6 -11 -5 -2 -4
right_child=14 -3 3 4 11 6 -8 -9 -10 12 -12 -13 -14 -15 -16 -17
leaf_value=-0.013251938801478071 0.018604467732786987 0.040441976792042297 -0.01465195555362128 -0.0068804804758686071 -0.0081086710245562438 0.033176598487525293 -0.0029952305587510296 -0.019815747924574974 -0.034088594271328217 -0.038603701209190766 0.020386237763790165 -0.034431905686376288 -0.015573325564449125 0.0043128612938264504 0.036546319307256443 -0.0074643949419684798
leaf_weight=5.0451896637678146 3.5956088602542868 9.2257902622222883 6.1645054966211337 4.22012807428837 3.9825028479099256 7.5210333466529828 4.2841396331787109 6.788692206144332 8.274277448654173 26.029743090271953 4.0681498348712912 4.2355502098798752 4.6713103502988806 5.4794401824474335 28.847547858953476 4.2893218696117401
leaf_count=24 20 50 32 21 20 37 20 33 42 136 20 22 24 28 188 21
internal_value=-0.000692728 -0.0120794 -0.0175451 -0.00784962 -0.000307604 0.00623116 0.0208409 -0.00273656 -0.0233475 -0.0329797 0.00645655 -0.0239391 -0.0357013 -0.000745083 0.0351736 -0.012612
internal_weight=136.723 104.28 95.054 59.3077 40.5796 32.3616 11.8052 20.5564 18.7281 35.7462 13.7677 8.21805 30.7011 9.69957 32.4432 10.4538
internal_count=738 530 480 296 201 159 57 102 95 184 69 42 160 49 208 53
is_linear=0
shrinkage=0.03


Tree=31
num_leaves=14
num_cat=0
split_feature=4 8 1 0 18 2 26 1 18 0 21 11 18
split_gain=62.9087 42.1536 10.6731 12.2669 7.39671 9.83006 4.83939 3.61942 2.94653 2.69538 0.825025 0.183585 0.105058
threshold=1.0000000180025095e-35 1.0000000180025095e-35 1.0000000180025095e-35 60.500000000000007 0.45425023319954611 1.0000000180025095e-35 1.0000000180025095e-35 1.0000000180025095e-35 0.98394763346746184 74.500000000000014 2.6282787161499033 inf 0.612475605355564
decision_type=10 8 2 2 2 10 8 2 2 2 2 8 2
left_child=1 2 11 4 -4 -6 7 -3 -5 -10 -9 -1 -2
right_child=12 6 3 8 5 -7 -8 10 9 -11 -12 -13 -14
leaf_value=-0.020462036506425262 0.018298944323294066 -0.013437987765874366 -0.021163596770736703 -0.034485916312835277 -0.010634276001933847 0.037475706170160224 0.033200141717139836 0.02594990881676382 0.00019570356596021652 -0.028384907997555275 0.0072273963115368932 -0.038742261112036082 0.03626141538091826
leaf_weight=4.303419291973114 3.5631631463766089 4.3924256563186654 6.2468761205673244 16.559476554393772 6.4005922526121122 7.355013370513916 12.116230621933935 4.1396886110305786 6.4978231191635114 4.4485587477684021 5.4902787059545517 26.646624818444256 28.665338963270187
leaf_count=21 20 19 31 90 29 35 68 20 31 23 26 145 191
internal_value=-0.00112336 -0.0124439 -0.0233747 -0.0139709 0.0038586 0.0158862 0.0200187 0.00717721 -0.0266171 -0.0128231 0.0169598 -0.0369205 0.034886
internal_weight=136.826 104.597 78.4584 47.5083 20.0025 13.7556 26.1386 14.0224 27.5059 10.9464 9.62997 30.95 32.2285
internal_count=749 538 405 239 95 64 133 65 144 54 46 166 211
is_linear=0
shrinkage=0.03


Tree=32
num_leaves=13
num_cat=0
split_feature=4 8 1 18 2 19 1 20 19 18 36 18
split_gain=62.0109 46.2598 7.27071 8.75643 10.5015 3.52508 3.52 2.13754 1.01821 0.647432 0.303302 0.165224
threshold=1.0000000180025095e-35 1.0000000180025095e-35 1.0000000180025095e-35 0.73476597984497327 1.0000000180025095e-35 5.3542222040740404 1.0000000180025095e-35 4.464757370160445 3.4547069513525037 2.5435592216412188 1.0000000180025095e-35 0.62860510385417667
decision_type=10 8 2 2 10 2 2 2 2 2 2 2
left_child=1 2 10 8 7 -6 -3 -5 -4 -8 -1 -2
right_child=11 6 3 4 5 -7 9 -9 -10 -11 -12 -13
leaf_value=-0.019162268693895236 0.017645834509812847 0.0036934312265103418 -0.011648132093073114 -0.0029740512528941406 0.032883958924101613 -0.0007221140080211361 0.032563047217708835 -0.028046316897312015 -0.032076424001849811 0.012522273069779826 -0.038334924837388595 0.035979405623804937
leaf_weight=4.0603302568197277 3.488211169838908 6.9302860349416759 4.1870311796665218 4.7875493466854104 5.4381838589906693 4.9089931547641754 13.857734337449076 8.9823749065399152 19.701703250408173 3.5581183284521094 24.226763635873795 28.318993240594864
leaf_count=20 20 33 22 23 26 23 73 44 105 20 134 193
internal_value=-0.00130364 -0.0128695 -0.0243001 -0.0166142 -0.00357268 0.0182817 0.0224958 -0.0201207 -0.0291078 0.029371 -0.0363311 0.034568
internal_weight=132.446 100.639 76.2929 48.0058 24.1171 10.3472 24.3461 13.7699 23.8887 17.4159 28.2871 31.8072
internal_count=736 523 397 243 116 49 126 67 127 93 154 213
is_linear=0
shrinkage=0.03


Tree=33
num_leaves=14
num_cat=0
split_feature=3 8 2 18 0 20 0 19 18 25 20 19 19
split_gain=45.0675 36.2339 17.8461 11.268 3.06149 4.01651 2.23047 2.13108 3.95768 2.01757 1.6588 0.198255 0.143978
threshold=1.0000000180025095e-35 1.0000000180025095e-35 1.0000000180025095e-35 0.53940883066996526 63.500000000000007 4.09684109692797 72.500000000000014 4.5293591628959149 0.64971421404911445 1.0000000180025095e-35 5.0046169968575613 7.3827307862055314 7.1666513296886452
decision_type=10 8 8 2 2 2 2 2 2 8 2 2 2
left_child=1 4 -2 -4 5 -1 11 -3 -9 -10 -7 -5 -6
right_child=2 7 3 6 12 10 -8 8 9 -11 -12 -13 -14
leaf_value=-0.028786157318922617 -0.029900039643227513 0.033368432300974124 -0.0090352714073648373 0.03446774603347505 -0.035768564839483305 0.0038237139643014792 0.01021163462890891 -0.010773774060992655 0.0053241855885314002 0.033351090204416817 -0.017454678139747066 0.01814898177109427 -0.020202757748277449
leaf_weight=14.174510657787325 5.0995440632104865 5.787563934922221 7.1026387363672248 34.072781324386597 26.273034512996677 7.3890102207660657 5.4856168925762168 4.3410795032978049 4.5808143019676182 4.8228491246700296 4.5749442875385284 4.4060440063476554 5.3088921755552283
leaf_count=75 26 30 36 220 152 35 30 20 22 28 21 27 29
internal_value=-0.000703224 -0.0154904 0.0195505 0.024968 -0.0273333 -0.0184995 0.0305402 0.0191337 0.0112832 0.0215224 -0.00503177 0.0331062 -0.0338523
internal_weight=133.419 77.2527 56.1666 51.0671 57.7204 26.1385 43.9644 19.5323 13.7447 9.40366 11.964 38.4788 31.5819
internal_count=751 412 339 313 312 131 277 100 70 50 56 247 181
is_linear=0
shrinkage=0.03


Tree=34
num_leaves=15
num_cat=0
split_feature=4 8 1 18 2 26 1 0 21 21 21 21 0 36
split_gain=61.5231 34.0946 7.42143 7.69524 8.17706 3.8573 4.23144 3.55253 2.01798 1.70297 1.22231 0.65684 0.177115 0.0592831
threshold=1.0000000180025095e-35 1.0000000180025095e-35 1.0000000180025095e-35 0.73476597984497327 1.0000000180025095e-35 1.0000000180025095e-35 1.0000000180025095e-35 64.500000000000014 2.5055176070587919 2.9626890809900615 2.6282787161499033 2.5839904324100171 53.500000000000007 1.0000000180025095e-35
decision_type=10 8 2 2 10 8 2 2 2 2 2 2 2 2
left_child=1 2 13 8 9 6 -3 -6 -4 -5 -8 -7 -10 -1
right_child=-2 5 3 4 7 11 10 -9 12 -11 -12 -13 -14 -15
leaf_value=-0.020259820338944346 0.035006754878804842 -0.015914604606227754 -0.0060881507770861858 -0.0065260629873729768 0.030260419850676356 0.013137821498610201 0.026403529891162413 -0.0039838113042097089 -0.018834159558240023 -0.02886490867823558 0.0048938024289546054 0.034659675426393137 -0.034537702845450109 -0.037642812703022145
leaf_weight=4.1909149885177639 30.503329589962959 4.6264850050210962 3.9839862436056164 6.9404486119747162 5.701904371380806 3.6421512365341169 4.4614448100328445 4.2448746860027313 5.3394245356321361 5.8742825984954834 5.212766632437706 7.2580714374780655 13.687646850943564 22.975591778755188
leaf_count=21 212 20 21 34 28 20 22 20 26 29 25 44 78 132
internal_value=-0.00152673 -0.0131204 -0.0234386 -0.0155082 -0.00287598 0.0164984 0.00555937 0.0166175 -0.0273632 -0.0181144 0.0163577 0.0291768 -0.0312914 -0.0357757
internal_weight=128.643 98.14 72.9391 45.7726 22.7615 25.2009 14.3007 9.94678 23.0111 12.8147 9.67421 10.9002 19.0271 27.1665
internal_count=732 520 389 236 111 131 67 48 125 63 47 64 104 153
is_linear=0
shrinkage=0.03


Tree=35
num_leaves=15
num_cat=0
split_feature=3 8 2 18 0 20 1 1 20 25 20 18 20 19
split_gain=36.5967 36.4465 14.8876 10.5597 2.99261 4.76337 2.72194 1.98868 1.60281 1.53489 0.885045 0.743541 0.139757 0.0137169
threshold=1.0000000180025095e-35 1.0000000180025095e-35 1.0000000180025095e-35 0.53940883066996526 63.500000000000007 4.09684109692797 1.0000000180025095e-35 1.0000000180025095e-35 5.2795754553372012 inf 3.9636657876454908 1.5454121238675096 3.7727503685549952 7.1666513296886452
decision_type=10 8 8 2 2 2 2 2 2 8 2 2 2 2
left_child=1 4 -2 -4 5 12 -3 11 -7 -9 -8 -5 -1 -6
right_child=2 6 3 7 13 8 10 9 -10 -11 -12 -13 -14 -15
leaf_value=-0.03567199749219286 -0.030988513230891277 0.0028442221813943878 -0.0095328002063521655 0.0046325512376420462 -0.035075405847605663 0.0045949403986377101 0.011906420499999551 0.034946535505765229 -0.0164635154482611 0.011987967564089078 0.032603738190231435 0.022590820872207155 -0.020205721263995634 -0.020717471287061678
leaf_weight=6.3616447001695651 4.2335637211799613 6.1016943305730829 7.1947654932737342 5.0784281790256482 24.845904484391216 7.767632842063902 4.3043436408042917 27.604344800114635 4.2380371391773224 4.3914787471294394 9.1291192919015867 3.5197977423667908 7.2874277681112289 5.5699364989995948
leaf_count=34 22 29 37 30 149 37 23 185 20 27 50 22 40 31
internal_value=-0.00117279 -0.0144255 0.0179966 0.0228823 -0.0266105 -0.0178583 0.0201412 0.0287185 -0.00353306 0.0322543 0.0272563 0.0135717 -0.0293574 -0.0331892
internal_weight=127.628 75.6057 52.0224 47.7888 56.0706 25.6547 19.5352 40.594 12.0057 31.9958 13.4335 8.59823 13.6491 30.4158
internal_count=736 413 323 301 311 131 102 264 57 212 73 52 74 180
is_linear=0
shrinkage=0.03


Tree=36
num_leaves=13
num_cat=0
split_feature=4 8 6 1 0 26 1 2 18 18 18 18
split_gain=52.5965 36.9288 8.5055 6.62658 7.23404 5.64793 4.80033 4.69282 2.59832 0.967107 0.7615 0.00839404
threshold=1.0000000180025095e-35 1.0000000180025095e-35 1.0000000180025095e-35 1.0000000180025095e-35 60.500000000000007 1.0000000180025095e-35 1.0000000180025095e-35 1.0000000180025095e-35 0.98394763346746184 1.3083291673358899 2.5268991132410812 0.57941449207832885
decision_type=10 8 8 2 2 10 2 10 2 2 2 2
left_child=1 2 3 -1 5 7 -3 -5 -6 -10 -8 -2
right_child=11 6 -4 4 8 -7 10 -9 9 -11 -12 -13
leaf_value=-0.035828357838837581 0.01838795283528525 0.00057678987179696564 0.019643600281373862 -0.025879825193994375 -0.034324253188608232 0.023588808806473186 0.031459638962487303 0.0067200755903419956 -0.00045589490637885715 -0.01943487201099595 0.010849701866752966 0.035064651260995443
leaf_weight=26.105905070900917 3.6555281430482891 8.2110905498266238 3.5496931076049796 7.7900191545486468 14.899329885840418 4.6826909035444251 13.964924409985544 6.6462186127901077 3.8792215734720212 5.6303895711898804 3.3902842104434958 26.771576434373856
leaf_count=153 21 39 17 38 88 23 77 33 20 29 20 198
internal_value=-0.000134548 -0.0107962 -0.021577 -0.0239267 -0.0161443 -0.00209022 0.0197143 -0.0114083 -0.026637 -0.0124729 0.028244 0.03371
internal_weight=129.177 98.7498 73.1835 69.6338 43.5279 19.1189 25.5663 14.4362 24.4089 9.50961 17.3552 30.4271
internal_count=756 537 401 384 231 94 136 71 137 49 97 219
is_linear=0
shrinkage=0.03


Tree=37
num_leaves=14
num_cat=0
split_feature=4 8 1 0 17 2 17 3 21 0 19 21 36
split_gain=50.8291 33.6922 8.42041 8.84317 6.12391 10.9107 2.98817 1.7453 1.13652 1.12846 0.557909 0.274541 0.196402
threshold=1.0000000180025095e-35 1.0000000180025095e-35 1.0000000180025095e-35 62.500000000000007 1.0000000180025095e-35 1.0000000180025095e-35 1.0000000180025095e-35 1.0000000180025095e-35 2.9626890809900615 70.500000000000014 7.1666513296886452 2.411429443309669 1.0000000180025095e-35
decision_type=10 8 2 2 2 10 2 10 2 2 2 2 2
left_child=1 2 12 4 -4 8 -3 10 -6 11 -5 -8 -1
right_child=-2 6 3 7 5 -7 9 -9 -10 -11 -12 -13 -14
leaf_value=-0.018495019308194673 0.033381849305373364 0.00026354206829679998 -0.02157034391411488 -0.03369415329121566 -0.00031494713940295618 0.03567588773075063 0.015079996062713284 -0.0080691666374775838 -0.021184733405659507 0.0097806488712788662 -0.014222729377016708 0.032672725534353984 -0.036833808046074966
leaf_weight=3.8572294712066677 29.121002718806267 6.1416909992694881 6.9273415356874475 13.76099362969399 4.2695602327585203 7.0808877795934686 3.8962475210428265 4.8491066545248023 4.3039646148681641 5.1794468015432349 3.8380268514156333 9.3386459946632367 22.421425834298134
leaf_count=20 214 28 37 83 20 35 21 23 20 25 21 57 136
internal_value=-0.000660264 -0.0112392 -0.0216105 -0.0132543 0.000138864 0.0104639 0.0185455 -0.0261584 -0.0119102 0.0243153 -0.0304408 0.0289168 -0.0349187
internal_weight=124.986 95.8646 71.3085 45.0299 22.5818 15.6544 24.556 22.4481 8.57352 18.4143 17.599 13.2349 26.2787
internal_count=740 526 395 239 112 75 131 127 40 103 104 78 156
is_linear=0
shrinkage=0.03


Tree=38
num_leaves=19
num_cat=0
split_feature=4 25 18 0 22 11 21 16 18 21 21 21 21 3 37 18 18 18
split_gain=48.0626 27.3798 6.15792 6.31097 5.73969 3.546 2.53448 3.502 1.78332 1.56533 1.28294 2.04783 1.05933 0.712002 0.383287 0.257581 0.247091 0.907844
threshold=1.0000000180025095e-35 1.0000000180025095e-35 0.43501867367834662 74.500000000000014 1.0000000180025095e-35 inf 3.1527268908608845 1.0000000180025095e-35 1.3042696051166378 2.9418004506160189 2.6282787161499033 2.8302634829926228 2.5915093710922874 1.0000000180025095e-35 1.0000000180025095e-35 0.62860510385417667 0.29638710320657907 0.36115877892986259
decision_type=10 10 2 2 10 8 2 10 2 2 2 2 2 8 2 2 2 2
left_child=1 2 14 4 5 -4 7 8 10 -6 -7 -12 -9 -5 -1 -2 -16 -18
right_child=15 -3 3 13 9 6 -8 12 -10 -11 11 -13 -14 -15 16 -17 17 -19
leaf_value=-0.014514571567803874 0.015851468783893454 0.038349730362556858 0.012250039193774669 -0.031876150762654008 0.022994378244663286 0.0049579242313467099 -0.03308409341481832 -0.0046583063901067655 -0.029261448273264202 -0.00091538320386207813 -0.028473326122164525 0.001400096264386362 0.014866749929189849 -0.011564464710431587 -0.033105555732216504 0.034535686546077096 -0.007164462127258818 -0.028665220268380698
leaf_weight=4.9576685130596188 3.2850332409143475 8.1947734355926496 4.6252263933420181 9.7700656801462138 6.1160170286893827 3.693424105644235 4.4165174663066855 4.0716919749975187 5.9899167120456687 3.6564420908689499 3.6227165013551712 3.5713800191879272 4.2591666281223297 3.6892650872468957 15.485059544444086 24.756907284259796 4.1359251141548139 3.9530279487371445
leaf_count=26 20 49 23 58 33 20 23 21 30 20 21 20 23 18 92 192 24 24
internal_value=-0.000822008 -0.0111206 -0.0162203 -0.0102663 -0.0045056 -0.0102757 -0.0140778 -0.00961253 -0.0171439 0.0147938 -0.00857657 -0.0152822 0.0058474 -0.0274935 -0.0274619 0.0329681 -0.0294833 -0.0196696
internal_weight=122.25 94.2083 86.0135 57.4818 44.0225 34.25 29.6248 25.2083 16.8774 9.77246 10.8875 7.1941 8.33086 13.4593 28.5317 28.0419 23.574 8.08895
internal_count=737 525 476 310 234 181 158 135 91 53 61 41 44 76 166 212 140 48
is_linear=0
shrinkage=0.03


Tree=39
num_leaves=14
num_cat=0
split_feature=4 8 6 0 22 22 2 19 18 1 18 0 18
split_gain=48.1903 35.2831 8.76828 4.14675 5.37693 3.85864 2.75063 1.91695 1.39897 1.2524 1.97755 1.21696 0.163596
threshold=1.0000000180025095e-35 1.0000000180025095e-35 1.0000000180025095e-35 54.500000000000007 1.0000000180025095e-35 1.0000000180025095e-35 1.0000000180025095e-35 5.3454346673367334 0.91027063532675367 1.0000000180025095e-35 1.2906081649627044 63.500000000000007 0.612475605355564
decision_type=10 8 10 2 10 10 8 2 2 2 2 2 2
left_child=1 2 3 4 6 7 -1 -3 -5 -10 -11 -9 -2
right_child=12 5 -4 8 -6 -7 -8 11 9 10 -12 -13 -14
leaf_value=-0.03108593689967297 0.016429224125955481 0.019582218545729099 0.017549126553397541 -0.034591037823589466 0.015337874673620208 0.031173390788935756 -0.0045340730508301539 0.0092889092384895715 -0.031069532835401717 0.0030599869993217484 -0.0214979252716174 -0.011240587930786226 0.034297182115019247
leaf_weight=8.2437710165977478 3.3592325001955059 5.348797783255578 3.9137122035026541 29.41585436463356 4.1254162937402716 10.728282615542412 6.2973096519708642 3.8231404274702054 7.2110969424247751 4.1065907627344131 7.7811865210533142 4.6753343343734741 23.500625744462013
leaf_count=43 20 27 19 186 20 66 31 20 42 21 40 21 186
internal_value=-0.00204899 -0.0120516 -0.022692 -0.0252593 -0.0122963 0.0184137 -0.0206188 0.00709431 -0.0298978 -0.021308 -0.0134353 -0.00199952 0.0327324
internal_weight=122.53 95.6705 71.0949 67.1812 18.6665 24.5756 14.5411 13.8473 48.5147 19.0989 11.8878 8.49847 26.8599
internal_count=742 536 402 383 94 134 74 68 289 103 61 41 206
is_linear=0
shrinkage=0.03


Tree=40
num_leaves=12
num_cat=0
split_feature=4 8 18 2 0 18 18 0 20 20 21
split_gain=48.8442 33.7664 6.34248 9.2034 7.82024 4.55778 2.52547 2.10595 1.19762 1.91431 0.110667
threshold=1.0000000180025095e-35 1.0000000180025095e-35 0.91027063532675367 1.0000000180025095e-35 66.500000000000014 0.34003097050564496 1.3042696051166378 51.500000000000007 5.2621717855406667 3.8372901696096471 2.4973207021709531
decision_type=10 8 2 10 2 2 2 2 2 2 2
left_child=1 2 7 6 -5 -3 -4 -1 9 -7 -9
right_child=-2 5 3 4 -6 8 -8 10 -10 -11 -12
leaf_value=-0.012718048153006097 0.033622861583149394 -0.0050699912083134726 -0.0057436656148508137 0.029525532919704316 -0.017267253130582763 0.0076564776375398352 -0.031160198028256338 -0.020128421404509583 0.0075112011805168154 0.034929013548042197 -0.03439548997686822
leaf_weight=7.7167687863111487 27.530873171985149 5.2319650948047665 5.6243102252483395 6.5869355201721209 4.7110742479562759 3.6686505675315884 11.557325050234793 5.8862418681383124 3.6595576554536811 11.45182818174362 27.362482890486717
leaf_count=39 217 23 30 33 24 20 63 37 21 68 174
internal_value=-0.000783567 -0.0111678 -0.0217042 -0.0103103 0.0101963 0.018954 -0.0236137 -0.0291909 0.0255649 0.0291974 -0.0325312
internal_weight=120.988 93.4571 69.4451 28.4796 11.298 24.012 17.1816 40.9655 18.78 15.1205 33.2487
internal_count=749 532 400 150 57 132 93 250 109 88 211
is_linear=0
shrinkage=0.03


Tree=41
num_leaves=12
num_cat=0
split_feature=4 8 18 9 1 18 2 19 18 0 18
split_gain=44.8577 29.5404 7.43584 9.12761 4.90532 4.20867 3.48413 1.94963 1.77681 1.73572 0.109999
threshold=1.0000000180025095e-35 1.0000000180025095e-35 0.73476597984497327 1.0000000180025095e-35 1.0000000180025095e-35 0.31114771979399708 1.0000000180025095e-35 6.6688615566375411 1.3042696051166378 51.500000000000007 2.24707014821217
decision_type=10 8 2 8 2 2 10 2 2 2 2
left_child=1 2 9 -4 -5 -3 8 10 -6 -1 -7
right_child=-2 5 3 4 6 7 -8 -9 -10 -11 -12
leaf_value=-0.013105358945038543 0.033295472661283007 -0.0082100904590142795 0.024119586922144245 -0.033129472053874544 -0.0021701646342324431 0.031857647567457334 0.0088724824105102726 0.0080549429611595884 -0.025583977263833997 -0.034163367646513954 0.014538794121958788
leaf_weight=5.9887490868568412 25.730420500040054 4.3712550550699261 4.8733418583869934 9.9526796936988848 4.9632809013128298 10.058045558631422 6.8847897648811331 6.8624790608882895 6.8438783288002014 27.543721094727516 3.0642092227935782
leaf_count=31 207 19 23 59 26 59 35 36 36 179 20
internal_value=-0.000939483 -0.0108325 -0.0210373 -0.01057 -0.0170863 0.0169824 -0.00729543 0.0226214 -0.0166796 -0.0308909 0.0291293
internal_weight=117.137 91.4064 67.0504 33.518 28.6446 24.356 18.6919 19.9847 11.8072 33.5325 13.1223
internal_count=730 523 389 179 156 134 97 115 62 210 79
is_linear=0
shrinkage=0.03


Tree=42
num_leaves=18
num_cat=0
split_feature=4 25 1 18 21 0 20 2 2 22 18 37 20 18 20 22 18
split_gain=44.6726 26.9764 9.36587 6.69971 6.76534 3.96929 2.89707 2.79315 2.32381 2.13538 1.98531 1.22455 0.933485 0.928545 0.852625 0.772281 0.314297
threshold=1.0000000180025095e-35 1.0000000180025095e-35 1.0000000180025095e-35 0.29638710320657907 2.9418004506160189 61.500000000000007 5.2963133558492679 1.0000000180025095e-35 1.0000000180025095e-35 1.0000000180025095e-35 1.1249243262543802 1.0000000180025095e-35 4.2563194180332635 0.17813743195869633 4.1858593819109187 1.0000000180025095e-35 0.612475605355564
decision_type=10 10 2 2 2 2 2 10 10 10 2 2 2 2 2 10 2
left_child=1 2 11 13 5 8 7 -6 14 10 12 -1 -7 -4 -5 -13 -2
right_child=16 -3 3 4 6 9 -8 -9 -10 -11 -12 15 -14 -15 -16 -17 -18
leaf_value=-0.01371372856189052 0.014786180076556842 0.038292490716228901 -0.010942629799378297 -0.0044070461372305997 -0.019713860030066647 -0.005836878334296516 -0.035169776472641315 0.010640512397114138 0.031776053049722523 0.012137595129076542 0.0050920273438418645 -0.034971317398662688 -0.028415453356078191 -0.034053903862549542 0.013752248764007281 -0.014112057323201308 0.0337130310463018
leaf_weight=5.9137224107980755 3.1755445748567608 7.8656471073627463 3.4621936082839948 3.605323329567911 5.6314350813627225 3.4899526387453061 5.1919832825660697 3.8042917102575302 4.8385667204856873 4.0299034416675559 3.9847004860639572 21.928142070770267 3.8100406974554062 7.8332464396953583 4.0804277360439301 3.7656929492950431 22.721220016479492
leaf_count=32 20 49 19 20 32 21 28 21 26 23 20 136 22 47 21 23 193
internal_value=-0.00209206 -0.0118085 -0.0168145 -0.00891807 -0.00319181 0.00550105 -0.0190291 -0.0076287 0.0173834 -0.00468621 -0.0111932 -0.0295604 -0.0196249 -0.0284361 0.00570721 -0.0325574 0.0320282
internal_weight=119.132 93.2353 85.3696 53.7621 42.4666 27.8389 14.6277 9.43573 12.5243 15.3146 11.2847 31.6076 7.29999 11.2954 7.68575 25.6938 25.8968
internal_count=753 540 491 300 234 153 81 53 67 86 63 191 43 66 41 159 213
is_linear=0
shrinkage=0.03


Tree=43
num_leaves=14
num_cat=0
split_feature=3 8 2 18 0 0 20 25 18 18 11 1 19
split_gain=32.6132 25.241 11.3632 7.90767 3.56529 2.60471 5.61322 1.51044 0.970544 0.961438 0.844156 0.604188 0.052605
threshold=1.0000000180025095e-35 1.0000000180025095e-35 1.0000000180025095e-35 0.50982061439855786 64.500000000000014 59.500000000000007 4.09684109692797 inf 1.2781483229373369 1.1330124188411219 inf 1.0000000180025095e-35 7.1666513296886452
decision_type=10 8 8 2 2 2 2 8 2 2 8 2 2
left_child=1 5 -2 -4 -3 6 -1 11 -8 -6 -7 -5 -12
right_child=2 4 3 7 9 10 8 -9 -10 -11 12 -13 -14
leaf_value=-0.02923513194883897 -0.025461419487941134 0.027971217496037145 -0.0061319062777401403 0.016769123926022759 -0.0066828957523428758 -0.01071710365445915 0.011074804746855696 0.010841354837931189 -0.0068598983902771471 0.010722018201487505 -0.033419186155012617 0.033734090573780649 -0.019357414478291861
leaf_weight=9.4921184927225131 3.9748262614011756 9.133865065872671 6.6182572394609442 5.4900476634502438 4.7889513522386533 3.2832833975553513 4.754062280058859 5.1825982704758635 4.2225537449121475 4.6922777742147446 23.532074943184856 24.842167355120182 5.4380512237548819
leaf_count=56 23 55 37 39 23 19 23 35 20 24 163 192 33
internal_value=-0.000765734 -0.013697 0.0185583 0.0232051 0.0155902 -0.024539 -0.0143224 0.0286903 0.00279643 0.00213198 -0.0297825 0.0312967 -0.0315136
internal_weight=115.445 69.3372 46.1079 42.1331 18.6151 50.7221 18.4687 35.5148 8.97662 9.48123 32.2534 30.3322 28.9701
internal_count=742 416 326 303 102 314 99 266 43 47 215 231 196
is_linear=0
shrinkage=0.03


Tree=44
num_leaves=15
num_cat=0
split_feature=4 8 6 1 0 2 1 18 0 18 21 20 20 18
split_gain=42.6235 25.5228 6.61902 3.89419 4.17014 5.20442 3.15218 2.30905 1.54822 1.36883 4.21344 0.972117 1.27554 0.757605
threshold=1.0000000180025095e-35 1.0000000180025095e-35 1.0000000180025095e-35 1.0000000180025095e-35 60.500000000000007 1.0000000180025095e-35 1.0000000180025095e-35 1.0801073758511597 66.500000000000014 0.98394763346746184 2.8707317708119455 3.8033229670845743 4.4320058600457983 0.52176116117507498
decision_type=10 8 10 2 2 10 2 2 2 2 2 2 2 2
left_child=1 2 3 -1 5 13 8 -7 -3 -6 -11 -8 -13 -5
right_child=-2 6 -4 4 9 7 11 -9 -10 10 -12 12 -14 -15
leaf_value=-0.033402609679548279 0.032781136532613969 0.011908440275665287 0.016520859088083109 -0.0061270725475588601 -0.032026592001680919 -0.0032710279224315679 0.0063463043063473404 0.026468135369070125 -0.011557133822601085 0.0078358821064612588 -0.031882876840897273 0.035254032015924336 0.012778320019881509 -0.025643018836661084
leaf_weight=21.516562461853027 25.348668143153191 3.9253192692995071 3.3481910526752463 3.5020075291395187 12.028341278433802 4.3669185787439346 3.5183261483907708 3.6407600492238998 4.2047027349472046 4.0080231428146345 4.0150800496339798 6.4692205116152746 5.7873979955911636 5.8131420016288757
leaf_count=145 218 20 17 20 81 22 20 20 20 21 23 40 35 28
internal_value=-0.000659883 -0.0107635 -0.0207973 -0.0231594 -0.0165455 -0.00529486 0.0151467 0.0116875 -0.000164137 -0.025552 -0.0133716 0.0225769 0.0264058 -0.0196113
internal_weight=111.493 86.144 62.239 58.8908 37.3743 17.3228 23.905 8.00768 8.13002 20.0514 8.0231 15.7749 12.2566 9.31515
internal_count=730 512 377 360 215 90 135 42 40 125 44 95 75 48
is_linear=0
shrinkage=0.03


Tree=45
num_leaves=11
num_cat=0
split_feature=4 25 8 1 21 1 11 21 19 26
split_gain=38.8538 23.3277 15.8326 6.03501 4.64191 3.54825 2.64726 3.09846 0.930263 0.140229
threshold=1.0000000180025095e-35 1.0000000180025095e-35 1.0000000180025095e-35 1.0000000180025095e-35 2.3075602584206303 1.0000000180025095e-35 inf 2.6137328127880433 5.9188794015264019 1.0000000180025095e-35
decision_type=10 10 10 2 2 2 8 2 2 10
left_child=1 2 3 -1 -5 -4 -6 -8 -7 -9
right_child=-2 -3 5 4 6 8 7 9 -10 -11
leaf_value=-0.034276303060313089 0.031413719674523208 0.037605902796585738 -0.0093149757917872934 0.013013216412155948 0.00060528014675473481 0.025264649539522163 -0.0026450990241954127 -0.028317088526577591 0.0068846845264545929 -0.014605318026989403
leaf_weight=23.393272832036018 24.450207024812698 7.2707924693822852 5.4077507853508004 4.1765048950910559 5.6946508064866066 6.650046780705452 6.4625696837902096 19.016923457384113 5.1484595388174057 4.3887940645217887
leaf_count=157 214 47 25 22 30 37 38 116 28 26
internal_value=-0.00126948 -0.0106423 -0.0154175 -0.0222969 -0.0145768 0.0096625 -0.0180842 -0.0215517 0.0184089 -0.0264498
internal_weight=112.06 87.6098 80.339 63.1327 39.7394 17.2063 35.5629 29.8683 11.7985 23.4057
internal_count=740 526 479 389 232 90 210 180 65 142
is_linear=0
shrinkage=0.03


Tree=46
num_leaves=14
num_cat=0
split_feature=4 8 6 1 18 0 2 18 21 22 18 26 18
split_gain=37.59 26.2368 6.77001 4.6089 5.03601 5.70503 5.05116 3.04735 2.03185 1.80972 4.19215 0.928678 0.402592
threshold=1.0000000180025095e-35 1.0000000180025095e-35 1.0000000180025095e-35 1.0000000180025095e-35 0.612475605355564 62.500000000000007 1.0000000180025095e-35 0.38184941825544505 2.8243462541691211 1.0000000180025095e-35 1.3545448303384364 1.0000000180025095e-35 0.612475605355564
decision_type=10 8 10 2 2 2 10 2 2 10 2 10 2
left_child=1 2 3 -1 11 6 -6 -3 -7 10 -9 -5 -2
right_child=12 7 -4 4 5 8 -8 9 -10 -11 -12 -13 -14
leaf_value=-0.033258320181342518 0.013507120918986178 -0.0021900935890145634 0.01650602414223909 -0.031010434179948629 -0.010250710839708381 -0.0066411987072727144 0.027948232615214012 0.026567672410974557 -0.032357571840778469 0.033052746398609882 -0.010226617138939926 -0.0111545546074251 0.033020598967390964
leaf_weight=22.172523759305477 3.033333100378516 5.6993692666292217 3.6200968623161307 13.396864056587221 5.3096907585859316 6.4047951847314817 5.3925313502550125 5.8523915261030215 4.9558387398719788 7.6338028982281676 3.9852654188871384 4.3102041333913794 21.080135643482208
leaf_count=154 20 26 18 88 26 36 28 33 30 54 20 26 196
internal_value=-0.00125319 -0.0103222 -0.0199514 -0.0223105 -0.0155408 -0.00554624 0.00974013 0.016622 -0.0195696 0.0225451 0.0120939 -0.0270318 0.0312015
internal_weight=112.847 88.7334 65.5625 61.9424 39.7699 22.0629 10.7022 23.1708 11.3606 17.4715 9.83766 17.7071 24.1135
internal_count=755 539 406 388 234 120 54 133 66 107 53 114 216
is_linear=0
shrinkage=0.03


Tree=47
num_leaves=13
num_cat=0
split_feature=4 8 1 18 2 26 20 19 21 36 21 20
split_gain=36.5638 26.7877 5.60878 5.55428 6.81079 3.77921 3.54569 2.64906 2.16159 1.54488 1.30051 0.0126337
threshold=1.0000000180025095e-35 1.0000000180025095e-35 1.0000000180025095e-35 0.73476597984497327 1.0000000180025095e-35 1.0000000180025095e-35 4.2143470814835746 5.4992132179189657 2.8986667661772656 1.0000000180025095e-35 2.5915093710922874 3.9522043336703745
decision_type=10 8 2 2 10 8 2 2 2 2 2 2
left_child=1 2 9 10 8 6 -3 -6 -5 -1 -4 -7
right_child=-2 5 3 4 7 11 -8 -9 -10 -11 -12 -13
leaf_value=-0.0096394084949495678 0.032100987125052924 0.018747012900961098 -0.0074069905540925796 -0.0027906653851778769 0.029256220839035323 0.01595093471119919 -0.009734987465826947 -0.0017119626560510386 -0.027250359297251347 -0.034764621647422826 -0.028203711801421984 0.032900178653472972
leaf_weight=3.5244144201278713 22.7809749096632 7.3817187994718569 4.3376156017184284 6.4481263756752014 5.0613233149051666 3.2912024259567243 6.542690321803093 4.0366568267345428 6.1279667168855667 19.688280954957008 14.672522522509096 7.1257375851273537
leaf_count=20 209 38 26 34 27 21 31 20 35 143 97 51
internal_value=-0.00096255 -0.00976282 -0.0198886 -0.0126637 -0.00204269 0.0165536 0.00560854 0.0167072 -0.0158385 -0.0315055 -0.0240657 0.0294113
internal_weight=111.019 88.2383 63.8969 40.6842 21.6741 24.3413 13.9244 9.09798 12.5761 23.2127 19.0101 10.4169
internal_count=752 543 402 239 116 141 69 47 69 163 123 72
is_linear=0
shrinkage=0.03


Tree=48
num_leaves=13
num_cat=0
split_feature=4 8 1 3 18 19 25 0 0 20 18 19
split_gain=36.3142 25.4329 5.05219 5.28595 5.98556 3.0127 4.59803 1.86274 2.3591 1.0227 0.402916 0.25671
threshold=1.0000000180025095e-35 1.0000000180025095e-35 1.0000000180025095e-35 1.0000000180025095e-35 0.73476597984497327 5.3454346673367334 1.0000000180025095e-35 59.500000000000007 48.500000000000007 4.09684109692797 0.57941449207832885 7.1666513296886452
decision_type=10 8 2 10 2 2 8 2 2 2 2 2
left_child=1 2 -1 7 -5 -3 -7 8 -4 -10 -2 -9
right_child=10 5 3 4 -6 6 -8 11 9 -11 -12 -13
leaf_value=-0.032657142658579379 0.01326775290877239 0.028471298367487668 -0.025854415015105176 -0.022362778451158763 0.019614325442783458 -0.0091177617650904774 0.02463371920338327 -0.029621496827719595 -0.010887984243508269 0.0082841968941837364 0.032702034458509589 -0.013805577457076867
leaf_weight=20.448882289230824 3.0132110416889217 9.3133882358670252 4.3506327718496349 3.9929003864526731 6.9330639392137527 7.3588929697871182 5.5202158465981492 12.710254535079004 3.4821778237819654 4.6744311153888702 20.493078909814358 3.9757047295570365
leaf_count=147 20 58 22 22 37 37 35 91 21 23 200 24
internal_value=-0.00128001 -0.0106663 -0.0206512 -0.0138864 0.00368495 0.0163 0.00608128 -0.0203669 -0.0103745 -0.0001959 0.0308539 -0.0268468
internal_weight=106.267 82.7605 60.568 40.1192 10.926 22.1925 12.8791 29.1932 12.5072 8.15661 23.5063 16.686
internal_count=737 517 387 240 59 130 72 181 66 44 220 115
is_linear=0
shrinkage=0.03


Tree=49
num_leaves=13
num_cat=0
split_feature=4 25 8 18 36 1 21 20 18 20 18 19
split_gain=31.9382 22.5609 18.0189 6.07806 7.30146 4.33756 5.533 2.80299 2.2307 2.16675 0.505927 0.271554
threshold=1.0000000180025095e-35 1.0000000180025095e-35 1.0000000180025095e-35 0.73476597984497327 1.0000000180025095e-35 1.0000000180025095e-35 2.9418004506160189 3.7600359708137669 1.2906081649627044 4.2477804456445627 0.61788106340767179 3.4547069513525037
decision_type=10 10 10 2 2 2 2 2 2 2 2 2
left_child=1 2 3 11 -5 -6 8 -4 -7 -9 -2 -1
right_child=10 -3 7 4 5 6 -8 9 -10 -11 -12 -13
leaf_value=-0.017900468489930352 0.012160133345562331 0.037288926637296417 -0.007230864719268826 0.019572930310851142 -0.034064112693917466 0.016572208237596493 -0.02730538726415957 0.031381869512382567 -0.0090472597943753955 0.0064163509730619456 0.032476420390356239 -0.033453365601407374
leaf_weight=5.1673796698451069 2.8837953656911877 7.5510000810027114 4.2967613935470608 4.72791360318661 8.9172873720526713 5.8211176097393054 7.0371412038803092 5.8069449141621572 4.6793270409107208 7.0073907002806664 19.296535909175873 24.242900744080544
leaf_count=35 20 52 21 24 61 32 41 33 25 37 193 175
internal_value=-0.000797087 -0.00919155 -0.0141247 -0.0217292 -0.0119166 -0.0180522 -0.00851236 0.0125168 0.00536141 0.0191825 0.0304735 -0.0313992
internal_weight=107.435 85.2552 77.7042 60.5931 31.1828 26.4549 17.5376 17.1111 10.5004 12.8143 22.1803 29.4103
internal_count=749 536 484 393 183 159 98 91 57 70 213 210
is_linear=0
shrinkage=0.03


Tree=50
num_leaves=14
num_cat=0
split_feature=3 8 2 18 0 20 0 25 1 20 21 18 21
split_gain=24.3672 17.5916 10.4904 6.68593 2.85551 4.62645 2.83117 1.65197 1.39478 0.754783 0.680636 0.233457 0.00830769
threshold=1.0000000180025095e-35 1.0000000180025095e-35 1.0000000180025095e-35 0.50982061439855786 63.500000000000007 4.09684109692797 64.500000000000014 inf 1.0000000180025095e-35 4.6774869535558006 2.6497083809956692 0.52176116117507498 2.6426160634996907
decision_type=10 8 8 2 2 2 2 8 2 2 2 2 2
left_child=1 4 -2 -4 5 11 12 8 -5 -7 -8 -1 -3
right_child=2 6 3 7 -6 9 10 -9 -10 -11 -12 -13 -14
leaf_value=-0.031173908065847532 -0.025311583231274703 0.015070588816235166 -0.0068852037048011865 0.012185961300671408 -0.030226326933297926 0.009669396469699337 -0.0072079917484490462 0.0089755689446862231 0.032685554868000066 -0.0056225823470110294 0.0076205167746164187 -0.014995961740120321 0.030134739826999379
leaf_weight=6.3959465175867098 4.0385172963142386 4.1855327337980297 6.024888113141059 5.2966757640242603 22.507607735693455 4.3703993484377843 4.2001453787088376 5.3717067912220946 22.52177894115448 5.369635283946991 5.0134156048297882 4.684825673699379 3.629410982131958
leaf_count=47 25 26 36 42 173 23 21 39 199 28 26 27 25
internal_value=-0.000548736 -0.0127817 0.0164245 0.0212452 -0.02279 -0.0137344 0.0125356 0.0264036 0.0293407 0.00150043 0.000816829 -0.0261415 0.0246916
internal_weight=103.61 60.3569 43.2536 39.215 43.3284 20.8208 17.0285 33.1902 27.8185 9.74003 9.21356 11.0808 7.81494
internal_count=737 396 341 316 298 125 98 280 241 51 47 74 51
is_linear=0
shrinkage=0.03


Tree=51
num_leaves=14
num_cat=0
split_feature=4 25 8 6 18 0 2 18 20 20 22 0 18
split_gain=31.0542 21.2885 14.0377 5.38791 3.91728 3.22492 3.51973 2.95635 2.76534 2.76651 0.905102 2.24916 0.418861
threshold=1.0000000180025095e-35 1.0000000180025095e-35 1.0000000180025095e-35 1.0000000180025095e-35 0.91027063532675367 76.500000000000014 1.0000000180025095e-35 1.3042696051166378 3.7600359708137669 4.2477804456445627 1.0000000180025095e-35 60.500000000000007 0.57941449207832885
decision_type=10 10 10 10 2 2 10 2 2 2 10 2 2
left_child=1 2 3 4 10 6 7 -6 -4 -10 -1 -12 -2
right_child=12 -3 8 -5 5 -7 -8 -9 9 -11 11 -13 -14
leaf_value=-0.032929645437892924 0.012696746080893452 0.03695008518760047 -0.0096098877087044433 0.014226821195377397 0.0039680634970485134 -0.031943307916212249 0.010862960477979881 -0.026094331584858171 0.030638318949450287 0.0024817078234566792 0.0011564503686111497 -0.029288813756360197 0.032208563187242259
leaf_weight=24.976482950150967 2.947585858404639 7.1346425339579573 4.0388314276933697 3.0593353062868109 4.2497668117284828 4.9363103136420241 6.3869686499238005 7.1193534061312675 5.6381203681230527 6.326334223151207 3.5489754825830451 4.3881430625915527 18.741146124899387
leaf_count=188 20 50 20 16 25 33 34 43 33 33 19 33 196
internal_value=-0.000870345 -0.00938247 -0.0142394 -0.0209605 -0.0231136 -0.01268 -0.00590706 -0.0154447 0.0101827 0.01709 -0.0297211 -0.0170694 0.0302333
internal_weight=103.492 81.8033 74.6686 58.6653 55.606 22.6924 17.7561 11.3691 16.0033 11.9645 32.9136 7.93712 21.6887
internal_count=743 527 477 391 375 135 102 68 86 66 240 52 216
is_linear=0
shrinkage=0.03


Tree=52
num_leaves=15
num_cat=0
split_feature=4 25 8 18 36 2 0 20 19 18 18 0 18 19
split_gain=30.0914 20.3065 14.0098 4.22885 6.4528 4.11977 3.7449 3.42141 1.89101 0.955486 0.426934 0.414432 1.16799 0.0106108
threshold=1.0000000180025095e-35 1.0000000180025095e-35 1.0000000180025095e-35 0.91027063532675367 1.0000000180025095e-35 1.0000000180025095e-35 66.500000000000014 3.7600359708137669 6.6688615566375411 1.3042696051166378 0.57941449207832885 61.500000000000007 0.45425023319954611 4.752295412652999
decision_type=10 10 10 2 2 10 2 2 2 2 2 2 2 2
left_child=1 2 3 11 -5 9 -7 -4 13 -6 -2 12 -1 -9
right_child=10 -3 7 4 5 6 -8 8 -10 -11 -12 -13 -14 -15
leaf_value=-0.027483182592713387 0.012485244391990223 0.035285332528917843 -0.010325631917005163 0.02345282904920943 -0.011767400617055963 0.01795007910299868 -0.019695426815857568 0.015767203483020492 0.0013937095712657443 -0.031881149801931311 0.032041060952043732 -0.032322627613635926 -0.0082581972411804299 0.032465412082702823
leaf_weight=8.4955110773444158 2.9248791113495853 7.3257184103131285 4.5004002153873435 3.2846585065126446 4.8425751477479961 4.2015043050050727 3.3830668702721596 3.7845871150493604 4.0464751124382019 9.2049913927912694 18.259290494024754 18.486761197447777 5.7370508611202231 3.5303383246064186
leaf_count=58 20 53 22 17 30 23 19 21 21 60 196 151 32 21
internal_value=-0.000974804 -0.00936775 -0.0142323 -0.0210286 -0.0110573 -0.0171021 0.000820197 0.0102455 0.0185701 -0.0261902 0.0300255 -0.028069 -0.0207846 0.0267614
internal_weight=102.008 80.8236 73.4979 57.6361 24.9168 21.6321 7.58457 15.8618 11.3614 14.0476 21.1842 32.7193 14.2326 7.31493
internal_count=744 528 475 390 149 132 42 85 63 90 216 241 90 42
is_linear=0
shrinkage=0.03


Tree=53
num_leaves=16
num_cat=0
split_feature=4 8 11 18 26 1 21 0 1 26 21 18 21 20 20
split_gain=27.6018 16.7999 5.83196 6.75729 4.14559 3.97094 4.29977 4.16162 2.97544 1.49492 0.864042 0.50943 0.104059 0.0301433 1.20243
threshold=1.0000000180025095e-35 1.0000000180025095e-35 inf 0.75376903420262753 1.0000000180025095e-35 1.0000000180025095e-35 2.6137328127880433 62.500000000000007 1.0000000180025095e-35 1.0000000180025095e-35 2.7440554690903465 0.57941449207832885 2.5989721962006249 4.044802583110152 4.328757488524956
decision_type=10 8 8 2 8 2 2 2 2 10 2 2 2 2 2
left_child=1 2 3 -1 8 -4 7 -7 -3 13 -10 -2 -6 -8 -15
right_child=11 4 5 -5 12 6 9 -9 10 -11 -12 -13 -14 14 -16
leaf_value=-0.020871961945788376 0.011531247586321078 -0.015566393474599087 -0.033321486422094593 0.025692048229742085 0.013983820472787388 0.020287666895835076 -0.031131275284783776 -0.015427514566195136 0.019478600209156254 -0.0049829818105467626 0.0012720015398479207 0.031910804114425359 0.031465078876195658 -0.0038366753550898975 -0.02556344203201143
leaf_weight=4.2468946799635887 2.7808662280440357 4.5703325122594842 15.469130672514437 5.0658530369400978 3.0354886725544912 4.7631835341453534 6.3085560798645082 5.0014643147587776 4.7025960832834244 4.7570920884609214 4.2388367205858231 18.011722587049007 6.1791218593716621 3.6482480838894826 7.7592830136418343
leaf_count=27 19 20 128 26 21 26 46 32 26 30 22 198 49 25 49
internal_value=-0.000122527 -0.00820744 -0.0168232 0.00449261 0.0132071 -0.020991 -0.0142497 0.00226054 0.00213843 -0.0212141 0.0118436 0.0298394 0.0276392 -0.0250734 -0.0194842
internal_weight=100.539 79.7461 57.0197 9.31275 22.7264 47.707 32.2378 9.76465 13.5118 22.4732 8.94143 20.7926 9.21461 17.7161 11.4075
internal_count=744 527 389 53 138 336 208 58 68 150 48 217 70 120 74
is_linear=0
shrinkage=0.03


Tree=54
num_leaves=15
num_cat=0
split_feature=4 25 8 1 18 2 0 19 0 36 0 19 18 20
split_gain=26.8608 18.5165 10.0519 4.44368 4.10074 4.78853 7.61119 3.12619 1.65298 1.43458 1.03748 1.40007 0.46374 0.192389
threshold=1.0000000180025095e-35 1.0000000180025095e-35 1.0000000180025095e-35 1.0000000180025095e-35 0.4478807203108312 1.0000000180025095e-35 65.500000000000014 5.3454346673367334 63.500000000000007 1.0000000180025095e-35 74.500000000000014 7.1666513296886452 0.612475605355564 4.341853565113448
decision_type=10 10 10 2 2 10 2 2 2 2 2 2 2 2
left_child=1 2 3 9 -5 10 -7 -4 -9 -1 11 13 -2 -6
right_child=12 -3 7 4 5 6 -8 8 -10 -11 -12 -13 -14 -15
leaf_value=-0.0069573108798972137 0.011855785134861508 0.035866892846759028 0.021871236170547839 -0.026621497153315937 -0.021478853868799306 0.03149992209977974 -0.018053966885687205 0.0093028403800988705 -0.014197188009590349 -0.033886534056939081 -0.028075803897693388 0.004018106150758493 0.031704501099342482 -0.0081674534477423066
leaf_weight=2.6464018672704723 2.8528995662927654 6.6734470427036277 6.5784538090229026 11.276397995650767 3.656331002712248 5.5055148750543594 4.0197768732905388 3.9615800380706769 5.0172874629497528 16.538055136799812 3.507906138896943 4.1285393089056015 17.15949023514986 3.7525408789515495
leaf_count=17 20 50 37 84 24 30 23 23 24 135 26 22 194 23
internal_value=-0.000548055 -0.00862838 -0.0132772 -0.0192209 -0.0124109 -0.00510307 0.0108592 0.00763882 -0.00393549 -0.0307005 -0.0152558 -0.00942952 0.0295738 -0.0165098
internal_weight=97.2746 77.2622 70.5888 55.0315 35.847 24.5706 9.52529 15.5573 8.97887 19.1845 15.0453 11.5374 20.0124 7.40887
internal_count=732 518 468 384 232 148 53 84 47 152 95 69 214 47
is_linear=0
shrinkage=0.03


Tree=55
num_leaves=13
num_cat=0
split_feature=4 25 8 18 36 2 0 1 18 20 0 17
split_gain=29.0077 16.5768 10.5124 4.87102 6.91503 3.04364 4.38238 2.98598 1.45393 0.726566 3.24194 0.698267
threshold=1.0000000180025095e-35 1.0000000180025095e-35 1.0000000180025095e-35 0.91027063532675367 1.0000000180025095e-35 1.0000000180025095e-35 66.500000000000014 1.0000000180025095e-35 1.3042696051166378 4.09684109692797 61.500000000000007 1.0000000180025095e-35
decision_type=10 10 10 2 2 10 2 2 2 2 2 2
left_child=1 2 3 9 -5 8 -7 -4 -6 -1 -11 -9
right_child=-2 -3 7 4 5 6 -8 11 -10 10 -12 -13
leaf_value=-0.032230629342776956 0.030771470414786603 0.035212957355662121 -0.0095202561515051378 0.023983519426101947 -0.0082431240032704994 0.018062019738198546 -0.021443127725824108 0.0046398952867777654 -0.031109509621243217 -0.0017636348079992622 -0.029560230734585032 0.022307044168404747
leaf_weight=16.574481338262558 19.278914891183376 5.9211377575993529 4.9811670482158634 3.882695451378825 4.6723406761884698 4.2795238792896271 3.8497191220521927 3.6029353439807883 8.4253451898694021 6.0327665358781806 9.7311492860317212 6.6074028909206399
leaf_count=133 211 45 24 20 30 24 22 17 57 34 83 42
internal_value=-0.00127198 -0.00942342 -0.0134907 -0.0192917 -0.00886668 -0.0156841 -0.000945783 0.00828296 -0.0241157 -0.0268776 -0.0196624 0.0170428
internal_weight=97.8396 78.5607 72.6395 57.448 25.1096 21.2269 8.12924 15.1915 13.0977 32.3384 15.7639 10.2103
internal_count=742 531 486 403 153 133 46 83 87 250 117 59
is_linear=0
shrinkage=0.03


Tree=56
num_leaves=14
num_cat=0
split_feature=4 25 8 1 18 2 0 18 0 19 36 21 18
split_gain=24.3926 16.6761 10.4708 4.99561 4.8275 7.26007 8.09249 3.39033 2.00313 1.21547 0.602246 0.529766 0.401885
threshold=1.0000000180025095e-35 1.0000000180025095e-35 1.0000000180025095e-35 1.0000000180025095e-35 0.4478807203108312 1.0000000180025095e-35 65.500000000000014 0.38184941825544505 70.500000000000014 7.1666513296886452 1.0000000180025095e-35 2.5610883344145821 0.57941449207832885
decision_type=10 10 10 2 2 10 2 2 2 2 2 2 2
left_child=1 2 3 10 -5 9 -7 -4 11 -6 -1 -9 -2
right_child=12 -3 7 4 5 6 -8 8 -10 -11 -12 -13 -14
leaf_value=-0.012758189360741601 0.012296770864507273 0.03519683369996477 -0.012492858442047648 -0.027820477508421555 -0.021467644437711524 0.036528817957170279 -0.015939857539160596 0.010729243485239766 -0.0015077438383987471 -0.0033305130588645129 -0.03337617490525454 0.031211205177579464 0.031428508038105096
leaf_weight=3.2441881224513063 2.9494036659598377 6.4141923710703841 4.0406318455934516 9.9121719226241094 10.257508903741835 5.6112896800041199 3.6599200293421745 3.3681965768337232 3.5826587378978729 5.3155137374997148 15.52442954480648 4.5264670476317406 16.310345388948917
leaf_count=20 21 50 18 76 69 31 21 20 17 31 134 31 193
internal_value=-1.77722e-05 -0.00777304 -0.0122105 -0.018427 -0.0111606 -0.00369452 0.0162809 0.00904917 0.0170265 -0.0158514 -0.030638 0.0246614 0.0292503
internal_weight=94.7169 75.4572 69.043 53.525 34.7564 24.8442 9.27121 15.518 11.4773 15.573 18.7686 7.89466 19.2597
internal_count=732 518 468 382 228 152 52 86 68 100 154 51 214
is_linear=0
shrinkage=0.03


Tree=57
num_leaves=17
num_cat=0
split_feature=4 25 8 1 18 0 2 18 0 21 21 0 36 0 18 18
split_gain=23.6796 16.2795 10.7274 4.19842 4.47596 4.46814 3.68606 2.65512 2.64797 1.68424 1.60469 1.1166 0.830363 0.76073 0.64209 0.0958379
threshold=1.0000000180025095e-35 1.0000000180025095e-35 1.0000000180025095e-35 1.0000000180025095e-35 0.4478807203108312 74.500000000000014 1.0000000180025095e-35 0.31114771979399708 70.500000000000014 2.5376494037109896 2.6354730848759527 61.500000000000007 1.0000000180025095e-35 53.500000000000007 0.612475605355564 0.31114771979399708
decision_type=10 10 10 2 2 2 10 2 2 2 2 2 2 2 2 2
left_child=1 2 3 12 15 6 10 -4 9 -9 -6 -12 -1 -8 -2 -5
right_child=14 -3 7 4 5 -7 13 8 -10 -11 11 -13 -14 -15 -16 -17
leaf_value=-0.011152282273776832 0.0097380987103281545 0.03464216479503357 -0.010992985068395996 -0.031458980154014188 0.0053833871347207501 -0.029123916197426998 0.024053942919757484 0.0046059566149564257 -0.0050738998317969766 0.032296189315438505 -0.024058769617900214 -0.0015322795761016945 -0.033240077397187678 0.0052305310825488472 0.031250994583584497 -0.014402904881788999
leaf_weight=3.1542920768260965 2.5962947607040432 6.3091194853186598 4.1164012849330929 7.1344135105609876 4.1944394558668172 4.4261982887983313 3.9609065055847168 3.4224802255630475 3.8981327265501013 5.347560241818428 4.7331613004207611 3.2456330433487892 15.467109180986881 4.3380531743168831 15.758736215531824 3.1809291690587997
leaf_count=20 19 50 18 57 23 34 22 20 19 36 26 24 136 23 192 24
internal_value=-0.00083966 -0.00820741 -0.0124658 -0.0189126 -0.0122433 -0.00491369 0.00143328 0.00811234 0.0146705 0.0230676 -0.00884176 -0.0160866 -0.0302577 0.0158351 0.0288684 -0.0279371
internal_weight=95.2839 76.9288 70.6197 53.8351 35.2137 24.8984 20.4722 16.7846 12.6682 8.77004 12.1732 7.97879 18.6214 8.29896 18.355 10.3153
internal_count=743 532 482 389 233 152 118 93 75 56 73 50 156 45 211 81
is_linear=0
shrinkage=0.03


Tree=58
num_leaves=12
num_cat=0
split_feature=4 25 8 1 21 20 36 20 19 20 20
split_gain=25.4181 16.0913 10.0227 5.22799 4.72451 3.08941 3.04926 2.49606 1.0078 0.0306291 1.75782
threshold=1.0000000180025095e-35 1.0000000180025095e-35 1.0000000180025095e-35 1.0000000180025095e-35 2.6137328127880433 3.7898547330673718 1.0000000180025095e-35 4.2477804456445627 5.7333360402263844 4.5395642863639623 4.1805210894617968
decision_type=10 10 10 2 2 2 2 2 2 2 2
left_child=1 2 3 -1 8 -4 -6 -7 -5 10 -8
right_child=-2 -3 5 4 6 7 9 -9 -10 -11 -12
leaf_value=-0.0324356922625385 0.02894705808181415 0.034274598462167842 -0.012472362135719953 0.012326000351002092 0.0054162382576551475 0.0289777405085043 -0.025621886368346326 0.0015668311629126247 -0.0047185103935120454 -0.028864462697425548 -0.00100111102996761
leaf_weight=18.232313431799412 18.882676817476749 6.0239909514784804 4.2715893238782874 5.3129603266715986 3.3989066034555462 5.0374180153012258 8.1146856397390383 6.1637600958347321 5.3865086361765862 7.9896264076232901 3.7744259089231482
leaf_count=158 221 49 21 33 20 31 64 34 32 52 27
internal_value=-0.00121157 -0.00922192 -0.013536 -0.0197353 -0.0121877 0.00731061 -0.0195229 0.0152588 0.00407529 -0.0238422 -0.0184897
internal_weight=92.5889 73.7062 67.6822 52.2094 33.9771 15.4728 23.2776 11.2012 10.6995 19.8787 11.8891
internal_count=742 521 472 386 228 86 163 65 65 143 91
is_linear=0
shrinkage=0.03


Tree=59
num_leaves=16
num_cat=0
split_feature=4 1 0 18 2 5 21 22 18 21 18 26 20 18 0
split_gain=23.3761 8.73357 4.8394 3.79113 4.1717 3.70406 2.33977 1.42146 1.44733 1.34968 1.1702 0.711457 0.57903 0.545978 0.0473379
threshold=1.0000000180025095e-35 1.0000000180025095e-35 62.500000000000007 0.21912746546557763 1.0000000180025095e-35 1.0000000180025095e-35 3.0680421183589632 1.0000000180025095e-35 0.98394763346746184 2.5839904324100171 1.0560390634780512 1.0000000180025095e-35 4.5272033851773523 0.57941449207832885 51.500000000000007
decision_type=10 2 2 2 10 8 2 10 2 2 2 10 2 2 2
left_child=1 5 3 -3 6 11 10 9 -9 -4 -5 14 -11 -2 -1
right_child=13 2 7 4 -6 -7 -8 8 -10 12 -12 -13 -14 -15 -16
leaf_value=-0.015810571122497181 0.010507952843139946 -0.015557421497976422 -0.0026003320568499795 0.01742586243998314 0.02687600779584351 0.0028646977605468306 -0.015510782438069885 -0.011400925897432135 0.013417337251477942 -0.02690798210299879 -0.0037515574494146903 -0.010202092056942749 -0.010087386074295128 0.031001210493555087 -0.032659132448283557
leaf_weight=3.1841524690389731 2.716320879757407 4.465218752622607 5.4701611846685472 5.1874136254191381 9.0773667469620705 3.9488449916243544 4.1158270835876474 3.3417926207184783 3.1263866871595383 6.4287075176835042 3.2994595021009445 3.1129846274852744 4.9020985960960388 15.11331272870302 14.042654074728487
leaf_count=22 20 29 34 33 63 24 24 27 20 49 20 22 33 193 121
internal_value=-0.0012846 -0.00880085 -0.00143278 0.00729981 0.0124859 -0.0231415 0.000907237 -0.0111412 0.000785287 -0.015519 0.00966508 -0.0280881 -0.021039 0.028603 -0.0305832
internal_weight=91.5327 73.7031 49.4144 26.1453 21.6801 24.2886 12.6027 23.2691 6.46818 16.801 8.48687 20.3398 11.3308 17.8296 17.2268
internal_count=734 521 332 169 140 189 77 163 47 116 53 165 82 213 143
is_linear=0
shrinkage=0.03


Tree=60
num_leaves=15
num_cat=0
split_feature=4 25 8 18 11 1 21 12 1 19 19 21 18 19
split_gain=22.3095 14.2768 9.37337 4.68456 4.84465 4.41214 4.19853 3.01168 2.78851 1.6164 1.2408 1.07515 0.703546 0.563302
threshold=1.0000000180025095e-35 1.0000000180025095e-35 1.0000000180025095e-35 0.4478807203108312 inf 1.0000000180025095e-35 2.6354730848759527 1.0000000180025095e-35 1.0000000180025095e-35 4.9508830358188947 6.7184089247044758 2.9418004506160189 0.612475605355564 6.0878943402107923
decision_type=10 10 10 2 8 2 2 8 2 2 2 2 2 2
left_child=1 2 3 -1 -5 -6 10 -4 -9 -8 -7 -11 -2 -10
right_child=12 -3 7 4 5 6 9 8 13 11 -12 -13 -14 -15
leaf_value=-0.031471130769252322 0.0088784261576227309 0.033552702553119679 0.027869921001710412 0.011946065266817567 -0.032388117842950682 0.017892394283238262 -0.0013518185309301933 -0.016793127024090679 0.016380668577507845 -0.0087397338393432958 -0.0041558303164434636 -0.031835048351641221 0.030906692791473053 0.0006975169380546071
leaf_weight=16.076942257583141 2.5133878737688091 5.758475460112094 3.7023226097226143 5.7503572180867195 9.6244682669639605 4.3192100822925594 4.0455036982893935 4.6180345416069049 4.3337723836302757 3.9043762460350973 3.4952365905046463 5.540981687605381 15.046426981687544 3.5103117376565933
leaf_count=145 19 48 21 32 83 25 27 22 27 26 20 37 197 19
internal_value=-0.00108532 -0.00830246 -0.0122294 -0.0182733 -0.011807 -0.0164589 -0.00813367 0.00741217 -0.000284323 -0.0177985 0.00867802 -0.0240389 0.028402 0.0102347
internal_weight=92.2398 74.68 68.9215 52.7571 36.6801 30.9298 21.3053 16.1644 12.4621 13.4909 7.81445 9.44536 17.5598 7.84408
internal_count=748 532 484 395 250 218 135 89 68 90 45 63 216 46
is_linear=0
shrinkage=0.03


Tree=61
num_leaves=15
num_cat=0
split_feature=4 8 1 25 18 18 20 19 25 21 20 20 21 36
split_gain=22.684 13.982 6.40869 4.96146 4.8548 3.86163 2.88661 2.00034 2.63269 1.81195 1.57494 1.22451 0.730717 0.115442
threshold=1.0000000180025095e-35 1.0000000180025095e-35 1.0000000180025095e-35 inf 0.29638710320657907 0.73476597984497327 5.3468262724877862 5.3454346673367334 1.0000000180025095e-35 2.5915093710922874 3.9806153609893591 4.6515737107811956 3.0081517452274507 1.0000000180025095e-35
decision_type=10 10 2 8 2 2 2 2 8 2 2 2 2 2
left_child=1 2 13 5 -3 9 10 -6 -9 -4 -7 -12 -11 -1
right_child=-2 4 3 -5 7 6 -8 8 -10 12 11 -13 -14 -15
leaf_value=-0.015501319517510017 0.029778227182748331 -0.014454508786127458 0.0042510945733700688 -0.028543953698258417 0.032603057399443892 -0.0027431781651448732 -0.012491266474812657 -0.003729082953817586 0.025577003283372823 -0.026035589753021466 0.028576661913514909 0.0043068743153284721 -0.0076310835619506677 -0.032453583292890054
leaf_weight=3.3432694748044023 16.627923667430878 3.8301838934421566 3.4665448889136341 7.4488040879368773 6.2189525365829459 3.1764955520629874 3.9561616554856291 5.5095871388912174 4.1205045953392991 5.760992228984831 5.3576362282037717 3.228464663028717 4.3178831711411476 14.280219241976738
leaf_count=21 209 17 23 51 49 20 24 30 30 49 31 20 33 139
internal_value=-0.000854592 -0.0080416 -0.015821 -0.00827981 0.0131646 -0.00234912 0.0075679 0.020301 0.0100368 -0.0135864 0.0147646 0.0208522 -0.0195514 -0.0302427
internal_weight=90.6436 74.0157 54.3365 36.713 19.6792 29.2642 15.7188 15.849 9.63009 13.5454 11.7626 8.5861 10.0789 17.6235
internal_count=746 537 411 251 126 200 95 109 60 105 71 51 82 160
is_linear=0
shrinkage=0.03


Tree=62
num_leaves=15
num_cat=0
split_feature=4 25 8 1 18 25 0 37 1 21 18 18 20 11
split_gain=20.7607 14.6415 10.8321 3.63379 3.78142 4.28512 3.8653 3.59536 2.55326 2.14364 1.49872 0.502629 0.497674 0.458119
threshold=1.0000000180025095e-35 1.0000000180025095e-35 1.0000000180025095e-35 1.0000000180025095e-35 0.31114771979399708 1.0000000180025095e-35 62.500000000000007 1.0000000180025095e-35 1.0000000180025095e-35 2.6354730848759527 1.022444458016261 0.57941449207832885 4.2477804456445627 inf
decision_type=10 10 10 2 2 8 2 2 2 2 2 2 2 8
left_child=1 2 3 13 -5 6 9 -4 -9 -6 -8 -2 -10 -1
right_child=11 -3 7 4 5 -7 10 8 12 -11 -12 -13 -14 -15
