tree
version=v4
num_class=1
num_tree_per_iteration=1
label_index=0
max_feature_idx=45
objective=binary sigmoid:1
feature_names=Age Sex history__sudden_onset_pain history__severe_pain history__tearing_pain history__migrating_pain history__trauma_related history__marfan_or_ctd history__aortic_disease_history exam__pulse_deficit exam__bp_difference exam__new_aortic_regurgitation_murmur exam__neurologic_deficit exam__hypotension_or_shock exam__text_suggests_ais exam__text_suggests_aos troponin_abnormal D_D_abnormal D_D_log NT_proBNP_log Mb_log CK_MB_log echo__ascending_aorta_dilated echo__aortic_valve_disease echo__pericardial_effusion echo__suspected_intimal_flap echo__suggest_aas_on_echo history__sudden_onset_pain_missing history__severe_pain_missing history__tearing_pain_missing history__migrating_pain_missing history__trauma_related_missing history__marfan_or_ctd_missing history__aortic_disease_history_missing exam__pulse_deficit_missing exam__bp_difference_missing exam__new_aortic_regurgitation_murmur_missing exam__neurologic_deficit_missing exam__hypotension_or_shock_missing exam__text_suggests_ais_missing exam__text_suggests_aos_missing echo__ascending_aorta_dilated_missing echo__aortic_valve_disease_missing echo__pericardial_effusion_missing echo__suspected_intimal_flap_missing echo__suggest_aas_on_echo_missing
feature_infos=[14:94] [0:1] [0:1] [0:1] [0:1] [0:1] [0:1] [0:1] [0:1] [0:1] [0:1] [0:1] [0:1] [0:1] none none [0:1] [0:1] [0.0029955089797984:7.9966538754626084] [1.791759469228055:10.463131911491969] [2.0794415416798357:12.952454859082501] [0.69314718055994529:7.259819610363186] [0:1] [0:1] [0:1] [0:1] [0:1] [0:1] [0:1] [0:1] [0:1] none [0:1] [0:1] [0:1] [0:1] [0:1] [0:1] [0:1] none none none none none [0:1] none
tree_sizes=1389 1290 1412 1290 1291 1526 1211 1621 1309 1495 1317 1522 1627 1298 1507 1413 1301 1411 1308 1519 1937 1314 1316 1620 1732 1730 1319 1622 1384 1831 1951 1407 1380 1491 1507 1518 1418 1412 1514 1849 1732 1507 1622 1507 1528 1634 1526 1630 1614 1627 1739 2050 1527 1424 1618 1835 1955 1743 1503 1959 1832 2060 1835 1437 1967 1643 1944 1626 2144 1947 1965 2057 1938 2156 1825 2269 1840 1818 1842 1949 1624 2052 1628 1623 1845 1932 1949 2242 2151 1617 2134 2241 2179 2129 2052 2366 2246 2336 1815 2064 1723 2262 2366 2248 1729 2546 1944 2178 2148 2139 1926 2252 2161 2359 1976 2146 2471 2166 2452 2153 2150 2127 2236 2160 2130 2377 2476 2206 2369 2284 2372 2264 2368 2161 2353 2131 2254 2538 2359 2790 2358 2039 2368 2452 2781 2181 2594 2976 2573 1832 2260 2371 2381 2140 2469 2037 2512 2469 2052 2572 2262 2367 2465 2678 2257 2356 1962 2251 2131 2378 2281 2448 2037 2466 2162 2361 2256 2673 2597 2507 2265 3015 2283 2370 2898 2167 2142 2389 1947 2039 2147 2158 2803 2358 1965 2270 2353 2068 2272 2385 2693 2702 2371 2363 2166 2493 2588 2079 2380 2074 2266 2288 2187 2499 2700 2395 2306 2251 2156 2359 2511 2608 2715 2298 2373 2167 2154 2604 2242 2395 2251 1747 2362 2395 2269 2798 2233 2496 2727 2067 2609 2181 2170 1870 2486 2589 2182 2398 2372 2251 1727 2505 2072 2159 2503 2512 2399 2688 2480 2261 2189 2457 2604 2173 3035 2489 2504 2187 2597 2482 2282 2069 2278 2172 2366 1979 2158 2176 2406 2412 2817 2362 2279 2262 2620 2277 1945 2167 2388 2488 2483 2058 2412 2061 2200 2506 1865 2611 2523 2386 2404 2077 2095 2664 2188 2402 2067 2383 2394 2409 2467 2064 2522 2374 2080 2178 2480 2391 2092 2196 1867 2411 2284 2055 2477 2286 2275 2299 2069 2296 2292 2363 2057 2700 2319 2073 2618 2382 2714 1980 2619 2811 2382 2488 2737 2290 2283 2196 2503 2095 2285 2096 2505 1870 2321 3066 2421 2624 2503 2319 2074 2293 2616 2296 2617 1972 2299 2401 2091 2293 2303 2172 2278 2305 2313 2195 2416 1879 2616 1961 2202 1927 2642 2085 2308 2420 2522 2425 2074 1732 1783 2097 2431 2187 2398 2282 2310 1884 2518 2434 2394 2525 2316 2632 1971 2193 2103 2091 2113 2106 2397 2635 1867 2642 1874 1855 1958 2733 2180 2505 1871 2215 1983 1995 2169 2099 1985 2409 2215 2427 2232 1668 2203 2532 2405 1974 2547 2539 2097 2649 2551 2088 2648 2217 2169 2763 2109 2512 1897 2542 2327 2309 2218 2393 2010 2444 1888 2081 2089 2105 2093 1962 2422 2307 2333 2327 2091 2077 2287 1574 1980 2206 1878 1979 2211 2098 1888 2503 1776 2436 2548 2668 2294 2320 2204 2552 2066 1967 1875 2307 2274 1797 2111 2306 2221 2310 2179 1863 2102 2095 2208 2102 2342 2106 2168 1671 1577 2197 2109 1732 2111 2659 1687 2078 1981 2010 2117 1662 1978 1879 1677 2351 2100 2545 1995 2767 1769 2312 1971 1688 1876 2175 1907 1959 2224 2428 2349 1997 2201 2112 2093 2076 2239 2016 2005 2107 1783 2336 1765 2411 1878 2445 2222 1971 2081 1773 2343 2356 2015 2001 2340 2540 2005 1893 1779 2336 2535 1763 2093 2008 3184 2348 2207 2215 2222 1671 2342 2559 2215 1782 2094 1870 2325 2225 1997 2330 1468 2244 1994 2221 2319 2096 2442 2011 2325 2460 2241 1674 2330 1990

Tree=0
num_leaves=12
num_cat=0
split_feature=4 8 0 18 22 1 3 21 19 9 18
split_gain=254.658 190.213 21.601 20.774 5.48854 3.87389 3.79305 2.25895 1.448 0.983855 0.086944
threshold=1.0000000180025095e-35 1.0000000180025095e-35 59.500000000000007 0.73476597984497327 1.0000000180025095e-35 1.0000000180025095e-35 1.0000000180025095e-35 2.5915093710922874 5.9330023761382913 1.0000000180025095e-35 0.56814667781789929
decision_type=10 8 2 2 8 2 10 2 2 8 2
left_child=1 2 3 7 5 -3 -5 -1 -7 -4 -2
right_child=10 4 9 6 -6 8 -8 -9 -10 -11 -12
leaf_value=0.043241974525982094 0.095312004391551824 0.066429298908115345 0.031437578997641019 0.053328457224215531 0.11564144493856059 0.10787227010309719 0.082665924898717602 0.014304556107230054 0.079949808194004116 0.0059300076803300017 0.11985368292044765
leaf_weight=5.1380965709686306 4.7359132915735236 5.5461425781250009 5.668087363243103 8.2629316598176938 15.023831889033316 5.6434638947248459 5.9694316834211341 16.392193078994751 4.7816425859928131 57.570836052298546 44.087729573249817
leaf_count=21 20 23 23 34 64 24 25 66 20 231 188
internal_value=0.0604267 0.0384839 0.0182637 0.037957 0.102448 0.0876655 0.0661183 0.020028 0.0976719 0.00768972 0.11817
internal_weight=178.82 129.997 99.0016 35.7627 30.9951 15.9712 14.2324 21.5303 10.4251 63.2389 48.8236
internal_count=739 531 400 146 131 67 59 87 44 254 208
is_linear=0
shrinkage=1


Tree=1
num_leaves=11
num_cat=0
split_feature=4 8 0 18 1 18 19 10 1 18
split_gain=240.328 172.327 24.7006 16.3567 4.68932 2.88158 2.70455 0.900934 0.715622 0.0571624
threshold=1.0000000180025095e-35 1.0000000180025095e-35 54.500000000000007 0.73476597984497327 1.0000000180025095e-35 2.3335962094631211 5.0106130713801926 inf 1.0000000180025095e-35 0.56814667781789929
decision_type=10 8 2 2 2 2 2 8 2 2
left_child=1 2 3 8 -3 7 -5 -4 -1 -2
right_child=9 4 5 6 -6 -7 -8 -9 -10 -11
leaf_value=-0.047471509027678674 0.031570012965939087 0.015082364558714497 -0.029474484148749914 0.021953171408060298 0.046714534707630144 -0.021859398897939454 -0.0055492036806790877 -0.054087891548802239 -0.024260400895247194 0.055378380749888073
leaf_weight=5.7338306158781069 4.7298601269721976 6.6979442089796093 5.4224650710821152 6.4367188960313779 22.093698248267174 4.9067797213792792 5.092098280787468 63.564318731427193 6.8771854341030121 44.908950805664062
leaf_count=23 20 28 22 27 94 20 21 255 28 192
internal_value=-0.00154235 -0.0234458 -0.042328 -0.0151678 0.0401091 -0.0508797 0.0103324 -0.052602 -0.0375261 0.053778
internal_weight=176.464 126.825 98.0334 24.1398 28.7916 73.8936 11.5288 68.9868 12.611 49.6388
internal_count=730 518 396 99 122 297 48 277 51 212
is_linear=0
shrinkage=0.03


Tree=2
num_leaves=12
num_cat=0
split_feature=4 8 0 2 18 22 19 20 18 18 18
split_gain=233.847 161.212 17.6199 20.4335 21.3111 5.88693 3.95523 1.93907 0.807057 0.218516 0.0266056
threshold=1.0000000180025095e-35 1.0000000180025095e-35 59.500000000000007 1.0000000180025095e-35 1.083497219343849 1.0000000180025095e-35 6.1081352352533109 4.0951772018816319 0.98766512271122087 1.2237711063438923 0.56814667781789929
decision_type=10 8 2 10 2 8 2 2 2 2 2
left_child=1 2 3 7 -5 6 -3 -1 -4 -10 -2
right_child=10 5 8 4 -6 -7 -8 -9 9 -11 -12
leaf_value=-0.051018815870732731 0.030833406149572494 0.033224118028038388 -0.056006967023607947 -0.024407259256477513 0.044496311897664113 0.050022297846893389 0.0030998489851411012 -0.026527933030219754 -0.025782573833025429 -0.044910027179612552 0.053952436795867247
leaf_weight=12.466083243489267 4.7215815335512152 9.205668509006502 41.447577282786369 9.3278530538082105 5.6392649114131919 14.245894491672514 6.736237406730651 9.0933450013399106 5.9054425060749081 17.385153576731682 44.027353227138519
leaf_count=50 20 39 166 38 24 61 28 37 24 70 189
internal_value=-0.00309637 -0.0239091 -0.0419745 -0.0242876 0.00271484 0.0360939 0.0214294 -0.0423228 -0.0514325 -0.0413213 0.052378
internal_weight=180.201 131.453 101.265 36.5265 14.9671 30.1878 15.9419 21.5594 64.7382 23.2906 48.7489
internal_count=746 537 409 149 62 128 67 87 260 94 209
is_linear=0
shrinkage=0.03


Tree=3
num_leaves=11
num_cat=0
split_feature=4 8 0 2 18 1 20 11 18 18
split_gain=207.947 172.591 16.6624 14.6698 19.69 4.87922 2.86752 1.25741 0.824772 0.00248129
threshold=1.0000000180025095e-35 1.0000000180025095e-35 59.500000000000007 1.0000000180025095e-35 0.62325745929580267 1.0000000180025095e-35 4.0951772018816319 inf 0.50379644514047073 0.56814667781789929
decision_type=10 8 2 10 2 2 2 8 2 2
left_child=1 2 3 6 -5 -3 -1 -4 -7 -2
right_child=9 5 7 4 -6 8 -8 -9 -10 -11
leaf_value=-0.04917122102320285 0.030125260496580864 0.016128339802154754 -0.029512447375901616 -0.038096973862474744 0.028650154729900672 0.024248319645403756 -0.0221580295670901 -0.052367668949275199 0.048959120615610315 0.052621093827720074
leaf_weight=11.705116495490076 4.7112524509429923 8.5808887779712695 6.9014070779085159 5.9508423805236808 8.2989546060562116 4.7130701541900661 8.8279357403516752 56.992572709918022 18.63562323153019 42.630239725112915
leaf_count=47 20 36 28 24 35 20 36 229 80 184
internal_value=-0.00217206 -0.0217057 -0.0412434 -0.0234996 0.000105603 0.0380934 -0.0391256 -0.0503918 0.0451718 0.0510519
internal_weight=177.948 130.606 98.6768 34.7828 14.2498 31.9296 20.5331 63.894 23.3487 47.3415
internal_count=739 535 399 142 59 136 83 257 100 204
is_linear=0
shrinkage=0.03


Tree=4
num_leaves=11
num_cat=0
split_feature=4 8 0 26 18 2 19 18 11 18
split_gain=202.655 157.182 17.3526 16.7744 10.2032 12.9202 4.53455 2.12814 1.52495 0.0223907
threshold=1.0000000180025095e-35 1.0000000180025095e-35 59.500000000000007 1.0000000180025095e-35 0.62325745929580267 1.0000000180025095e-35 6.6688615566375411 0.38184941825544505 inf 0.57941449207832885
decision_type=10 8 2 10 2 10 2 2 8 2
left_child=1 2 3 4 -1 -6 7 -3 -4 -2
right_child=9 6 8 -5 5 -7 -8 -9 -10 -11
leaf_value=-0.045127022429949759 0.029342233325013459 0.018947630733899056 -0.02783629172297291 0.022791464499219188 -0.038448925625205618 0.018226559779645612 0.014941517418273806 0.047870829388800801 -0.051507658291282725 0.051431131641446255
leaf_weight=17.859325200319294 4.6964971274137488 4.7241551429033342 6.6444112807512283 5.475579857826232 5.9484375864267331 6.6689729392528534 8.5470554679632169 18.090731501579285 57.321832343935966 42.806469708681107
leaf_count=72 20 20 27 23 24 28 36 78 231 186
internal_value=-0.0025726 -0.0217921 -0.0401083 -0.0224846 -0.0310847 -0.00935427 0.0359989 0.042929 -0.0495151 0.0498972
internal_weight=178.783 131.281 99.9186 35.9523 30.4767 12.6174 31.3619 22.8149 63.9662 47.503
internal_count=745 539 405 147 124 52 134 98 258 206
is_linear=0
shrinkage=0.03


Tree=5
num_leaves=13
num_cat=0
split_feature=4 25 18 0 2 22 21 0 18 1 18 1
split_gain=200.098 76.8343 22.1364 21.5405 9.7401 6.70302 4.7138 3.19984 4.44709 3.72509 1.84232 1.26328
threshold=1.0000000180025095e-35 1.0000000180025095e-35 0.70802365963461933 62.500000000000007 1.0000000180025095e-35 1.0000000180025095e-35 2.7440554690903465 60.500000000000007 0.23506431071694328 1.0000000180025095e-35 1.4122050011092029 1.0000000180025095e-35
decision_type=10 10 2 2 10 10 2 2 2 2 2 2
left_child=1 2 7 4 6 11 -4 8 -1 -10 -6 -5
right_child=-2 -3 3 5 10 -7 -8 -9 9 -11 -12 -13
leaf_value=-0.044948881826080568 0.049460223871538277 0.049847356750094669 0.0084182025154197412 -0.045311794971085902 0.013304071085812497 -0.0050233560700176033 -0.027025864020371063 -0.046850744431994912 -0.033367928675295776 -0.0051903165793650034 0.040246646667771911 -0.026179267244899208
leaf_weight=10.885390475392343 48.501907080411911 11.547739639878271 5.7137740701436996 12.102907031774521 6.4280096888542175 8.1533342897891981 6.1400985866785049 36.715977355837822 7.3796146363019952 9.4073781967163086 4.6633055657148361 12.672438383102417
leaf_count=44 212 50 24 49 27 34 25 149 30 39 20 52
internal_value=-0.00203167 -0.0212088 -0.0283865 -0.0141951 0.00794742 -0.0294038 -0.0106154 -0.0402959 -0.0302683 -0.0187569 0.0270237 -0.036921
internal_weight=180.312 131.81 120.262 55.8739 22.9452 32.9287 11.8539 64.3884 27.6724 16.787 11.0913 24.7753
internal_count=755 543 493 231 96 135 49 262 113 69 47 101
is_linear=0
shrinkage=0.03


Tree=6
num_leaves=10
num_cat=0
split_feature=4 8 18 9 22 22 19 5 2
split_gain=179.88 138.152 14.776 17.7129 6.13456 4.37579 4.3388 1.08351 0.657396
threshold=1.0000000180025095e-35 1.0000000180025095e-35 0.73476597984497327 1.0000000180025095e-35 1.0000000180025095e-35 1.0000000180025095e-35 6.6688615566375411 1.0000000180025095e-35 1.0000000180025095e-35
decision_type=10 8 2 8 8 8 2 8 10
left_child=1 2 7 -4 8 6 -3 -1 -5
right_child=-2 5 3 4 -6 -7 -8 -9 -10
leaf_value=-0.048722863016220343 0.048422991972068445 0.034721222544424599 0.023738800524204878 -0.040365066742766464 -0.0050754244874243043 0.048648401523823423 0.0026968731068045537 -0.025588276930764039 -0.023475630221407657
leaf_weight=50.0030737221241 47.423874467611313 9.5692683309316653 5.6961817890405655 19.921833321452141 7.4681498855352393 13.980594128370283 6.2336567044258109 5.616885930299758 8.5074011236429232
leaf_count=203 209 41 24 81 31 61 26 23 35
internal_value=-0.000832039 -0.0194597 -0.0367165 -0.0223443 -0.0301019 0.0362294 0.0230011 -0.0468798 -0.0362804
internal_weight=174.421 126.997 97.2135 41.5936 35.8974 29.7835 15.8029 55.62 28.4292
internal_count=734 525 397 171 147 128 67 226 116
is_linear=0
shrinkage=0.03


Tree=7
num_leaves=14
num_cat=0
split_feature=3 8 2 18 19 1 5 1 0 18 20 18 18
split_gain=123.684 103.009 40.724 24.4519 5.84511 5.13883 4.44365 3.65508 3.36941 5.01209 1.69941 1.54588 0.191278
threshold=1.0000000180025095e-35 1.0000000180025095e-35 1.0000000180025095e-35 0.38865224428333434 7.0259470364283807 1.0000000180025095e-35 1.0000000180025095e-35 1.0000000180025095e-35 54.500000000000007 0.79070436985629888 5.3520869618585527 0.63656283150712645 0.56814667781789929
decision_type=10 8 8 2 2 2 10 2 2 2 2 2 2
left_child=1 4 -2 -4 8 6 -5 -3 9 -1 -6 -7 -9
right_child=2 7 3 5 10 11 -8 12 -10 -11 -12 -13 -14
leaf_value=-0.040175026812993758 -0.046157106144681423 0.010405080000661518 -0.02334712677024052 0.0031212232446371428 -0.0059264603047444299 0.020009681466374132 0.038496306463388454 0.02246782847595688 -0.04889721735687437 -0.0023451614337743096 -0.029516537336555727 0.045399092799861269 0.042530617035352276
leaf_weight=8.8482982665300351 5.4164341390132895 6.8983864486217508 5.5540418028831473 7.2771458327770215 5.7780208438634855 4.649947687983512 4.9843273013830185 4.6668499559164056 49.27878837287426 4.8270965516567221 5.6184637993574142 45.025770634412766 11.213844805955885
leaf_count=36 22 29 23 31 24 20 22 20 201 20 23 199 49
internal_value=-0.00213264 -0.0241962 0.0271908 0.0336652 -0.0411853 0.0390674 0.0193198 0.0306558 -0.0448417 -0.0278917 -0.0189992 0.0434642 0.038315
internal_weight=170.037 97.1297 72.9077 67.4912 74.3507 61.9372 12.2615 22.7791 62.9542 13.6754 11.3965 49.6757 15.8807
internal_count=719 402 317 295 304 272 53 98 257 56 47 219 69
is_linear=0
shrinkage=0.03


Tree=8
num_leaves=11
num_cat=0
split_feature=4 8 0 18 2 1 22 20 18 18
split_gain=162.294 118.159 16.8193 20.8239 11.4973 5.24149 3.35079 2.05556 0.905923 0.205274
threshold=1.0000000180025095e-35 1.0000000180025095e-35 62.500000000000007 0.73476597984497327 1.0000000180025095e-35 1.0000000180025095e-35 1.0000000180025095e-35 3.9110220040928101 1.2725616726382742 0.62325745929580267
decision_type=10 8 2 2 10 2 10 2 2 2
left_child=1 2 3 6 -5 -3 -1 -7 -6 -2
right_child=9 5 -4 4 8 7 -8 -9 -10 -11
leaf_value=-0.042072614884361495 0.026215646195246099 0.010160375704061112 -0.046898660528938804 -0.021111519418425078 0.012435918247321336 0.018568048877622159 -0.011471953273840275 0.046224581000335753 0.03434314568378475 0.047580838840595649
leaf_weight=21.735422104597095 4.6053082197904578 7.5963373929262188 51.145027458667755 7.8094790875911722 4.9944618046283722 5.0918203145265606 4.8312752097845069 16.122301459312439 4.6672509461641312 41.763384699821472
leaf_count=89 20 32 210 32 21 22 20 71 20 188
internal_value=-0.00123819 -0.0191518 -0.0352014 -0.0208766 0.00450412 0.0332744 -0.0371258 0.0407211 0.0252472 0.0460571
internal_weight=170.362 123.993 95.1829 44.0379 17.4712 28.8105 26.5667 21.2141 9.66171 46.3687
internal_count=725 517 392 182 73 125 109 93 41 208
is_linear=0
shrinkage=0.03


Tree=9
num_leaves=13
num_cat=0
split_feature=4 8 3 0 18 2 18 22 19 20 11 18
split_gain=157.579 86.5874 26.2708 14.9045 15.8766 8.48788 4.41603 4.02962 3.22623 2.2577 0.499825 0.143
threshold=1.0000000180025095e-35 1.0000000180025095e-35 1.0000000180025095e-35 59.500000000000007 0.73476597984497327 1.0000000180025095e-35 1.0919007785020396 1.0000000180025095e-35 5.9330023761382913 4.0951772018816319 inf 0.40878737946749871
decision_type=8 10 10 2 2 10 2 8 2 2 8 2
left_child=1 3 6 4 9 -6 -2 8 -3 11 -5 -1
right_child=2 7 -4 10 5 -7 -8 -9 -10 -11 -12 -13
leaf_value=-0.046472658012566413 -0.02097668188887231 0.029586204426908843 0.046397254351863974 -0.026255107037385643 -0.019622042916170847 0.026865146391681017 0.014267676900514581 0.044956456624356905 -0.00046756824195774287 -0.015592110328014592 -0.045731476807373446 -0.024892047476174285
leaf_weight=8.7689083665609378 5.75767634809017 6.6873896420002001 49.713914796710014 6.0770077109336853 5.1267458796501142 7.5097260028123856 5.1328323930501938 9.4218595027923566 5.4725040197372437 6.2839450836181632 52.11879999935627 4.8471093177795401
leaf_count=36 24 29 225 25 21 32 22 42 23 26 216 20
internal_value=-0.00131119 -0.0222989 0.0373144 -0.0350991 -0.0180314 0.00794896 -0.00456266 0.030686 0.0170529 -0.03412 -0.0441756 -0.0410189
internal_weight=172.918 112.314 60.6044 90.7322 32.5364 12.6365 10.8905 21.5818 12.1599 19.9 58.1958 13.616
internal_count=741 470 271 376 135 53 46 94 52 82 241 56
is_linear=0
shrinkage=0.03


Tree=10
num_leaves=11
num_cat=0
split_feature=4 8 0 26 2 20 1 36 20 21
split_gain=148.672 117.778 12.5366 12.8957 8.09807 5.45674 3.20148 1.22473 0.831338 0.562318
threshold=1.0000000180025095e-35 1.0000000180025095e-35 59.500000000000007 1.0000000180025095e-35 1.0000000180025095e-35 4.1198468830322197 1.0000000180025095e-35 1.0000000180025095e-35 3.9110220040928101 2.9780741009902076
decision_type=10 8 2 10 10 2 2 2 2 2
left_child=1 2 3 4 9 -6 -3 -4 -8 -1
right_child=-2 6 7 -5 5 -7 8 -9 -10 -11
leaf_value=-0.045528946406795098 0.044455239722695862 0.014672140852419297 -0.023654393557764754 0.019560773168135103 -0.022498776917330696 0.016047156582373098 0.020354294850406865 -0.044582526909982184 0.043319532574143053 -0.025227073857736312
leaf_weight=10.949462205171587 45.574763402342796 8.0070588439703005 6.5316054821014395 5.6668268591165534 6.9953702539205569 4.7223531603813171 4.5896880775690105 53.641506165266037 16.788783460855484 7.0131810009479514
leaf_count=45 209 34 27 24 29 20 20 224 75 29
internal_value=-0.00134731 -0.0182798 -0.0343768 -0.0193645 -0.0271918 -0.00692408 0.0334544 -0.0427347 0.0395191 -0.0393508
internal_weight=170.481 124.906 95.5203 35.3472 29.6804 11.7177 29.3855 60.1731 21.3785 17.9626
internal_count=736 527 398 147 123 49 129 251 95 74
is_linear=0
shrinkage=0.03


Tree=11
num_leaves=13
num_cat=0
split_feature=4 8 1 18 2 19 18 19 21 19 5 18
split_gain=141.433 109.767 12.7682 14.5682 18.7347 3.52155 3.49136 2.10575 1.12186 1.02171 0.585119 0.1039
threshold=1.0000000180025095e-35 1.0000000180025095e-35 1.0000000180025095e-35 0.73476597984497327 1.0000000180025095e-35 5.2806591939842535 0.36115877892986259 6.6688615566375411 2.553336241146599 7.1627813413284871 1.0000000180025095e-35 0.56814667781789929
decision_type=10 8 2 2 10 2 2 2 2 2 8 2
left_child=1 2 10 8 9 -6 -3 -8 -4 -5 -1 -2
right_child=11 6 3 4 5 -7 7 -9 -10 -11 -12 -13
leaf_value=-0.04742131772248704 0.025459877483442757 0.0075768956100433112 -0.017789988272522025 -0.032198352403626569 0.040541323469573634 0.0061012803228413168 0.043984516808926247 0.020784164241971791 -0.040262374623292706 -0.012517658298205657 -0.025352502899437281 0.045163904112958494
leaf_weight=37.938963979482651 4.7595628052949897 4.9014859348535564 4.7346739023923901 10.10273891687393 4.610486313700676 5.9122126251459122 15.725612223148348 8.3117653727531415 23.858187153935432 5.4513689577579507 5.0434393882751456 39.624855920672417
leaf_count=159 21 21 20 42 20 25 71 36 100 23 21 185
internal_value=-0.00183691 -0.0180053 -0.0331594 -0.0228398 -0.00622732 0.0233999 0.0325303 0.0371127 -0.0372681 -0.0264735 -0.0454671 0.0436585
internal_weight=170.975 126.591 97.6521 54.6697 26.0768 10.5227 28.9389 24.0374 28.5929 15.5541 42.9824 44.3844
internal_count=744 538 410 230 110 45 128 107 120 65 180 206
is_linear=0
shrinkage=0.03


Tree=12
num_leaves=14
num_cat=0
split_feature=4 25 18 1 21 12 19 10 18 21 18 20 18
split_gain=139.827 58.815 18.4359 14.0429 13.9735 3.48238 2.46348 1.76998 1.61344 3.94852 1.34887 1.25424 0.26951
threshold=1.0000000180025095e-35 1.0000000180025095e-35 0.90623835540838849 1.0000000180025095e-35 2.9418004506160189 1.0000000180025095e-35 5.576132007016235 1.0000000180025095e-35 0.42198903513126457 2.4973207021709531 1.4632527230650276 4.1198468830322197 0.56814667781789929
decision_type=10 10 2 2 2 8 2 8 2 2 2 2 2
left_child=1 2 5 11 10 7 -6 -1 -7 -10 -5 -4 -2
right_child=12 -3 3 4 6 8 -8 -9 9 -11 -12 -13 -14
leaf_value=-0.0275704619136093 0.023928205434324681 0.045543998816647994 -0.017232620990687599 0.031085949287569598 -0.0022799057924174446 -0.043195748122195322 -0.030124171639989414 -0.0042003560359828856 -0.005778844346028991 -0.035712361874507777 0.011706804574364653 -0.037678222909747525 0.044469526388450711
leaf_weight=6.2144177109003067 4.5088050961494437 10.791157409548758 7.5489926189184215 6.8336407393217113 4.6733170598745328 33.494174003601074 7.1564905345439911 5.6033932566642761 5.6136772483587292 17.387968733906746 8.9728837609291059 9.7881832569837552 39.718707010149956
leaf_count=26 20 49 32 30 20 142 30 24 24 74 39 41 188
internal_value=-0.00226893 -0.018602 -0.0250572 -0.00983559 0.0035488 -0.0347917 -0.0201595 -0.0176818 -0.038001 -0.0289521 0.0214361 -0.030201 0.0429508
internal_weight=168.306 124.078 113.287 44.9735 27.6363 68.3136 11.8298 11.8178 56.4958 23.0016 15.8065 17.3372 44.2275
internal_count=739 531 482 192 119 290 50 50 240 98 69 73 208
is_linear=0
shrinkage=0.03


Tree=13
num_leaves=11
num_cat=0
split_feature=4 8 0 18 22 18 19 19 20 19
split_gain=131.006 107.39 14.6602 10.5164 3.64866 2.69777 2.5818 2.82861 2.37756 1.04836
threshold=1.0000000180025095e-35 1.0000000180025095e-35 54.500000000000007 1.0698683487317959 1.0000000180025095e-35 0.56814667781789929 7.0259470364283807 8.0815822115697866 4.1343659160588695 6.1081352352533109
decision_type=10 8 2 2 8 2 2 2 2 2
left_child=1 2 3 8 5 -3 -4 -8 -1 -7
right_child=-2 4 6 -5 -6 9 7 -9 -10 -11
leaf_value=-0.035057584663818385 0.042842747169772433 0.0010312682576004012 -0.042914391904473756 0.012707476578800909 0.042228043652787435 0.036519423608033882 -0.0043131361219026837 -0.034176011310740287 -0.0075937128859440246 0.014317780922847086
leaf_weight=9.7438167631626147 42.339347556233406 5.1972717344760957 58.809622526168823 8.9411423802375776 13.907783702015875 5.3359617441892606 4.7027569115161878 7.8038361072540283 4.7658526748418799 5.8291982859373093
leaf_count=41 202 22 251 38 64 24 20 33 20 25
internal_value=-0.00216432 -0.0176233 -0.0332712 -0.0120286 0.0308627 0.0193265 -0.0399934 -0.0240976 -0.027108 0.027058
internal_weight=167.377 125.037 94.767 23.4508 30.2702 16.3624 71.3162 12.5066 14.5097 11.1652
internal_count=740 538 403 99 135 71 304 53 61 49
is_linear=0
shrinkage=0.03


Tree=14
num_leaves=13
num_cat=0
split_feature=4 8 0 18 20 19 19 19 19 20 18 0
split_gain=123.897 104.615 14.8802 10.6271 3.85419 3.45056 2.97807 1.97003 2.87081 0.787021 0.398496 0.178839
threshold=1.0000000180025095e-35 1.0000000180025095e-35 54.500000000000007 1.083497219343849 4.1343659160588695 6.6688615566375411 8.3085423085374455 7.0259470364283807 8.1517320306880148 3.8969088522734538 0.57941449207832885 48.500000000000007
decision_type=10 8 2 2 2 2 2 2 2 2 2 2
left_child=1 2 3 4 11 9 -7 -4 -9 -3 -2 -1
right_child=10 5 7 -5 -6 6 -8 8 -10 -11 -12 -13
leaf_value=-0.042741506865402949 0.022450655938020168 0.021559977344870106 -0.041702772710410917 0.01415033749799776 -0.003607743751478799 -0.0008947497738881245 0.030723371968259552 -0.0043507304505079605 -0.035074154936561262 0.044261552851923402 0.043170193674350557 -0.022973103475913966
leaf_weight=5.0234305113554054 4.4285959154367438 4.9761371165514054 57.740559935569763 8.6915718466043455 5.4587407559156409 5.1123514473438245 4.5129979103803635 4.7059494107961637 6.8029362857341766 14.280215486884115 38.974721908569336 6.0937618911266327
leaf_count=21 20 22 249 37 23 22 20 20 29 66 190 26
internal_value=-0.00141868 -0.0167658 -0.031981 -0.0116714 -0.0252458 0.0324306 0.0154262 -0.0391199 -0.0238636 0.0397491 0.0416093 -0.0346958
internal_weight=166.802 123.399 94.517 25.2675 16.5759 28.8817 9.62535 69.2494 11.5089 19.2564 43.4033 11.1172
internal_count=745 535 405 107 70 130 42 298 49 88 210 47
is_linear=0
shrinkage=0.03


Tree=15
num_leaves=12
num_cat=0
split_feature=4 8 1 18 2 1 19 20 21 19 18
split_gain=122.13 91.4594 10.0404 11.1376 15.5604 4.86307 2.51065 2.38225 1.34175 1.08364 0.243825
threshold=1.0000000180025095e-35 1.0000000180025095e-35 1.0000000180025095e-35 0.73476597984497327 1.0000000180025095e-35 1.0000000180025095e-35 5.2806591939842535 3.9110220040928101 2.5915093710922874 7.1627813413284871 0.56814667781789929
decision_type=10 8 2 2 10 2 2 2 2 2 2
left_child=1 2 -1 8 9 -3 -6 -7 -4 -5 -2
right_child=10 5 3 4 6 7 -8 -9 -10 -11 -12
leaf_value=-0.041942316167712795 0.02314395459320702 0.0076212205806741595 -0.01679639545528586 -0.031773433853186532 0.034285270820765032 0.013888181959516238 0.0050779671194468561 0.042192397347164991 -0.03801222619996858 -0.011719422132516904 0.042611562791405697
leaf_weight=41.186731293797493 4.6322478353977194 7.4823467284441021 5.7618857175111797 9.4137507081031782 4.8017596900463104 4.6964869946241405 5.6330324560403824 16.466725528240204 21.668183416128159 5.4037938565015802 39.591398701071739
leaf_count=179 21 32 25 40 21 21 24 77 94 23 196
internal_value=-0.00105669 -0.0164941 -0.030758 -0.0213958 -0.00660254 0.0297084 0.0203412 0.0368212 -0.0343032 -0.0256632 0.0411293
internal_weight=166.738 122.515 93.8691 52.6824 25.2523 28.6456 10.4348 21.1632 27.4301 14.8175 44.2236
internal_count=753 536 406 227 108 130 45 98 119 63 217
is_linear=0
shrinkage=0.03


Tree=16
num_leaves=11
num_cat=0
split_feature=4 8 0 18 1 21 19 9 20 20
split_gain=120.25 80.2595 17.3414 14.3099 5.70521 4.87168 2.06995 1.69709 1.44351 0.24861
threshold=1.0000000180025095e-35 1.0000000180025095e-35 59.500000000000007 1.083497219343849 1.0000000180025095e-35 2.5915093710922874 5.0388632665683639 1.0000000180025095e-35 3.9110220040928101 4.1805210894617968
decision_type=10 8 2 2 2 2 2 8 2 2
left_child=1 2 3 5 -3 -1 -5 -4 -6 -7
right_child=-2 4 7 6 8 9 -8 -9 -10 -11
leaf_value=-0.0017833454446999054 0.041086189987826836 0.0037004779333126643 -0.01794446169024418 0.027103498550695077 0.016048432803750835 -0.037240306200749987 0.00099145272646371241 -0.042180759651237833 0.03947191470137007 -0.020477217286393012
leaf_weight=6.0663028508424786 42.850821956992149 7.4785844087600735 4.9293224364519119 5.2655452936887723 5.1201959550380733 11.768373727798464 4.9847368597984314 52.541950315237045 15.433120563626288 5.9072361439466468
leaf_count=26 214 32 21 23 23 51 21 232 73 25
internal_value=-0.00146146 -0.0169333 -0.0304837 -0.0129683 0.0268064 -0.0254443 0.015622 -0.0404445 0.034652 -0.0330345
internal_weight=162.346 119.495 91.4635 33.9922 28.0319 23.7419 10.2503 57.4713 20.5533 17.6756
internal_count=741 527 399 146 128 102 44 253 96 76
is_linear=0
shrinkage=0.03


Tree=17
num_leaves=12
num_cat=0
split_feature=4 8 9 18 0 22 22 19 18 18 18
split_gain=114.404 82.8466 11.8236 11.1152 4.69639 9.61854 4.46847 4.10688 2.44929 0.545809 0.100142
threshold=1.0000000180025095e-35 1.0000000180025095e-35 1.0000000180025095e-35 0.75376903420262753 59.500000000000007 1.0000000180025095e-35 1.0000000180025095e-35 6.1081352352533109 1.083497219343849 0.62325745929580267 1.9293322109518563
decision_type=10 8 8 2 2 8 8 2 2 2 2
left_child=1 2 3 -1 5 8 7 -3 -4 -2 -6
right_child=9 6 4 -5 10 -7 -8 -9 -10 -11 -12
leaf_value=-0.030069793641874731 0.020562190218174396 0.027327232920712582 -0.037383498481454044 0.02723101421152934 -0.041169342475797295 0.013250562135766293 0.03998248113636247 -0.0034245438146198693 -0.013316894795781457 0.041483391427991706 -0.022868019753607482
leaf_weight=4.860097348690033 4.3087839782237998 8.3952094316482562 15.976315125823026 5.3463999927043915 48.468027621507645 4.8331246078014365 13.13164012134075 6.3493317663669577 6.9106521755456916 38.100753784179688 4.5285930335521689
leaf_count=21 20 38 69 23 217 21 63 27 29 195 20
internal_value=-0.0018574 -0.0169657 -0.0307765 -0.000302772 -0.034579 -0.023074 0.0275866 0.0147084 -0.0309784 0.0398805 -0.040058
internal_weight=161.209 118.799 90.9232 10.2065 80.7167 27.7201 27.8762 14.7445 22.887 42.4095 52.9966
internal_count=743 528 400 44 356 119 128 65 98 215 237
is_linear=0
shrinkage=0.03


Tree=18
num_leaves=11
num_cat=0
split_feature=4 8 1 18 2 1 19 19 20 21
split_gain=107.387 80.2029 9.98698 10.531 17.4597 4.98542 2.66781 1.50034 1.00629 1.00473
threshold=1.0000000180025095e-35 1.0000000180025095e-35 1.0000000180025095e-35 0.73476597984497327 1.0000000180025095e-35 1.0000000180025095e-35 5.2806591939842535 7.1627813413284871 3.9110220040928101 2.5217125584596238
decision_type=10 8 2 2 10 2 2 2 2 2
left_child=1 2 -1 9 7 -3 -6 -5 -7 -4
right_child=-2 5 3 4 6 8 -8 -9 -10 -11
leaf_value=-0.04127618452271814 0.040051413907802993 0.0054836025838705784 -0.015514752712503469 -0.034409734382118862 0.03533788625745049 0.016406740041594498 0.0055561075533763788 -0.011651301941755468 0.038941023348292372 -0.036194845830616634
leaf_weight=37.842565730214119 41.165753543376923 7.2042982578277615 4.7669026702642467 8.7514404207468015 5.2110501974821091 4.3849156796932247 5.5869211405515671 5.5540728121995935 16.353847458958626 21.615326762199402
leaf_count=170 212 31 21 38 23 20 24 24 79 97
internal_value=-0.00106133 -0.0157098 -0.0295271 -0.0202694 -0.00596951 0.0279554 0.0217057 -0.0269124 0.0351504 -0.0331613
internal_weight=158.437 117.271 89.3283 51.4857 25.1035 27.9431 10.798 14.3055 20.7388 26.3822
internal_count=739 527 397 227 109 130 47 62 99 118
is_linear=0
shrinkage=0.03


Tree=19
num_leaves=13
num_cat=0
split_feature=4 8 0 26 2 18 22 18 0 18 19 20
split_gain=106.835 77.7907 12.5465 11.7267 6.39888 8.09325 3.48369 2.71695 0.812686 3.11644 0.70345 0.649547
threshold=1.0000000180025095e-35 1.0000000180025095e-35 59.500000000000007 1.0000000180025095e-35 1.0000000180025095e-35 0.90623835540838849 1.0000000180025095e-35 0.56814667781789929 65.500000000000014 0.80870304104163881 6.1081352352533109 4.1972008170143669
decision_type=10 8 2 8 10 2 8 2 2 2 2 2
left_child=1 2 3 4 11 -6 7 -3 9 -4 -9 -1
right_child=-2 6 8 -5 5 -7 -8 10 -10 -11 -12 -13
leaf_value=-0.039314508755866097 0.039553175479498277 -0.0017467259074536001 -0.036558176968805582 0.022086681412779009 -0.024293589417466562 0.022630350416581204 0.038956613032950831 0.032821560092210614 -0.040616341436565666 -0.005896386183975642 0.012704486833363436 -0.02005569191846639
leaf_weight=10.313845604658129 41.034239739179611 5.0908617973327663 8.8367409557104093 5.7625655233860007 6.683548107743265 4.8339282870292664 12.636191517114638 4.6773678958415967 43.631291434168816 4.919122949242591 5.0390000492334366 6.3271159976720801
leaf_count=46 215 22 41 25 29 21 62 22 199 22 22 27
internal_value=-0.00160503 -0.0160387 -0.0292964 -0.0142328 -0.0221681 -0.00436487 0.0275509 0.0159689 -0.0378041 -0.0267361 0.0245477 -0.033544
internal_weight=159.786 118.752 91.3082 33.921 28.1584 11.5175 27.4434 14.8072 57.3872 13.7559 9.71637 16.641
internal_count=753 538 410 148 123 50 128 66 262 63 44 73
is_linear=0
shrinkage=0.03


Tree=20
num_leaves=17
num_cat=0
split_feature=3 8 2 18 0 18 1 0 5 16 19 1 18 18 18 19
split_gain=77.1345 54.878 26.4741 14.0615 5.12298 7.68545 3.65702 3.6569 2.87141 1.82507 1.67907 1.21589 0.935285 0.784148 0.622863 0.508141
threshold=1.0000000180025095e-35 1.0000000180025095e-35 1.0000000180025095e-35 0.38865224428333434 63.500000000000007 0.75376903420262753 1.0000000180025095e-35 66.500000000000014 1.0000000180025095e-35 1.0000000180025095e-35 7.1627813413284871 1.0000000180025095e-35 1.0595233981360976 0.50379644514047073 0.77471654924853572 3.6913638964242277
decision_type=10 8 8 2 2 2 2 2 8 10 2 2 2 2 2 2
left_child=1 4 -2 -4 5 11 -3 12 -9 -7 -6 -1 14 -8 -5 -13
right_child=2 6 3 7 10 9 13 8 -10 -11 -12 15 -14 -15 -16 -17
leaf_value=-0.040196626743518531 -0.038974161835287922 0.003894385735381587 -0.01529143742816215 0.031088998907851953 -0.041879985019336576 -0.011406049479414825 0.015502457101096387 0.0028842199697108237 0.029651093753824312 0.011511384758347374 -0.019166222195018887 -0.010805694974856898 0.040892955545036809 0.037143151313743253 0.012457864927179298 -0.027238381207689465
leaf_weight=9.6071379184722936 4.849352464079856 6.290575549006463 5.4560581743717185 7.3325903266668302 33.013726413249969 5.3825042247772199 4.3331863433122644 6.8883646875619862 7.1648329943418512 5.1325070559978485 5.9910013526678076 5.0949822813272476 31.117775574326515 9.5260630548000318 4.588531419634819 5.8110261708498001
leaf_count=44 22 27 25 36 154 23 20 33 37 22 27 23 162 47 23 26
internal_value=-0.00098491 -0.0190431 0.0231034 0.0284538 -0.0315128 -0.02123 0.0237374 0.0328257 0.0175941 -0.000191534 -0.0389575 -0.0315041 0.0372867 0.0318757 0.0254369 -0.0211139
internal_weight=157.58 90.1827 67.3975 62.5482 70.0329 31.0282 20.1498 57.0921 14.0532 10.515 39.0047 20.5131 43.0389 13.8592 11.9211 10.906
internal_count=751 413 338 316 319 138 94 291 70 45 181 93 221 67 59 49
is_linear=0
shrinkage=0.03


Tree=21
num_leaves=11
num_cat=0
split_feature=4 8 0 1 2 1 9 22 0 18
split_gain=91.2915 70.8055 12.2118 8.36261 5.00955 3.67944 2.74844 1.00225 1.56441 0.891872
threshold=1.0000000180025095e-35 1.0000000180025095e-35 54.500000000000007 1.0000000180025095e-35 1.0000000180025095e-35 1.0000000180025095e-35 1.0000000180025095e-35 1.0000000180025095e-35 65.500000000000014 0.50379644514047073
decision_type=10 8 2 2 10 2 8 8 2 2
left_child=1 2 3 -1 -5 -3 -4 -8 -9 -7
right_child=-2 5 6 4 -6 9 7 8 -10 -11
leaf_value=-0.031976474856089447 0.038665588372788169 0.0082692449078746455 -0.010744307974911035 -0.011111021775070541 0.021505191794043473 0.015792711787099026 -0.038168632822265423 -0.0090406074755607635 -0.032234041443164461 0.037376340690911052
leaf_weight=7.1851156502962121 39.205900266766548 7.8323507606983211 5.4584075808525085 7.5797692984342575 7.4772199988365173 4.3389472663402584 46.32075360417366 5.289030656218527 7.5043372064828873 15.746371522545813
leaf_count=32 212 34 24 33 33 20 217 24 35 79
internal_value=-0.000280409 -0.013808 -0.0271174 -0.00751898 0.0054166 0.0270863 -0.0336505 -0.0355516 -0.023996 0.0336838
internal_weight=153.938 114.732 86.8146 22.2421 15.057 27.9177 64.5725 59.1141 12.7934 20.0853
internal_count=743 531 398 98 66 133 300 276 59 99
is_linear=0
shrinkage=0.03


Tree=22
num_leaves=11
num_cat=0
split_feature=4 8 0 1 2 1 9 22 0 20
split_gain=90.1222 76.4074 10.3087 7.98461 5.29638 2.73243 2.51268 0.978674 1.40701 0.957012
threshold=1.0000000180025095e-35 1.0000000180025095e-35 54.500000000000007 1.0000000180025095e-35 1.0000000180025095e-35 1.0000000180025095e-35 1.0000000180025095e-35 1.0000000180025095e-35 65.500000000000014 3.9269111325907873
decision_type=10 8 2 2 10 2 8 8 2 2
left_child=1 2 3 -1 -5 -3 -4 -8 -9 -7
right_child=-2 5 6 4 -6 9 7 8 -10 -11
leaf_value=-0.03348461484155385 0.038152586858809109 0.011472192266602104 -0.012704801595795002 -0.013922069008973914 0.018698794932448411 0.016697411882640029 -0.038859618554630541 -0.008108842759900925 -0.031610649222717391 0.038465327336285313
leaf_weight=7.8573662638664254 38.605809420347214 7.8187490701675442 5.8665303587913513 8.2901430279016477 7.6629690974950799 4.6763647049665478 45.562353506684303 4.4058716744184476 7.2390551418066025 15.084431916475294
leaf_count=35 213 34 26 36 34 22 216 20 34 77
internal_value=-0.000903091 -0.0142919 -0.0280465 -0.0106381 0.00192585 0.0285044 -0.0343496 -0.0363129 -0.0240632 0.0343664
internal_weight=153.07 114.464 86.8843 23.8105 15.9531 27.5795 63.0738 57.2073 11.6449 19.7608
internal_count=747 534 401 105 70 133 296 270 54 99
is_linear=0
shrinkage=0.03


Tree=23
num_leaves=14
num_cat=0
split_feature=4 8 0 1 2 1 18 19 18 0 18 18 18
split_gain=81.1661 60.76 13.4572 8.87193 5.20856 4.2666 2.78395 0.869319 0.787155 0.687947 1.44185 0.502325 1.53498
threshold=1.0000000180025095e-35 1.0000000180025095e-35 54.500000000000007 1.0000000180025095e-35 1.0000000180025095e-35 1.0000000180025095e-35 2.24707014821217 6.80791296586579 0.56814667781789929 61.500000000000007 0.31114771979399708 0.98766512271122087 1.3042696051166378
decision_type=10 8 2 2 10 2 2 2 2 2 2 2 2
left_child=1 2 3 -1 -5 -3 9 -7 -2 10 -4 -11 -13
right_child=8 5 6 4 -6 7 -8 -9 -10 11 -12 12 -14
leaf_value=-0.031144851756371161 0.017341847995338021 0.0057571512001442816 -0.033889763334148018 -0.010280116757650327 0.022708984418293082 0.036354699998947741 -0.0076349005703195008 0.015500023274303052 0.038840713248684183 -0.040804965309715183 -0.011608904824875815 -0.014093849870888443 -0.036090803477446358
leaf_weight=7.0824617743492135 4.072401449084281 8.0571722835302371 6.1666944921016675 7.3631655275821677 8.081441655755043 14.643872335553171 4.3528873175382605 4.5582515448331824 33.611545532941818 29.444239884614944 6.6378820240497589 6.8573103845119467 8.8706454485654813
leaf_count=32 20 35 29 32 36 75 20 22 191 144 30 32 42
internal_value=-0.00048948 -0.0133148 -0.0257771 -0.00558808 0.00731279 0.0250192 -0.0328704 0.0324165 0.0370257 -0.0346035 -0.024017 -0.0370191 -0.0279161
internal_weight=149.8 112.116 84.8567 22.5271 15.4446 27.2593 62.3297 19.2021 37.6839 57.9768 12.8046 45.1722 15.728
internal_count=740 529 397 100 68 132 297 97 211 277 59 218 74
is_linear=0
shrinkage=0.03


Tree=24
num_leaves=15
num_cat=0
split_feature=4 8 0 26 1 2 22 19 18 0 19 20 18 18
split_gain=77.1221 59.3979 11.879 13.2332 6.2065 7.10006 3.8599 2.59859 1.60173 1.76308 1.35951 1.30217 0.840084 0.528579
threshold=1.0000000180025095e-35 1.0000000180025095e-35 59.500000000000007 1.0000000180025095e-35 1.0000000180025095e-35 1.0000000180025095e-35 1.0000000180025095e-35 6.1081352352533109 0.98766512271122087 66.500000000000014 7.1627813413284871 4.1766920090735669 0.62325745929580267 0.64971421404911445
decision_type=10 8 2 10 2 10 8 2 2 2 2 2 2 2
left_child=1 2 3 4 -1 11 7 13 -4 -10 -11 -6 -2 -3
right_child=12 6 8 -5 5 -7 -8 -9 9 10 -12 -13 -14 -15
leaf_value=-0.03695489204778294 0.016694366582146344 0.011482459104316355 -0.038946882279759586 0.02678930993449806 -0.033002035842692339 0.012877607412950406 0.036941455008226702 -0.0014116697683350839 -0.0064858707384721397 -0.035269631799247289 -0.012259828779625469 -0.0099123531938885723 0.038413113929356396 0.030281430207793971
leaf_weight=10.450616329908373 4.0136140882968894 4.4174644351005572 32.446465328335762 5.9095003753900519 5.2217960208654421 7.6678083688020697 12.223079264163969 6.3666623234748831 4.5165231227874783 10.763740554451941 4.7274152636528006 5.3004762381315231 32.247938573360443 4.3956904411315918
leaf_count=48 20 20 161 26 24 34 64 28 21 51 22 23 187 22
internal_value=-0.00101025 -0.0131194 -0.0252005 -0.0110891 -0.0195448 -0.00813774 0.0247748 0.0133003 -0.034114 -0.0247957 -0.029417 -0.0232406 0.0365217 0.022989
internal_weight=150.669 114.407 87.0043 34.5502 28.6407 18.1901 27.4029 15.1798 52.4541 20.0077 15.4912 10.5223 36.2616 8.81315
internal_count=751 544 410 155 129 81 134 70 255 94 73 47 207 42
is_linear=0
shrinkage=0.03


Tree=25
num_leaves=15
num_cat=0
split_feature=4 8 0 18 2 22 22 1 20 19 18 19 18 18
split_gain=76.906 60.0693 12.0134 10.5199 8.55681 3.79597 2.49322 2.3049 1.62395 1.42249 0.777709 0.691036 0.011812 1.18895
threshold=1.0000000180025095e-35 1.0000000180025095e-35 62.500000000000007 0.73476597984497327 1.0000000180025095e-35 1.0000000180025095e-35 1.0000000180025095e-35 1.0000000180025095e-35 4.1343659160588695 5.9330023761382913 0.56814667781789929 5.1873702005911486 0.98766512271122087 1.1863167036526074
decision_type=10 8 2 2 10 8 10 2 2 2 2 2 2 2
left_child=1 2 3 6 -5 7 8 -3 -1 -9 -2 -6 -4 -14
right_child=10 5 12 4 11 -7 -8 9 -10 -11 -12 -13 13 -15
leaf_value=-0.036020804878607794 0.01680874143593053 -0.0023737727619830939 -0.039806904202018739 -0.018238397675717496 0.031021794653041682 0.036616938573161277 -0.0048767935539744209 0.031213906948783159 -0.01173090914018563 0.0071976528058529474 0.038088359403705752 0.011123045104463916 -0.012283895782864122 -0.033839829038421435
leaf_weight=13.459526583552366 4.0291728824377051 5.4121029973030099 27.618315950036049 7.1177505999803552 4.5806601941585541 12.25465904176235 4.550611048936843 4.9792336523532867 4.5443425923585883 4.763914555311203 32.484112277626991 4.6141057163476944 4.688883230090144 12.721939146518705
leaf_count=65 20 23 140 31 21 65 20 25 21 22 192 20 22 61
internal_value=-0.000945718 -0.013362 -0.0259008 -0.0131798 0.00505491 0.0245776 -0.0260228 0.0131784 -0.0308297 0.0212342 0.0362509 0.0231068 -0.036356 -0.0290172
internal_weight=147.819 111.306 83.8961 38.867 16.3125 27.4099 22.5545 15.1553 18.0039 9.74315 36.5133 9.19477 45.0291 17.4108
internal_count=748 536 401 178 72 135 106 70 86 47 212 41 223 83
is_linear=0
shrinkage=0.03


Tree=26
num_leaves=11
num_cat=0
split_feature=4 8 1 9 21 1 26 2 20 20
split_gain=75.1201 54.713 8.20897 7.19237 5.35862 4.52241 4.33204 2.81926 0.898906 0.260555
threshold=1.0000000180025095e-35 1.0000000180025095e-35 1.0000000180025095e-35 1.0000000180025095e-35 2.6137328127880433 1.0000000180025095e-35 1.0000000180025095e-35 1.0000000180025095e-35 3.8033229670845743 3.6082078789095555
decision_type=10 8 2 8 2 2 10 10 2 2
left_child=1 2 9 -4 7 -3 -6 -5 -7 -1
right_child=-2 5 3 4 6 8 -8 -9 -10 -11
leaf_value=-0.024209711050075564 0.035854969113495443 0.0036222649876930814 0.010726952346684871 -0.015438368082075065 -0.032892738873549598 0.0141709477409567 -0.0047760752516859822 0.012276556276074923 0.035087698053691621 -0.039330427123013947
leaf_weight=7.9352238625288001 35.95695124566555 7.7488096654415157 6.6871209144592285 6.4504651576280576 25.576667904853821 4.3464312106370953 6.5181388705968848 4.9782830476760864 14.353268772363661 26.139429226517677
leaf_count=39 213 34 30 31 123 21 31 23 77 131
internal_value=-0.00123045 -0.0134858 -0.0252445 -0.0169741 -0.0213756 0.023541 -0.0274994 -0.00334952 0.0311921 -0.0365998
internal_weight=146.691 110.734 84.2853 50.2107 43.5236 26.4485 32.0948 11.4287 18.6997 34.0747
internal_count=753 540 408 238 208 132 154 54 98 170
is_linear=0
shrinkage=0.03


Tree=27
num_leaves=14
num_cat=0
split_feature=4 8 1 18 2 1 0 21 19 19 20 18 20
split_gain=73.7281 47.9929 9.9449 11.0706 11.5691 4.31466 3.46572 2.00376 1.87032 1.09843 1.04818 0.865745 0.297249
threshold=1.0000000180025095e-35 1.0000000180025095e-35 1.0000000180025095e-35 0.73476597984497327 1.0000000180025095e-35 1.0000000180025095e-35 59.500000000000007 3.051637111079994 7.1627813413284871 5.3542222040740404 3.9522043336703745 0.56246479849274167 3.5219379084376894
decision_type=10 8 2 2 10 2 2 2 2 2 2 2 2
left_child=1 2 12 6 8 -3 7 -4 -5 -6 -7 -2 -1
right_child=11 5 3 4 9 10 -8 -9 -10 -11 -12 -13 -14
leaf_value=-0.022776562561532578 0.015818068768459825 0.0027180383350284237 -0.0023212081913568461 -0.025706009053085652 0.032518870846092209 0.012377751147478327 -0.038162134577520899 -0.027427460531770535 -0.001858320339145083 0.010288463903996745 0.03426854160251825 0.037447650828548562 -0.039160986801411807
leaf_weight=6.4205272942781439 3.9458484202623358 7.5541961938142803 6.4563013613224047 8.5144487172365171 4.7949750870466232 4.1008189618587521 14.332359790802 4.4487094134092331 4.5365371704101571 5.1424006372690201 13.235673084855078 31.577007234096527 28.158543258905411
leaf_count=32 20 33 30 40 22 20 74 20 21 23 72 194 143
internal_value=-0.00134237 -0.0137242 -0.0246523 -0.0153394 -0.000134451 0.0221787 -0.0286564 -0.0140069 -0.0181387 0.0230075 0.0300479 0.0355439 -0.0368445
internal_weight=143.218 107.695 82.8048 48.2257 22.9884 24.8907 25.2374 10.905 13.051 9.93738 17.3365 35.5229 34.5791
internal_count=744 530 405 230 106 125 124 50 61 45 92 214 175
is_linear=0
shrinkage=0.03


Tree=28
num_leaves=12
num_cat=0
split_feature=4 8 0 26 1 21 19 11 19 17 25
split_gain=65.2959 56.1733 11.2358 9.67072 5.84667 6.1595 2.59459 2.14014 1.6373 0.865336 0.148205
threshold=1.0000000180025095e-35 1.0000000180025095e-35 59.500000000000007 1.0000000180025095e-35 1.0000000180025095e-35 2.7113724724615449 6.80791296586579 inf 4.9380581778699986 1.0000000180025095e-35 inf
decision_type=10 8 2 10 2 2 2 8 2 2 8
left_child=1 2 3 4 -1 -6 9 -4 -7 -3 -2
right_child=10 6 7 -5 5 8 -8 -9 -10 -11 -12
leaf_value=-0.034567109173520502 0.036500116168005053 0.014174916374171218 -0.012267067649042788 0.024008965057769966 0.021095279813929325 -0.0053344689795412062 0.0095555964016750781 -0.035150082361194698 -0.029251430464329955 0.035196964585249554 0.018480865938067127
leaf_weight=9.5321875065565145 30.621930733323097 4.2075233459472683 5.523918479681015 5.4162573814392081 4.6057827472686776 5.872030243277548 8.1052251607179624 44.667171970009804 4.5242992490530014 14.237743228673937 3.719228968024253
leaf_count=46 189 20 26 24 21 27 38 232 20 77 22
internal_value=-0.000258295 -0.0118681 -0.0243432 -0.00937031 -0.0173909 -0.00499914 0.0253042 -0.0329205 -0.0173962 0.0313772 0.0351267
internal_weight=141.033 106.692 80.1416 29.9506 24.5343 15.0021 26.5505 50.1911 10.3963 18.4453 34.3412
internal_count=742 531 396 138 114 68 135 258 47 97 211
is_linear=0
shrinkage=0.03


Tree=29
num_leaves=16
num_cat=0
split_feature=3 8 2 0 20 5 25 0 20 19 22 0 21 19 19
split_gain=45.6629 39.8638 21.4278 5.02677 5.4011 4.9053 3.87082 3.23483 3.0376 2.21683 2.20703 1.91831 0.899232 0.852324 0.443204
threshold=1.0000000180025095e-35 1.0000000180025095e-35 1.0000000180025095e-35 63.500000000000007 4.0951772018816319 1.0000000180025095e-35 1.0000000180025095e-35 59.500000000000007 4.6101572324616349 7.1627813413284871 1.0000000180025095e-35 64.500000000000014 2.8331960427188219 5.0106130713801926 3.5848828173387299
decision_type=10 8 8 2 2 8 10 2 2 2 8 2 2 2 2
left_child=1 3 -2 4 -1 6 7 13 -6 -5 11 -3 -9 -4 -7
right_child=2 10 5 9 8 14 -8 12 -10 -11 -12 -13 -14 -15 -16
leaf_value=-0.028410143727251473 -0.036621142915340833 0.022236063614750161 0.025770728647390863 -0.038143481659308934 0.010803310537950471 0.015500211864101218 0.034997731919601281 0.0033788352071309384 -0.015086681374441576 -0.013340762241997123 0.033244909873794005 -0.0012607939932805943 -0.013615478131661625 0.006598543446299108 0.034872687373215437
leaf_weight=15.838257804512979 4.7632998675107947 5.8571639508008975 5.2530087381601387 27.991626068949699 6.6961434483528119 3.556525960564616 5.0943457484245291 5.0397759377956373 7.7403517067432404 5.2590460479259482 7.9527045190334311 5.561774730682373 4.5329271852970123 4.4996239989995956 25.444333642721176
leaf_count=78 24 28 29 150 30 20 30 27 35 26 44 26 24 23 155
internal_value=-0.000964616 -0.0151925 0.0192206 -0.026601 -0.0168537 0.0247812 0.0139969 0.00701135 -0.0031561 -0.0347246 0.0216887 0.0116116 -0.00519508 0.0183615 0.0330928
internal_weight=141.081 82.8971 58.1838 63.5254 30.2748 53.4205 24.4197 19.3253 14.4365 33.2507 19.3716 11.4189 9.5727 9.75263 29.0009
internal_count=749 417 332 319 143 308 133 103 65 176 98 54 51 52 175
is_linear=0
shrinkage=0.03


Tree=30
num_leaves=17
num_cat=0
split_feature=4 25 18 1 2 20 0 12 0 22 21 10 18 18 21 21
split_gain=63.9598 33.1775 10.5207 10.308 6.361 3.10033 2.62854 2.59806 1.83027 1.70833 1.37296 1.31099 1.02543 0.88306 0.685627 0.330868
threshold=1.0000000180025095e-35 1.0000000180025095e-35 0.90623835540838849 1.0000000180025095e-35 1.0000000180025095e-35 4.6215209018980152 67.500000000000014 1.0000000180025095e-35 58.500000000000007 1.0000000180025095e-35 2.8986667661772656 1.0000000180025095e-35 0.57941449207832885 0.45425023319954611 2.553336241146599 2.9780741009902076
decision_type=10 10 2 2 10 2 2 8 2 8 2 8 2 2 2 2
left_child=1 2 7 6 5 -5 -4 11 -6 13 -11 -1 -2 -9 -15 -16
right_child=12 -3 3 4 8 -7 -8 9 -10 10 -12 -13 -14 14 15 -17
leaf_value=-0.019297584945425484 0.014165042271154412 0.03982578239183069 -0.0078253040704555354 0.006071080276190452 0.033789599139702448 -0.020414626923661864 -0.033938089124986373 -0.037445697215918956 0.0067042788916507421 -0.0031676378100606857 -0.026222337320558751 0.0022170770849557517 0.036559287799316484 -0.01037506403508718 -0.034159475291961568 -0.015600509952712907
leaf_weight=4.9977373331785202 3.7931253015995017 8.9481345117092115 6.4290976226329795 7.7743314504623413 5.5510977655649185 6.467944324016571 9.1173290610313398 21.363368183374405 4.3387082815170288 4.9419516474008542 3.9929609000682831 4.108820378780365 29.925946548581123 4.6083766222000113 5.2587348818778974 4.4931474626064301
leaf_count=24 20 49 30 39 27 31 46 113 21 26 20 20 195 23 28 23
internal_value=-0.000715254 -0.0125406 -0.0179238 -0.00598675 0.00628541 -0.00650727 -0.0242649 -0.0264631 0.0236139 -0.0294543 -0.015073 -0.0103314 0.0345207 -0.0325428 -0.023286 -0.0278548
internal_weight=136.111 102.392 93.4436 39.6785 24.1321 14.2423 15.5464 53.7651 9.88981 44.6585 8.93491 9.10656 33.7191 35.7236 14.3603 9.75188
internal_count=735 520 471 194 118 70 76 277 48 233 46 44 215 187 74 51
is_linear=0
shrinkage=0.03


Tree=31
num_leaves=12
num_cat=0
split_feature=4 8 0 1 18 0 1 18 19 18 18
split_gain=58.9795 48.0122 10.7756 6.69198 3.4895 5.23598 3.07882 3.00835 1.06633 0.958548 0.250246
threshold=1.0000000180025095e-35 1.0000000180025095e-35 54.500000000000007 1.0000000180025095e-35 0.75376903420262753 65.500000000000014 1.0000000180025095e-35 1.083497219343849 7.1627813413284871 0.56814667781789929 0.50379644514047073
decision_type=10 8 2 2 2 2 2 2 2 2 2
left_child=1 2 3 -1 -4 -6 -3 -5 -7 -2 -8
right_child=9 6 4 7 5 8 10 -9 -10 -11 -12
leaf_value=-0.02756347975530896 0.014284222294021799 0.0071781787497289936 -0.036272821720734004 -0.0050071208565193731 0.001388006581435814 -0.03259272563335304 0.015894765283344645 0.0206049766576917 -0.012617419684697212 0.036248961097011166 0.03350359756581317
leaf_weight=6.525175854563714 3.8080624938011161 7.8774999082088497 32.175336226820946 8.4160139709711057 7.4170385897159603 13.444802954792978 3.8030408471822765 6.5616872310638437 5.0815822482109061 28.840461194515228 13.621491238474844
leaf_count=32 20 35 176 38 35 70 19 30 25 192 78
internal_value=-0.000416123 -0.0114047 -0.0227975 -0.00438872 -0.0294189 -0.0198878 0.0239502 0.00680081 -0.0280405 0.0341877 0.0307316
internal_weight=137.572 104.924 79.6216 21.5029 58.1188 25.9434 25.302 14.9777 18.5264 32.6485 17.4245
internal_count=750 538 406 100 306 130 132 68 95 212 97
is_linear=0
shrinkage=0.03


Tree=32
num_leaves=12
num_cat=0
split_feature=4 8 0 26 1 21 19 19 20 11 25
split_gain=62.1103 41.6302 9.31362 12.0568 4.31815 5.15986 4.18912 1.20461 0.96921 0.887288 0.158735
threshold=1.0000000180025095e-35 1.0000000180025095e-35 59.500000000000007 1.0000000180025095e-35 1.0000000180025095e-35 2.6775850890704103 6.6688615566375411 3.9405986567799238 3.8969088522734538 inf inf
decision_type=10 8 2 10 2 2 2 2 2 8 8
left_child=1 2 3 4 -1 -6 8 -7 -3 -4 -2
right_child=10 6 9 -5 5 7 -8 -9 -10 -11 -12
leaf_value=-0.034943512431902135 0.035270048314169196 0.013206231498581028 -0.016130631899357227 0.025586862274133731 0.016105111472992224 -0.0056090896744458519 0.0016226672572329697 -0.025922539406180646 0.03298731614751229 -0.033735139460181848 0.017630154490544385
leaf_weight=9.1974283754825645 28.553518712520599 5.103581100702292 5.7215640991926193 5.7885544747114173 4.4075767397880581 4.8039619624614698 7.8428357541561118 7.4390465468168259 11.893746212124823 42.120072662830353 3.6718597561120978
leaf_count=47 191 25 28 26 20 23 37 34 68 232 23
internal_value=-0.00192625 -0.0131949 -0.0237325 -0.010628 -0.0193892 -0.00930433 0.0201347 -0.0189773 0.0281117 -0.0320031 0.0338512
internal_weight=136.544 104.318 79.4782 31.6366 25.848 16.6506 24.8402 12.243 16.9973 47.8416 32.2254
internal_count=754 540 410 150 124 77 130 57 93 260 214
is_linear=0
shrinkage=0.03


Tree=33
num_leaves=13
num_cat=0
split_feature=4 8 0 26 1 21 26 1 10 19 18 25
split_gain=59.2563 39.6503 11.168 10.1113 5.26893 8.28615 3.83889 4.35712 1.50443 1.50092 1.33159 0.269497
threshold=1.0000000180025095e-35 1.0000000180025095e-35 59.500000000000007 1.0000000180025095e-35 1.0000000180025095e-35 2.6210322124986196 1.0000000180025095e-35 1.0000000180025095e-35 inf 5.8065482693682542 1.167826148349121 inf
decision_type=10 8 2 10 2 2 8 2 8 2 2 8
left_child=1 2 3 4 -1 -6 7 -3 -4 -9 -7 -2
right_child=11 6 8 -5 5 10 -8 9 -10 -11 -12 -13
leaf_value=-0.033062218731865475 0.035992842536273911 -0.012202842696988556 -0.011654337206021079 0.024872731748956975 0.02618871919395584 -0.024377411594634069 0.032642282248947566 0.03300359249013117 -0.033288644106396481 0.0062313148205696616 -0.0034790826927860682 0.017304901592768665
leaf_weight=9.3995584845542925 27.775711074471477 4.9326058477163333 4.6049852222204208 5.7845285832881919 4.4173099696636227 8.1320289820432645 11.675396800041197 3.7431117445230484 42.386767834424973 4.0859104692935944 4.4620648324489585 3.6295005381107321
leaf_count=48 190 21 22 26 20 39 68 20 238 20 20 23
internal_value=-0.00102194 -0.0119938 -0.0222534 -0.00827909 -0.0161825 -0.00553792 0.0208197 0.00841739 -0.0314556 0.0213196 -0.0177738 0.0344337
internal_weight=135.029 103.624 79.1872 32.1955 26.411 17.0114 24.437 12.7616 46.9918 7.82902 12.5941 31.4052
internal_count=755 542 413 153 127 79 129 61 260 40 59 213
is_linear=0
shrinkage=0.03


Tree=34
num_leaves=13
num_cat=0
split_feature=4 8 2 0 18 2 22 0 20 19 19 25
split_gain=51.2552 30.0242 13.7791 12.4758 9.63266 11.6599 2.98224 2.20744 2.19856 1.87816 1.02199 0.0277904
threshold=1.0000000180025095e-35 1.0000000180025095e-35 1.0000000180025095e-35 61.500000000000007 0.31114771979399708 1.0000000180025095e-35 1.0000000180025095e-35 44.500000000000007 4.0951772018816319 5.9330023761382913 7.1627813413284871 inf
decision_type=8 10 10 2 2 10 8 2 2 2 2 8
left_child=1 3 -2 4 -1 8 9 -7 -6 -3 -5 -4
right_child=2 6 11 10 5 7 -8 -9 -10 -11 -12 -13
leaf_value=-0.031113571896467539 -0.014998025215087474 0.020006345927972707 0.035427687893458348 -0.035102824224689716 -0.029073754133975033 0.0083712518906337973 0.034831182638914021 0.037750061210904289 -0.0034399762554049342 -0.0032692978771750618 -0.01730128667389914 0.019618660789798084
leaf_weight=9.0457079559564608 5.3680540025234214 5.9655148535966891 32.483878254890442 31.455211460590363 4.9273565411567688 4.6514299660921097 7.3194508999586096 5.5733574628829956 6.7510202825069427 5.2105019092559814 6.6026625037193289 4.3827264159917823
leaf_count=48 27 31 218 182 26 21 44 26 30 24 34 28
internal_value=0.000904672 -0.0121813 0.0276711 -0.0212394 -0.00676385 0.00421166 0.0209704 0.0263216 -0.0156955 0.00977746 -0.0325365 0.034116
internal_weight=129.737 87.5022 42.2347 69.0067 30.9489 21.9032 18.4955 10.2248 11.6784 11.176 38.0579 36.8666
internal_count=739 466 273 367 151 103 99 47 56 55 216 246
is_linear=0
shrinkage=0.03


Tree=35
num_leaves=13
num_cat=0
split_feature=4 8 0 18 2 22 18 18 1 19 9 19
split_gain=51.5028 38.2518 10.1306 8.4575 4.76772 3.3068 2.54568 1.70859 2.07933 1.42774 1.42751 1.19988
threshold=1.0000000180025095e-35 1.0000000180025095e-35 62.500000000000007 0.73476597984497327 1.0000000180025095e-35 1.0000000180025095e-35 0.612475605355564 0.23506431071694328 1.0000000180025095e-35 6.1081352352533109 1.0000000180025095e-35 5.0106130713801926
decision_type=10 8 2 2 10 8 2 2 2 2 8 2
left_child=1 2 3 7 -5 6 -3 -1 -9 -8 -4 -6
right_child=-2 5 10 4 11 -7 9 8 -10 -11 -12 -13
leaf_value=-0.031561865051185856 0.033828877764273922 -0.0064183612281902332 -0.0098576943728920906 -0.010967384139285934 0.029651657940386669 0.035491137017702241 0.032303730611611257 -0.02502261819137231 -0.0011643790562131423 0.0076784503280056121 -0.033649347231526405 0.0067704144753792939
leaf_weight=8.7207039445638674 29.508698433637619 4.3169925361871746 3.5165382325649261 7.0980029255151758 4.567885160446167 9.4630192667245847 3.7138685733079893 5.4580024182796461 6.9066715985536575 5.3985967487096786 34.528096243739128 4.4926347136497498
leaf_count=46 208 20 17 32 22 58 21 30 33 25 202 20
internal_value=-0.00025997 -0.0107433 -0.0210275 -0.0095214 0.00661307 0.0225437 0.011593 -0.0216254 -0.0127801 0.0199167 -0.031759 0.0201068
internal_weight=127.69 98.181 75.2885 37.2439 16.1585 22.8925 13.4295 21.0854 12.3647 9.11247 38.0446 9.06052
internal_count=734 526 402 183 74 124 66 109 63 46 219 42
is_linear=0
shrinkage=0.03


Tree=36
num_leaves=12
num_cat=0
split_feature=4 8 0 18 2 1 21 37 18 20 19
split_gain=51.393 35.2247 7.07408 8.53132 7.45236 3.54637 2.71902 2.36557 1.21642 1.08444 0.609522
threshold=1.0000000180025095e-35 1.0000000180025095e-35 65.500000000000014 1.083497219343849 1.0000000180025095e-35 1.0000000180025095e-35 2.5915093710922874 1.0000000180025095e-35 0.56246479849274167 3.9110220040928101 7.1627813413284871
decision_type=10 8 2 2 10 2 2 2 2 2 2
left_child=1 2 3 6 -5 -3 -1 -8 -2 -7 -4
right_child=8 5 10 4 -6 9 7 -9 -10 -11 -12
leaf_value=-0.0056939029277329623 0.011706022061043009 0.0022486973046019162 -0.034911407026997812 -0.013382484035339292 0.029294034956601378 0.010143536238392741 -0.0052833733150360182 -0.032583726507172686 0.035036479871346879 0.031649896834081988 -0.017735898130447132
leaf_weight=7.3605286777019527 3.5694202482700375 7.6151538789272335 26.021483600139621 7.0780734270811063 5.8446613252162933 4.0099257677793529 3.9406165778636995 16.347250282764431 26.503737583756447 12.046138331294058 5.6414633840322486
leaf_count=37 20 34 156 33 28 21 19 88 196 74 30
internal_value=-0.000846352 -0.0116051 -0.0219528 -0.0131472 0.00663685 0.0195815 -0.022303 -0.0277783 0.0327332 0.0271884 -0.0324879
internal_weight=125.978 95.9053 72.2341 40.5711 12.9227 23.6712 27.6484 20.2879 30.0732 16.0561 31.6629
internal_count=736 520 391 205 61 129 144 107 216 95 186
is_linear=0
shrinkage=0.03


Tree=37
num_leaves=12
num_cat=0
split_feature=4 8 18 0 2 18 18 0 16 18 26
split_gain=47.6626 34.3189 8.08015 10.835 6.2078 3.47917 3.23514 2.48215 2.44468 1.24325 0.592114
threshold=1.0000000180025095e-35 1.0000000180025095e-35 0.612475605355564 65.500000000000014 1.0000000180025095e-35 0.36115877892986259 1.083497219343849 71.500000000000014 1.0000000180025095e-35 0.56814667781789929 1.0000000180025095e-35
decision_type=10 8 2 2 10 2 2 2 10 2 8
left_child=1 2 10 4 8 -3 -6 -7 -4 -2 -1
right_child=9 5 3 -5 6 7 -8 -9 -10 -11 -12
leaf_value=-0.034540957354745466 0.011234280494661237 -0.0050439807945327365 -0.025307833574681193 -0.028997271500557562 -0.002692996148371212 0.029934934222112419 0.028852796739435121 0.0039816957256584131 0.003060203693087201 0.034735126291093502 -0.018685870984202057
leaf_weight=27.168066963553429 3.5239493399858501 4.0027237683534649 5.598069503903389 16.45966437458992 4.402945950627327 15.205655544996263 6.876540869474411 4.5955545306205741 4.3360915929079056 25.080871075391769 6.7569219321012488
leaf_count=160 20 19 27 94 20 87 33 25 20 190 37
internal_value=-0.000985669 -0.0112027 -0.0215173 -0.0114866 0.00279363 0.0194389 0.0173224 0.0243926 -0.0137782 0.0323172 -0.0320085
internal_weight=124.007 95.4022 71.5983 37.6733 21.2136 23.8039 11.2795 19.8012 9.93416 28.6048 33.925
internal_count=732 522 391 194 100 131 53 112 47 210 197
is_linear=0
shrinkage=0.03


Tree=38
num_leaves=13
num_cat=0
split_feature=4 8 0 18 2 21 22 1 18 19 20 0
split_gain=45.0675 34.0905 7.81378 9.44055 8.12697 3.5137 3.16437 1.92889 1.354 1.30262 1.19962 0.065943
threshold=1.0000000180025095e-35 1.0000000180025095e-35 65.500000000000014 1.083497219343849 1.0000000180025095e-35 2.6137328127880433 1.0000000180025095e-35 1.0000000180025095e-35 0.56246479849274167 7.1627813413284871 4.1198468830322197 53.500000000000007
decision_type=10 8 2 2 10 2 8 2 2 2 2 2
left_child=1 2 3 5 -5 -1 7 -3 -2 -4 -9 -7
right_child=8 6 9 4 -6 11 -8 10 -10 -11 -12 -13
leaf_value=-0.0037927346220263105 0.010117038137165357 -0.0041501572058420706 -0.034554789361023679 -0.013241848828990566 0.030142911087562098 -0.019255290114756071 0.032297506992686326 0.004150277287319884 0.034499840164308064 -0.015272620916862722 0.027327278525860307 -0.032001843967319817
leaf_weight=7.6496984660625484 3.3534809648990658 5.3261135518550882 26.86925995349884 7.0771099925041181 6.6187469363212585 7.4014917165040996 9.9342308044433576 3.9258650690317154 24.262595966458321 6.2326351255178443 4.2750344127416611 11.623333528637884
leaf_count=39 19 23 167 33 32 37 64 20 188 34 24 67
internal_value=-0.00113295 -0.0108016 -0.0208041 -0.0115023 0.00834897 -0.0216282 0.0200926 0.00952306 0.031996 -0.0314785 0.0178891 -0.0282521
internal_weight=124.55 96.9335 73.4723 40.3704 13.6959 26.6745 23.4612 13.527 27.6161 33.1019 8.2009 19.0248
internal_count=747 540 409 208 65 143 131 67 207 201 44 104
is_linear=0
shrinkage=0.03


Tree=39
num_leaves=16
num_cat=0
split_feature=4 8 3 18 0 2 1 0 22 20 18 1 18 21 4
split_gain=44.4963 19.0486 10.1209 8.10797 7.69783 7.70542 3.99088 1.8718 4.42241 1.65031 1.28135 0.88397 0.531104 0.766925 0.220319
threshold=1.0000000180025095e-35 1.0000000180025095e-35 1.0000000180025095e-35 0.90623835540838849 65.500000000000014 1.0000000180025095e-35 1.0000000180025095e-35 61.500000000000007 1.0000000180025095e-35 3.9269111325907873 1.0919007785020396 1.0000000180025095e-35 0.57941449207832885 2.9780741009902076 1.0000000180025095e-35
decision_type=8 10 10 2 2 10 2 2 10 2 2 2 2 2 10
left_child=1 3 10 7 5 -5 -3 8 12 -8 -2 -6 13 -1 -4
right_child=2 6 14 4 11 -7 9 -9 -10 -11 -12 -13 -14 -15 -16
leaf_value=-0.035041527364968017 -0.013556418515641995 -0.0076418086554764612 0.016299643141144262 -0.013147525434616718 -0.031820866050075461 0.03016552518319289 0.004681271263772443 -0.035477776974416342 0.0078613496328064237 0.028828888815704223 0.0078710431908863877 -0.012567360664959767 -0.012188030418232057 -0.012919568607207272 0.034793759874595057
leaf_weight=8.6751936823129707 4.3283430039882642 5.1174078732728967 3.3076920658350017 6.4783850759267825 5.442217141389845 6.4731286466121674 4.0337507724761972 20.619942352175713 3.6712487787008277 8.859722360968588 3.8492344617843628 6.5650668889284134 3.9662333428859702 3.6079139411449423 26.922021307051182
leaf_count=50 23 23 20 31 34 31 21 134 17 56 20 36 19 20 208
internal_value=-0.0007618 -0.0130316 0.0255704 -0.0204868 -0.00666291 0.00911074 0.0137322 -0.0286323 -0.0201893 0.0221549 -0.00371173 -0.0230694 -0.0266152 -0.0300055 0.0333569
internal_weight=121.918 83.5102 38.4073 65.4993 24.9588 12.9515 18.0109 40.5405 19.9206 12.8935 8.17758 12.0073 16.2493 12.2831 30.2297
internal_count=743 472 271 372 132 62 100 240 106 77 43 70 89 70 228
is_linear=0
shrinkage=0.03


Tree=40
num_leaves=15
num_cat=0
split_feature=4 8 1 18 22 0 20 0 19 16 5 18 0 18
split_gain=43.5886 27.6269 8.09243 8.74902 4.31014 3.64681 3.5323 3.05755 2.8173 2.52383 2.32778 1.40907 0.359816 0.304634
threshold=1.0000000180025095e-35 1.0000000180025095e-35 1.0000000180025095e-35 0.73476597984497327 1.0000000180025095e-35 74.500000000000014 5.381962990970643 51.500000000000007 6.6688615566375411 1.0000000180025095e-35 1.0000000180025095e-35 0.55675045058093031 59.500000000000007 0.64971421404911445
decision_type=10 8 2 2 8 2 2 2 2 10 8 2 2 2
left_child=1 2 10 7 8 6 9 -4 13 -5 -1 -2 -9 -3
right_child=11 4 3 5 -6 -7 -8 12 -10 -11 -12 -13 -14 -15
leaf_value=-0.035250042061817657 0.00952327233087699 0.0074057548330026821 -0.0018098458034517763 0.0049354674076735328 0.031786888079448759 -0.020322199570430133 -0.011791099732851782 -0.0169368913240041 -0.010086334450305195 0.032106022239638966 -0.006000906517590175 0.034180182073094194 -0.034199505293306592 0.021416028806852047
leaf_weight=24.419889196753505 3.2990333735942867 4.1255148500204104 4.4308198094368008 7.6663223803043419 9.6363848894834501 3.9195597171783438 4.6214928925037375 4.9223679900169399 5.3537999689579001 4.6935192495584488 3.2182700335979453 24.809626400470734 11.132489606738089 4.1680080890655518
leaf_count=152 19 20 21 38 64 22 22 25 24 23 17 201 72 24
internal_value=-0.000340572 -0.0103364 -0.019809 -0.0109882 0.0174046 0.00270805 0.00885835 -0.0244377 0.00577238 0.0168841 -0.0321727 0.0317129 -0.0302103 0.0159936
internal_weight=120.417 92.3084 69.0247 41.3866 23.2837 20.9009 16.9813 20.4857 13.6473 12.3598 27.6382 28.1087 16.0549 8.29352
internal_count=744 524 392 223 132 105 83 118 68 61 169 220 97 44
is_linear=0
shrinkage=0.03


Tree=41
num_leaves=13
num_cat=0
split_feature=4 8 18 0 2 19 0 20 19 18 18 20
split_gain=40.0854 30.3452 8.06139 6.1483 7.36843 4.12368 3.07133 4.7472 1.94987 1.35541 1.28091 0.669665
threshold=1.0000000180025095e-35 1.0000000180025095e-35 0.98766512271122087 65.500000000000014 1.0000000180025095e-35 6.6688615566375411 59.500000000000007 4.0951772018816319 8.239932249455304 1.2237711063438923 0.56814667781789929 3.8969088522734538
decision_type=10 8 2 2 10 2 2 2 2 2 2 2
left_child=1 2 6 4 -4 11 7 -1 -7 -5 -2 -3
right_child=10 5 3 9 -6 8 -8 -9 -10 -11 -12 -13
leaf_value=-0.02811586892387731 0.010110926623932873 0.013460198538407247 -0.013535242809900851 -0.0050546216777806003 0.027198667730365951 -0.010921174469873248 -0.035492862036731992 0.0034612310606626662 0.015655807903267111 -0.026931603183392386 0.033827239958522208 0.032683776982166318
leaf_weight=11.260997638106348 3.4149093031883266 4.3916127085685757 7.351339593529703 4.1077808290719977 6.7526995837688446 4.38978663086891 24.035269558429718 6.2791454195976248 3.6188874691724777 9.2950371950864774 22.576588809490204 10.270352654159067
leaf_count=63 20 23 35 23 33 21 160 30 19 55 188 67
internal_value=-0.000983726 -0.0103391 -0.0201672 -0.00720016 0.00647679 0.0191959 -0.0283757 -0.0172347 0.00149296 -0.0210431 0.0312013 0.0281529
internal_weight=117.744 91.7529 69.0823 27.5069 14.104 22.6706 41.5754 17.5401 8.00867 13.4028 25.9915 14.662
internal_count=737 529 399 146 68 130 253 93 40 78 208 90
is_linear=0
shrinkage=0.03


Tree=42
num_leaves=14
num_cat=0
split_feature=4 8 0 18 2 22 21 1 19 0 18 19 18
split_gain=41.4624 26.6098 11.0104 7.57726 4.73949 4.11338 3.48819 2.33212 1.48111 1.40001 1.157 0.193636 0.125537
threshold=1.0000000180025095e-35 1.0000000180025095e-35 62.500000000000007 0.73476597984497327 1.0000000180025095e-35 1.0000000180025095e-35 2.5055176070587919 1.0000000180025095e-35 7.8877687261915765 53.500000000000007 1.1019345600274442 4.9544166194304404 0.62325745929580267
decision_type=10 8 2 2 10 8 2 2 2 2 2 2 2
left_child=1 2 3 6 -5 7 -1 -3 -4 -8 -9 -6 -2
right_child=12 5 8 4 11 -7 9 10 -10 -11 -12 -13 -14
leaf_value=0.0057389277206554923 0.016380669001464385 -0.0086591368625662715 -0.033435985630301451 -0.010108768570957679 0.027518901238671241 0.031382888402013732 -0.012054339171169123 0.0026675959089324719 -0.01116293733155525 -0.032393104609738731 0.025583088898966398 0.0123774877646642 0.033621910804255764
leaf_weight=3.7865953147411373 3.4089686423540142 5.3300236016511935 30.700443401932716 6.4459958672523472 4.3226987570524216 9.6260281279683095 6.9656076878309277 3.8852375596761703 4.3518631011247626 9.0775566995143873 3.6926571726799011 4.3584767431020737 22.337658114731312
leaf_count=20 21 23 203 30 22 66 37 21 25 54 21 20 191
internal_value=-0.000909686 -0.0103203 -0.0193938 -0.00716035 0.00852781 0.0174959 -0.0189629 0.00562787 -0.031057 -0.0247879 0.0155148 0.0219807 0.0320369
internal_weight=118.29 92.5432 70.0092 34.9569 15.1272 22.5339 19.8298 12.9079 35.0523 16.0432 7.57789 8.68118 25.7466
internal_count=754 542 411 183 72 131 111 65 228 91 42 42 212
is_linear=0
shrinkage=0.03


Tree=43
num_leaves=13
num_cat=0
split_feature=4 8 18 1 2 1 10 19 19 18 18 19
split_gain=38.6858 29.6835 8.53334 6.13112 5.0926 3.40401 2.44821 1.7788 1.36571 1.16194 0.896016 0.679651
threshold=1.0000000180025095e-35 1.0000000180025095e-35 0.98766512271122087 1.0000000180025095e-35 1.0000000180025095e-35 1.0000000180025095e-35 inf 7.1627813413284871 5.9330023761382913 0.56814667781789929 1.53794133386841 3.6913638964242277
decision_type=10 8 2 2 10 2 8 2 2 2 2 2
left_child=1 2 6 -4 7 -3 -1 -5 -7 -2 -10 -8
right_child=9 5 3 4 -6 8 11 -9 10 -11 -12 -13
leaf_value=-0.0079883155690184757 0.010735821634044252 0.0017460340263543786 -0.024277456197263958 -0.018268943029942392 0.021673711934778093 0.033887056661628313 -0.018012621413807075 0.0057223201756525441 0.0019954437480576119 0.033476740974917513 0.022653819823094754 -0.033382339731141124
leaf_weight=5.6852019727230072 3.5394953638315227 7.6392517089843759 9.6888818591833132 6.1752016097307223 7.4698191881179801 8.8761828020215017 7.3086249828338614 3.9196787923574448 3.7289471030235299 22.320271298289299 3.3316568732261658 29.280489221215248
leaf_count=30 21 35 58 32 38 61 44 20 20 195 22 190
internal_value=-0.000883676 -0.0099404 -0.0197476 -0.00633045 0.00434378 0.0186085 -0.0280512 -0.00927738 0.0261112 0.0308797 0.0133445 -0.0308731
internal_weight=118.964 93.1039 69.5279 27.2536 17.5647 23.576 42.2743 10.0949 15.9368 25.8598 7.0606 36.5891
internal_count=766 550 412 148 90 138 264 52 103 216 42 234
is_linear=0
shrinkage=0.03


Tree=44
num_leaves=13
num_cat=0
split_feature=4 8 1 18 2 1 21 20 5 21 18 19
split_gain=35.6802 24.7245 7.52767 5.3446 6.96689 3.80902 3.22299 2.40076 2.01377 1.88849 1.27796 0.875259
threshold=1.0000000180025095e-35 1.0000000180025095e-35 1.0000000180025095e-35 0.90623835540838849 1.0000000180025095e-35 1.0000000180025095e-35 2.4973207021709531 3.9110220040928101 1.0000000180025095e-35 2.9522993070431607 0.56246479849274167 3.6913638964242277
decision_type=10 8 2 2 10 2 2 2 8 2 2 2
left_child=1 2 8 6 9 -3 -4 -7 -1 -5 -2 -8
right_child=10 5 3 4 -6 7 11 -9 -10 -11 -12 -13
leaf_value=-0.033342782047577735 0.0096688660884034893 -0.0005215538154004091 0.0034005470240501502 0.0029617444900522831 0.02369964436007798 0.0043899821582731799 -0.011082302083707319 0.032190181149592677 -0.0063612380358358256 -0.021599727434243043 0.033318254295343609 -0.028888697859488433
leaf_weight=23.332843929529194 3.375796943902972 7.2365456670522699 4.3741412758827236 4.2014517933130282 7.2017536014318457 4.0723604410886773 5.2641144841909435 11.30064585059881 3.371580943465232 6.3961250185966492 21.940005965530872 12.510906979441641
leaf_count=154 20 33 24 22 36 22 31 78 19 34 196 78
internal_value=-8.65233e-05 -0.00904728 -0.0181893 -0.00955905 0.00266125 0.0175324 -0.0190702 0.0255437 -0.0302888 -0.0124465 0.0306519 -0.0244864
internal_weight=114.578 89.2625 66.6529 39.9485 17.7993 22.6096 22.1492 15.373 26.7044 10.5976 25.3158 17.775
internal_count=747 531 398 225 92 133 133 100 173 56 216 109
is_linear=0
shrinkage=0.03


Tree=45
num_leaves=14
num_cat=0
split_feature=4 25 8 5 1 18 1 21 0 0 18 18 19
split_gain=35.1769 25.1931 14.9059 4.94563 4.98032 4.44106 3.47646 3.32282 2.75424 1.67771 1.29236 1.27623 1.11667
threshold=1.0000000180025095e-35 1.0000000180025095e-35 1.0000000180025095e-35 1.0000000180025095e-35 1.0000000180025095e-35 0.73476597984497327 1.0000000180025095e-35 2.9522993070431607 65.500000000000014 53.500000000000007 1.4917741750445088 0.56246479849274167 5.9330023761382913
decision_type=10 10 8 10 2 2 2 2 2 2 2 2 2
left_child=1 2 3 4 -1 9 -4 8 -7 -6 -9 -2 -8
right_child=11 -3 6 -5 5 7 12 10 -10 -11 -12 -13 -14
leaf_value=-0.034084945134414978 0.0094833381005911405 0.039213531659832913 -0.0069477159113576865 0.00886367583460867 -0.0068271270001205846 0.018166951615590361 0.028175010644811701 -0.029175838268269805 -0.010674741868141319 -0.030956157767499087 -0.0052132975593564453 0.033131648373910458 0.0069390922903913013
leaf_weight=23.475371576845646 3.3584138453006771 7.6920230984687796 6.1203785836696634 4.1101895421743384 3.9845085442066219 5.9995804280042666 5.7749863192439079 3.7551017701625806 4.3198358565568924 13.404120102524756 4.4641569554805756 21.236798442900181 4.5851265788078308
leaf_count=157 20 49 27 22 20 29 38 20 25 90 23 194 26
internal_value=-0.000588188 -0.00952473 -0.0146376 -0.0211697 -0.0233601 -0.0156192 0.010307 -0.00495669 0.00621703 -0.0260991 -0.0181382 0.0303992 0.0202147
internal_weight=112.281 87.6854 79.9934 63.5129 59.4027 35.9273 16.4805 18.5387 10.3194 17.3886 8.21926 24.5952 10.3601
internal_count=740 526 477 386 364 207 91 97 54 110 43 214 64
is_linear=0
shrinkage=0.03


Tree=46
num_leaves=13
num_cat=0
split_feature=4 8 26 0 9 1 18 18 20 0 21 18
split_gain=34.4811 25.776 6.56454 8.76939 4.26773 2.87304 1.90379 1.33191 1.29628 0.935908 2.69376 0.643127
threshold=1.0000000180025095e-35 1.0000000180025095e-35 1.0000000180025095e-35 60.500000000000007 1.0000000180025095e-35 1.0000000180025095e-35 0.98766512271122087 0.56814667781789929 3.9110220040928101 63.500000000000007 2.5915093710922874 1.2947234145309625
decision_type=10 8 8 2 8 2 2 2 2 2 2 2
left_child=1 2 4 -4 -1 -3 -5 -2 -7 10 -6 -12
right_child=7 5 3 6 9 8 -8 -9 -10 -11 11 -13
leaf_value=0.00077864177535417805 0.0088765995577325934 0.0028329432073641789 0.026678437361410075 -0.02998202867324045 -0.0032325228022854167 0.008224752646703316 -0.0014238406164511928 0.032899219501144862 0.031234398822781895 -0.032374384629567966 -0.030674168918915553 -0.013701516001039285
leaf_weight=5.5036852359771729 3.2980973869562176 7.8460572212934503 5.3090603053569785 4.6861518621444684 6.1799391061067608 3.8962825089693078 3.4971237927675247 20.536160565912724 9.8358231261372548 22.053561471402645 12.670282483100893 5.3680874705314627
leaf_count=30 20 36 25 33 33 22 19 193 70 158 77 26
internal_value=-0.00115669 -0.00997034 -0.0193101 -0.000591325 -0.0240844 0.0178837 -0.0192617 0.0300663 0.0257072 -0.0269956 -0.021008 -0.0266082
internal_weight=110.68 86.8461 65.2679 13.4923 51.7756 21.5782 8.18328 23.8343 13.7321 46.2719 24.2183 18.0384
internal_count=742 529 401 77 324 128 52 213 92 294 136 103
is_linear=0
shrinkage=0.03


Tree=47
num_leaves=14
num_cat=0
split_feature=4 25 8 2 0 1 19 1 0 19 17 0 0
split_gain=30.5371 15.2532 9.70453 8.67778 7.50346 4.74641 2.56692 2.4167 2.25716 1.67556 1.01727 0.856301 0.468424
threshold=1.0000000180025095e-35 1.0000000180025095e-35 1.0000000180025095e-35 1.0000000180025095e-35 53.500000000000007 1.0000000180025095e-35 4.5293591628959149 1.0000000180025095e-35 44.500000000000007 7.1627813413284871 1.0000000180025095e-35 60.500000000000007 57.500000000000007
decision_type=8 10 10 10 2 2 2 2 2 2 2 2 2
left_child=1 2 4 -2 5 -1 -4 -8 -7 11 -5 12 -6
right_child=3 -3 6 10 9 8 7 -9 -10 -11 -12 -13 -14
leaf_value=-0.023828134235606899 -0.011749614699917237 0.036348233409176707 0.025692125522621252 0.0073419017259258876 -0.021918643248882871 -0.0031085102036612837 -0.017544182783481674 0.010142770329517601 0.023405718584195771 -0.010276020746090601 0.032365918937718681 -0.031970212524298491 -0.0056070740367234993
leaf_weight=4.49240009486675 4.6113417893648174 4.8625130057334891 3.8895280286669722 2.2753053307533326 5.9197572618722898 5.4127473831176758 3.6738849431276304 6.225952684879303 4.7325852662324905 6.7572983205318442 24.705381870269772 25.692931674420834 3.1928515508770943
leaf_count=26 26 32 24 13 35 26 16 37 24 39 221 187 20
internal_value=-4.4734e-05 -0.0104796 -0.0141991 0.0242419 -0.019666 -0.00106361 0.00790528 -0.00079894 0.0102501 -0.0260385 0.0305934 -0.0287263 -0.0173231
internal_weight=106.444 74.8525 69.9899 31.592 56.2006 14.6377 13.7894 9.89984 10.1453 41.5628 26.9807 34.8055 9.11261
internal_count=726 466 434 260 357 76 77 53 50 281 234 242 55
is_linear=0
shrinkage=0.03


Tree=48
num_leaves=14
num_cat=0
split_feature=4 8 0 26 20 22 20 11 19 18 18 18 19
split_gain=31.4524 22.7467 5.91899 4.32846 4.18451 3.46181 3.19495 2.76808 2.48371 1.17784 1.06692 0.773439 0.000382296
threshold=1.0000000180025095e-35 1.0000000180025095e-35 59.500000000000007 1.0000000180025095e-35 4.1343659160588695 1.0000000180025095e-35 4.5379608643591727 inf 6.6688615566375411 0.56814667781789929 0.62325745929580267 0.64971421404911445 7.8877687261915765
decision_type=10 8 2 8 2 8 2 8 2 2 2 2 2
left_child=1 2 3 4 10 8 -6 -4 11 -2 -1 -3 -9
right_child=9 5 7 -5 6 -7 -8 12 -10 -11 -12 -13 -14
leaf_value=-0.030297086568930136 0.0096224780276503268 0.0048991853935596115 -0.0037381264252058805 0.017546300445431331 0.0185832930573166 0.030149438757035445 -0.012853306437885613 -0.031004351220159751 -0.0086692538446386195 0.032511151777796399 -0.0093440051718939945 0.024705927606778744 -0.017850185747870433
leaf_weight=7.7287369817495399 3.42559885978699 3.9113334119319934 4.5754900127649307 4.2419326752424231 4.4369212388992292 8.5864208117127401 5.2748828381299973 26.69973719120026 5.4857887029647827 19.055280454456806 4.5423775017261505 3.5795031264424324 4.9535735100507727
leaf_count=49 21 20 26 20 22 64 26 198 25 188 23 22 30
internal_value=-0.00116472 -0.00964293 -0.0187509 -0.00748889 -0.0128731 0.0163985 0.00190285 -0.0264829 0.00579363 0.0295817 -0.0238294 0.0161589 -0.0295555
internal_weight=106.498 84.0167 62.4537 26.2249 21.9829 21.563 9.7118 36.2288 12.9766 22.4809 12.2711 7.49084 31.6533
internal_count=734 525 394 140 120 131 48 254 67 209 72 42 228
is_linear=0
shrinkage=0.03


Tree=49
num_leaves=14
num_cat=0
split_feature=4 25 8 0 2 18 1 19 18 18 20 21 19
split_gain=28.5686 21.3608 13.3087 5.53444 5.96533 10.0223 7.22529 2.52068 1.8423 1.49833 1.27011 1.58645 0.907086
threshold=1.0000000180025095e-35 1.0000000180025095e-35 1.0000000180025095e-35 65.500000000000014 1.0000000180025095e-35 0.42198903513126457 1.0000000180025095e-35 6.6688615566375411 0.4855030820314819 0.56814667781789929 4.0951772018816319 3.0563541271966739 7.1627813413284871
decision_type=10 10 8 2 10 2 2 2 2 2 2 2 2
left_child=1 2 3 4 10 -6 -7 8 -4 -2 -1 -12 -5
right_child=9 -3 7 12 5 6 -8 -9 -10 -11 11 -13 -14
leaf_value=-0.029340701496896576 0.0069758969412350678 0.038051627396746127 0.0017918550042837938 -0.032961705749795782 -0.03148575676559677 -0.013652028049196942 0.032731693454126402 -0.0038510149229354943 0.028761182952256697 0.032331259155515733 -0.00048927973975389227 -0.023831714521160119 -0.01452130138232155
leaf_weight=10.224237911403181 3.0697239041328457 7.0346633046865454 3.6070078760385496 20.978600651025776 4.5556589514017132 3.9743625149130803 7.5587304010987282 6.2293341457843772 5.9262704774737358 18.48591922968626 5.3029012531042081 4.2644888982176781 5.3608699962496749
leaf_count=67 19 48 19 160 29 21 38 30 40 187 28 23 33
internal_value=-0.000870449 -0.0087428 -0.0133924 -0.0195727 -0.0114035 0.00218316 0.0169337 0.0107157 0.0196959 0.0291898 -0.022022 -0.0121644 -0.029877
internal_weight=106.573 85.0171 77.9825 62.2199 35.8804 16.0888 11.5331 15.7626 9.53328 21.5556 19.7916 9.56739 26.3395
internal_count=742 536 488 399 206 88 59 89 59 206 118 51 193
is_linear=0
shrinkage=0.03


Tree=50
num_leaves=15
num_cat=0
split_feature=4 25 8 1 18 0 22 21 21 0 18 18 21 20
split_gain=28.613 20.0765 14.2197 5.30772 6.01423 3.03664 3.01841 2.23086 1.81679 1.57335 2.50899 1.31383 0.939153 0.207989
threshold=1.0000000180025095e-35 1.0000000180025095e-35 1.0000000180025095e-35 1.0000000180025095e-35 0.73476597984497327 65.500000000000014 1.0000000180025095e-35 2.9522993070431607 2.5839904324100171 59.500000000000007 0.31114771979399708 0.56814667781789929 2.8331960427188219 3.5219379084376894
decision_type=10 10 8 2 2 2 8 2 2 2 2 2 2 2
left_child=1 2 3 13 9 7 8 -6 -4 10 -5 -2 -7 -1
right_child=11 -3 6 4 5 12 -8 -9 -10 -11 -12 -13 -14 -15
leaf_value=-0.016526350854533963 0.0082859702641825388 0.037889668973088875 0.015495591791548115 -0.026829001725020736 0.021353538248936106 -0.0021987017603748325 0.030212417909182436 -0.0042244596832401631 -0.0065695943146955819 -0.032150863730280956 0.0029888818067598417 0.032221049828662467 -0.022984360255953445 -0.033176529601215143
leaf_weight=4.0321457013487843 3.2418658733367947 6.653550073504447 4.7134681791067141 4.2119488567113894 5.6971995681524294 3.8491733074188224 4.2540852651000014 5.1515107452869415 7.2276425138115883 9.5857056975364667 4.6031815111637115 18.690701350569725 3.5415728688240051 18.865013390779495
leaf_count=27 20 45 25 24 28 23 31 25 37 75 23 194 23 140
internal_value=-0.000482824 -0.00863996 -0.0131684 -0.019883 -0.0122594 0.000102657 0.0112369 0.00987636 0.00266448 -0.0238868 -0.0125402 0.0291988 -0.0137112 -0.0310587
internal_weight=104.319 82.3862 75.7326 59.5375 36.6403 18.2395 16.1952 10.8487 11.9411 18.4008 8.81513 21.9326 7.39075 22.8972
internal_count=740 526 481 388 221 99 93 53 62 122 47 214 46 167
is_linear=0
shrinkage=0.03


Tree=51
num_leaves=18
num_cat=0
split_feature=4 25 18 0 2 3 18 19 0 19 19 0 18 19 19 16 1
split_gain=28.7394 20.2506 8.48059 8.21443 5.03541 3.4694 2.54617 1.95626 1.77966 2.80939 1.52844 1.27928 1.18777 0.999673 0.776626 1.17915 0.332548
threshold=1.0000000180025095e-35 1.0000000180025095e-35 0.29638710320657907 65.500000000000014 1.0000000180025095e-35 1.0000000180025095e-35 1.083497219343849 5.2262840192780855 79.500000000000014 7.1627813413284871 4.2282404703802543 53.500000000000007 0.56814667781789929 6.9299627251450966 6.023931620104352 1.0000000180025095e-35 1.0000000180025095e-35
decision_type=10 10 2 2 10 8 2 2 2 2 2 2 2 2 2 8 2
left_child=1 2 11 4 5 7 -6 10 9 14 -4 -1 -2 -9 15 16 -5
right_child=12 -3 3 8 6 -7 -8 13 -10 -11 -12 -13 -14 -15 -16 -17 -18
leaf_value=-0.014024156506279592 0.0091459132306125172 0.036198277205169299 0.003045693656888419 -0.023945409937380292 0.0018427025136989524 -0.028003555491589071 0.026832288597804881 0.019172532927298876 -0.032038737278588622 0.0067999056383011664 -0.022844117852882831 -0.03610162457929357 0.03208413771328824 -5.3939542524756924e-05 -0.028932063333264004 0.0036751660610658326 -0.0077584061216432725
leaf_weight=5.0774262025952366 3.3785113841295269 7.229515314102172 3.3818924501538303 3.731653176248078 7.070971876382826 4.4852580279111853 7.0009088069200516 3.464165583252905 7.4983141869306555 4.146145597100257 3.5137763917446136 12.873056538403032 18.364493511617184 5.3393458724021912 5.1355852484703055 2.6516550257802018 3.3506974205374718
leaf_count=29 21 52 21 30 38 25 38 21 51 24 22 97 195 26 38 19 25
internal_value=-0.000955365 -0.0088002 -0.013335 -0.00772221 0.00202598 -0.00746428 0.0152307 -0.000270667 -0.0199328 -0.013797 -0.0113692 -0.0309264 0.0290788 0.0086956 -0.0196067 -0.0124497 -0.0181947
internal_weight=107.693 85.9504 78.7209 60.7704 34.2563 20.1844 14.0719 15.6992 26.5141 19.0157 6.89567 17.9505 21.743 8.80351 14.8696 9.73401 7.08235
internal_count=772 556 504 378 191 115 76 90 187 136 43 126 216 47 112 74 55
is_linear=0
shrinkage=0.03


Tree=52
num_leaves=13
num_cat=0
split_feature=4 8 0 2 18 1 16 18 18 21 0 18
split_gain=25.9154 22.9425 5.9716 6.22794 8.36132 3.19373 2.11778 1.75172 2.02518 1.67436 1.32818 1.26959
threshold=1.0000000180025095e-35 1.0000000180025095e-35 61.500000000000007 1.0000000180025095e-35 0.42198903513126457 1.0000000180025095e-35 1.0000000180025095e-35 0.98766512271122087 1.3042696051166378 2.9780741009902076 47.500000000000007 0.56246479849274167
decision_type=10 8 2 10 2 2 10 2 2 2 2 2
left_child=1 2 3 6 -5 -3 9 -4 -9 -1 -6 -2
right_child=11 5 7 4 10 -7 -8 8 -10 -11 -12 -13
leaf_value=-0.032139631753426358 0.0081962670588381949 0.0027593921761493042 -0.033192213097603188 -0.026056931441692428 0.0079656980250136303 0.027960526147411305 -0.00023235010821576641 -0.0010087647076366198 -0.024693920938789995 -0.0073145065363410143 0.031501947765652245 0.031893186491300123
leaf_weight=8.4653271064162272 3.2366445362567928 7.2173781543970117 17.167377844452862 3.8355255275964764 4.8388041555881482 12.315482601523399 4.0606513172388068 5.0933671146631232 8.4230538308620435 4.2736358791589728 4.8800530880689621 17.165477655827999
leaf_count=53 20 34 142 24 24 91 19 32 57 24 25 186
internal_value=-0.000696358 -0.00839872 -0.0174099 -0.00759768 0.00726546 0.0192366 -0.0193241 -0.0265705 -0.016453 -0.0249499 0.0216201 0.0286925
internal_weight=100.973 80.5707 61.0378 30.354 13.5544 19.5329 16.7996 30.6838 13.5164 12.739 9.71886 20.4021
internal_count=731 525 400 169 73 125 96 231 89 77 49 206
is_linear=0
shrinkage=0.03


Tree=53
num_leaves=12
num_cat=0
split_feature=4 25 8 0 18 1 2 21 18 20 0
split_gain=24.9867 19.0108 11.9689 5.27484 4.92531 3.04701 2.27365 1.71783 1.32652 0.710601 0.575346
threshold=1.0000000180025095e-35 1.0000000180025095e-35 1.0000000180025095e-35 65.500000000000014 0.73476597984497327 1.0000000180025095e-35 1.0000000180025095e-35 2.5915093710922874 0.56814667781789929 4.1116928651754314 53.500000000000007
decision_type=10 10 8 2 2 2 10 2 2 2 2
left_child=1 2 3 4 7 -4 -6 -1 -2 -7 -9
right_child=8 -3 5 -5 6 9 -8 10 -10 -11 -12
leaf_value=-0.0029065735173079417 0.0076632999967610593 0.036424242038036236 -0.0069979762042535381 -0.029116988602132528 -0.0092577243229855152 0.0061957813201899692 0.014173578196271224 -0.013304545961527529 0.031737800651674676 0.024643361160567791 -0.029952006924235244
leaf_weight=4.5178817212581697 3.1833612471818951 6.8827127218246451 5.6004080474376652 25.133210070431232 5.9497270137071592 3.6482721790671349 7.1423237472772598 5.6388930752873412 17.108731046319008 6.4967724159359932 8.6364110782742483
leaf_count=28 20 51 25 198 30 21 35 33 191 46 64
internal_value=-0.000411946 -0.00803965 -0.0126823 -0.0190086 -0.0103976 0.00999411 0.00362383 -0.0198551 0.0284984 0.0191606 -0.0246776
internal_weight=99.9387 79.6466 72.7639 57.0184 31.8852 15.7455 13.0921 18.7932 20.2921 10.145 14.2753
internal_count=742 531 480 388 190 92 65 125 211 67 97
is_linear=0
shrinkage=0.03


Tree=54
num_leaves=14
num_cat=0
split_feature=4 8 2 1 0 21 20 22 19 25 19 36 20
split_gain=24.6611 12.0068 8.35511 7.46796 6.38658 4.96001 4.14262 3.03638 3.17258 1.44415 1.27362 0.968869 0.862429
threshold=1.0000000180025095e-35 1.0000000180025095e-35 1.0000000180025095e-35 1.0000000180025095e-35 65.500000000000014 3.3690170020819612 4.0630255092976304 1.0000000180025095e-35 5.9330023761382913 inf 7.1627813413284871 1.0000000180025095e-35 4.673762541549304
decision_type=8 10 10 2 2 2 2 10 2 8 2 2 2
left_child=1 3 -2 11 5 6 -5 8 -3 -4 -6 -1 -8
right_child=2 7 9 4 10 -7 12 -9 -10 -11 -12 -13 -14
leaf_value=-0.0090893911573818407 -0.012124282193034347 0.017281576383129448 0.032478757801987924 -0.0096764403401826734 -0.027939174380228825 -0.022802658665887474 0.026671558443137084 0.030012417739212038 -0.012686046092813675 0.0078032421277959277 -0.0054908430253846341 -0.032757108707051411 0.0074287352787409024
leaf_weight=2.7227582931518581 4.6421174556016949 5.5459781289100629 20.702509105205539 5.4508360251784387 9.9005892127752286 4.2038602903485289 6.8370022326707822 4.8982801809906951 5.2152256518602371 3.2013413459062567 3.6001832261681548 18.10988861322403 4.2554877623915672
leaf_count=18 27 33 207 34 78 23 34 41 25 28 22 146 22
internal_value=-0.00041983 -0.00991567 0.0226511 -0.0164522 -0.00745656 0.00308011 0.0105821 0.0126835 0.00291451 0.0296201 -0.0227445 -0.0302218 0.0205141
internal_weight=99.2861 70.7401 28.546 55.0806 34.248 20.7472 16.5433 15.6595 10.7612 23.9039 13.5008 20.8326 11.0925
internal_count=738 476 262 377 213 113 90 99 58 235 100 164 56
is_linear=0
shrinkage=0.03


Tree=55
num_leaves=16
num_cat=0
split_feature=4 1 17 0 3 16 26 20 0 25 8 20 4 19 0
split_gain=24.8863 10.0735 8.38473 6.04577 5.54582 6.57098 3.15958 2.17566 1.66054 1.29554 0.926264 0.918348 0.455631 0.274575 0.331091
threshold=1.0000000180025095e-35 1.0000000180025095e-35 1.0000000180025095e-35 74.500000000000014 1.0000000180025095e-35 1.0000000180025095e-35 1.0000000180025095e-35 5.1322516308535153 59.500000000000007 inf 1.0000000180025095e-35 3.9444897270009514 1.0000000180025095e-35 5.6577370132897373 53.500000000000007
decision_type=8 2 2 2 10 8 8 2 2 8 10 2 10 2 2
left_child=1 6 8 7 5 -2 10 9 -3 11 -1 -4 -6 14 -13
right_child=4 2 3 -5 12 -7 -8 -9 -10 -11 -12 13 -14 -15 -16
leaf_value=-0.031382272261837492 -0.023739825426652421 -0.0064824289075661456 0.0084766923019924615 -0.018647486122882438 0.011836823308161392 0.027222596163074063 0.00015339560660909631 -0.0022576462482707944 -0.030489034817664035 0.00089660998402565667 -0.0097193284397770405 0.022696765604930436 0.032269569957208963 0.032580328574005148 0.0064789525835782192
leaf_weight=17.737736850976951 3.8622605651617077 5.0050787031650525 5.0908606275916233 5.53259702771902 2.6654914915561703 3.2826915457844734 4.0511968135833731 5.7668833807110778 6.4581313878297806 3.3819750323891631 3.2262924015521994 3.0371524542570096 19.352554336190224 5.4076534062623978 3.134641207754612
leaf_count=144 24 29 30 40 20 19 27 34 53 21 14 20 214 32 21
internal_value=0.00053378 -0.00942909 -0.000471786 0.00759302 0.0232508 0.000142022 -0.0241526 0.0137015 -0.0213684 0.0181805 -0.0286427 0.0214378 0.0304177 0.0260092 0.0165117
internal_weight=96.9932 67.8302 42.815 31.3518 29.163 7.14495 25.0152 25.8192 11.4632 20.0523 20.964 16.6703 22.018 11.5794 6.17179
internal_count=742 465 280 198 277 43 185 158 82 124 158 103 234 73 41
is_linear=0
shrinkage=0.03


Tree=56
num_leaves=17
num_cat=0
split_feature=4 25 8 0 18 1 2 18 17 18 0 20 3 18 18 0
split_gain=22.1162 17.6876 9.80616 4.19846 4.5353 4.31192 3.84542 2.4486 2.27647 1.5817 1.50705 1.37839 0.619135 0.412347 0.681975 0.261907
threshold=1.0000000180025095e-35 1.0000000180025095e-35 1.0000000180025095e-35 65.500000000000014 0.23506431071694328 1.0000000180025095e-35 1.0000000180025095e-35 1.083497219343849 1.0000000180025095e-35 0.57941449207832885 68.500000000000014 4.1766920090735669 1.0000000180025095e-35 0.98766512271122087 1.2237711063438923 59.500000000000007
decision_type=10 10 8 2 2 2 10 2 2 2 2 2 10 2 2 2
left_child=1 2 3 4 -1 12 11 -8 -4 -2 -10 -7 15 -5 -15 -6
right_child=9 -3 8 13 5 6 7 -9 10 -11 -12 -13 -14 14 -16 -17
leaf_value=-0.031509677852798693 0.0052237105417352065 0.036203543666834051 -0.01036544176926851 -0.032056007109690296 -0.030096741923382526 -0.019915634940176893 0.001051089308047179 0.033866559351735985 0.021251481456196174 0.031293718158073087 -0.00076761078065178817 0.0015760962300099221 -0.0059977301214529776 -0.0063453187967186702 -0.024294406231943844 -0.010693868351578066
leaf_weight=6.2414485961198798 2.9057123810052898 6.5408713817596427 3.6342831403017035 13.390110209584238 3.7424675077199954 3.6805739030241984 3.7373102828860274 3.7074082791805267 8.0743424817919713 15.858727805316446 3.9462262690067282 5.9892127960920334 3.0687073320150375 3.7377791330218297 6.7082086801528931 2.6075028777122498
leaf_count=46 19 50 19 123 25 21 20 21 48 191 24 29 18 25 50 20
internal_value=-0.000693057 -0.00772231 -0.012138 -0.0178839 -0.0104128 -0.00448593 0.00453792 0.0194682 0.00846661 0.0277253 0.0145191 -0.00770408 -0.0197447 -0.0273239 -0.0189874 -0.0246683
internal_weight=97.5709 78.8065 72.2656 56.6107 32.7746 26.5332 17.1145 7.44472 15.6549 18.7644 12.0206 9.66979 9.41868 23.8361 10.446 6.34997
internal_count=749 539 489 398 200 154 91 41 91 210 72 50 63 198 75 45
is_linear=0
shrinkage=0.03


Tree=57
num_leaves=15
num_cat=0
split_feature=4 25 8 0 18 2 22 16 18 21 18 20 18 18
split_gain=22.0562 16.1679 9.73216 4.97417 5.06452 6.54537 1.97231 1.86301 1.48936 1.44938 1.42008 1.15064 0.343337 1.09051
threshold=1.0000000180025095e-35 1.0000000180025095e-35 1.0000000180025095e-35 65.500000000000014 0.42198903513126457 1.0000000180025095e-35 1.0000000180025095e-35 1.0000000180025095e-35 0.58500114237739143 2.9096258622311582 0.56814667781789929 4.0951772018816319 0.98766512271122087 1.2237711063438923
decision_type=10 10 8 2 2 10 8 8 2 2 2 2 2 2
left_child=1 2 3 4 11 7 8 -6 -4 -7 -2 -1 -5 -14
right_child=10 -3 6 12 5 9 -8 -9 -10 -11 -12 -13 13 -15
leaf_value=-0.031337964416420172 0.0065168367566899605 0.035574518611734482 -0.011033924449487602 -0.031924455855380743 -0.02440936111465038 0.0226767732023462 0.024409363002704063 0.0011209621681187534 0.0097673632413357424 -4.2256361963320072e-05 0.031253911872743352 -0.010212777752501286 -0.0035623412704798721 -0.025130804483732231
leaf_weight=6.9203136265277845 3.072279721498492 6.3147885128855696 4.0107253491878474 13.060274951159956 6.8323262482881537 7.1664169281721115 4.3220178112387666 3.704380914568902 7.1746027544140816 3.6544289514422417 16.294551447033882 5.2406295761466026 3.3330041393637639 7.260031446814537
leaf_count=54 20 49 20 122 40 37 33 19 39 20 201 35 22 54
internal_value=-3.01653e-05 -0.00712626 -0.0112688 -0.0169282 -0.00906349 -4.10305e-05 0.00935725 -0.0161145 0.00201524 0.0156496 0.0278424 -0.023702 -0.0272533 -0.0192371
internal_weight=98.3608 78.9939 72.6792 57.1718 33.5185 21.3576 15.5073 10.5367 11.1853 10.8208 19.3668 12.1609 23.6533 10.593
internal_count=765 544 495 403 205 116 92 59 59 57 221 89 198 76
is_linear=0
shrinkage=0.03


Tree=58
num_leaves=13
num_cat=0
split_feature=4 25 8 0 18 11 21 1 19 19 18 20
split_gain=19.8122 16.3048 10.3539 4.46237 4.9436 4.1466 6.00368 2.37045 1.83315 1.63788 1.39314 1.21002
threshold=1.0000000180025095e-35 1.0000000180025095e-35 1.0000000180025095e-35 63.500000000000007 0.23506431071694328 inf 2.6137328127880433 1.0000000180025095e-35 3.780742863589146 7.1627813413284871 0.56814667781789929 4.1198468830322197
decision_type=10 10 8 2 2 8 2 2 2 2 2 2
left_child=1 2 3 4 -1 -6 -7 -4 -8 -5 -2 -9
right_child=10 -3 7 9 5 6 8 11 -10 -11 -12 -13
leaf_value=-0.031366166366572856 0.0063695342715167193 0.035601006527937948 -0.0043569226119358571 -0.029692768417524659 0.024000924508474932 0.014069821057372896 0.00038376989379604516 0.0037901655069545711 -0.024289068148168176 -0.0085282972356055062 0.031014545942374523 0.026993890963665078
leaf_weight=5.7480336129665401 3.0588440597057369 6.4699868187308303 5.4422115534543964 20.44503586739302 3.5245603248476982 6.8703881651163163 3.5116173624992362 3.4276494234800339 10.43639302253723 5.0856419876217833 15.030581310391424 5.7048533409833908
leaf_count=42 20 51 25 181 18 37 22 21 61 34 190 43
internal_value=1.70712e-05 -0.00671332 -0.0110587 -0.0169024 -0.00863206 -0.00223807 -0.00757677 0.0108961 -0.0184672 -0.0259572 0.0273992 0.0195185
internal_weight=94.7558 76.6664 70.1964 55.6217 30.091 24.343 20.8184 14.5747 13.948 25.5307 18.0894 9.1325
internal_count=745 535 484 395 180 138 120 89 83 215 210 64
is_linear=0
shrinkage=0.03


Tree=59
num_leaves=17
num_cat=0
split_feature=4 25 18 1 21 0 5 18 0 18 22 2 20 19 18 20
split_gain=22.1867 15.3107 7.02051 5.71477 4.79144 3.63802 2.94036 2.62905 1.14237 1.11099 0.944639 0.934914 0.480708 0.309809 0.231717 0.00682236
threshold=1.0000000180025095e-35 1.0000000180025095e-35 0.29638710320657907 1.0000000180025095e-35 3.0680421183589632 60.500000000000007 1.0000000180025095e-35 0.98766512271122087 53.500000000000007 1.4917741750445088 1.0000000180025095e-35 1.0000000180025095e-35 4.3782625014634862 5.599158042427983 0.56814667781789929 4.673762541549304
decision_type=10 10 2 2 2 2 8 2 2 2 10 10 2 2 2 2
left_child=1 2 8 6 5 11 10 13 -1 15 -4 -5 -9 -7 -2 -6
right_child=14 -3 3 4 9 7 -8 12 -10 -11 -12 -13 -14 -15 -16 -17
leaf_value=-0.011565940277001675 0.013261324824997931 0.034760585858051536 -0.027474024441487731 0.010058524221314825 -0.012450612629880045 -0.0064873714426715214 0.0047085392647611196 0.016267490229310181 -0.033901827511788871 -0.0015602098043215069 -0.0068191384041342146 0.029057742990531411 0.00066153987378718079 -0.023033438295372962 0.03090570085291441 -0.026384697693776948
leaf_weight=4.1880865618586531 3.0064025819301632 6.0785110592842093 12.828839316964155 6.5417747125029582 3.5507017597556096 2.9648608118295652 3.615410864353179 3.1900723576545715 11.170455291867254 4.0239970237016678 3.266416795551776 5.0462410151958466 3.2372685521841049 2.5984885692596436 14.931011393666266 3.0120103284716606
leaf_count=26 20 49 96 36 22 26 20 20 96 24 23 29 20 22 194 19
internal_value=-0.000263177 -0.00747308 -0.0116231 -0.00626395 0.00123855 0.00870295 -0.0187003 -0.00289761 -0.0288905 -0.0147025 -0.0239264 0.0199832 0.00955457 -0.0165475 0.0288048 -0.0214889
internal_weight=93.2505 75.3131 69.2346 53.8761 34.1654 23.5787 19.7107 11.9907 15.3585 10.5867 16.0953 11.588 6.42734 5.56335 17.9374 6.56271
internal_count=742 528 479 357 218 153 139 88 122 65 119 65 40 48 214 41
is_linear=0
shrinkage=0.03


Tree=60
num_leaves=16
num_cat=0
split_feature=4 8 0 21 9 20 18 18 0 18 18 1 19 18 21
split_gain=19.8925 14.241 6.15218 4.5296 4.16044 3.02849 2.99374 2.10185 2.09281 1.36083 1.08969 2.01156 0.483906 0.264061 0.194134
threshold=1.0000000180025095e-35 1.0000000180025095e-35 63.500000000000007 2.6137328127880433 1.0000000180025095e-35 4.0951772018816319 0.47311890412105362 1.2426866037998219 72.500000000000014 0.56246479849274167 0.98766512271122087 1.0000000180025095e-35 3.6913638964242277 1.5623441073733468 3.180132835422278
decision_type=10 8 2 2 8 2 2 2 2 2 2 2 2 2 2
left_child=1 2 3 5 -5 -1 -3 12 14 -2 -4 -12 -6 -13 -8
right_child=9 6 10 4 7 -7 8 -9 -10 -11 11 13 -14 -15 -16
leaf_value=-0.0035496868091411684 0.0063952640601250424 -0.0044355179704345235 -0.031767647042794903 0.014037090028242383 -0.012385847185294518 0.028492212894633162 0.030745288536575783 -0.0035983756137539539 -0.0010580783386035305 0.030825405719495196 -0.028984829616861281 0.0021242875915848175 -0.029690294107753677 -0.0088608221163189987 0.011634735553285555
leaf_weight=5.483339764177801 3.0653061121702221 4.756599165499213 13.699560046195986 3.576290562748909 4.3878103122115197 3.8181603103876114 8.1182305589318258 6.4487025886774054 2.7104906588792792 14.597855888307093 4.7831173837184888 3.1894915178418159 8.2383894845843297 3.1021957397460938 2.3237079679965964
leaf_count=32 20 26 135 20 30 20 63 34 18 193 41 20 58 20 16
internal_value=-0.000589522 -0.00742782 -0.0147481 -0.00574528 -0.0128361 0.0110922 0.015313 -0.0183227 0.0222638 0.0271556 -0.0256861 -0.0161553 -0.025027 -0.00376444 0.027881
internal_weight=92.2992 74.6361 56.7271 31.9527 22.6512 9.3015 17.909 19.0749 13.1524 17.6632 24.7744 11.0748 12.6262 6.29169 10.4419
internal_count=746 533 410 194 142 52 123 122 97 213 216 81 88 40 79
is_linear=0
shrinkage=0.03


Tree=61
num_leaves=18
num_cat=0
split_feature=4 25 3 18 0 16 0 8 18 2 0 8 19 20 4 19 0
split_gain=18.1344 9.70678 6.50202 6.26688 6.93941 6.11562 2.95859 2.2272 2.17639 1.86617 2.37918 2.30677 1.49238 0.601562 0.510632 0.458859 1.12605
threshold=1.0000000180025095e-35 1.0000000180025095e-35 1.0000000180025095e-35 0.29638710320657907 65.500000000000014 1.0000000180025095e-35 44.500000000000007 1.0000000180025095e-35 1.083497219343849 1.0000000180025095e-35 59.500000000000007 1.0000000180025095e-35 7.1627813413284871 4.3431556491826422 1.0000000180025095e-35 4.5234175369119054 53.500000000000007
decision_type=8 10 10 2 2 8 2 10 2 10 2 10 2 2 10 2 2
left_child=1 3 5 15 6 -2 8 12 -5 11 -11 13 -6 -8 -4 16 -1
right_child=2 -3 14 4 7 -7 9 -9 -10 10 -12 -13 -14 -15 -16 -17 -18
