tree
version=v4
num_class=1
num_tree_per_iteration=1
label_index=0
max_feature_idx=35
objective=binary sigmoid:1
feature_names=Age Sex history__sudden_onset_pain history__severe_pain history__tearing_pain history__migrating_pain history__trauma_related history__marfan_or_ctd history__aortic_disease_history exam__pulse_deficit exam__bp_difference exam__new_aortic_regurgitation_murmur exam__neurologic_deficit exam__hypotension_or_shock exam__text_suggests_ais exam__text_suggests_aos troponin_abnormal D_D_abnormal D_D_log NT_proBNP_log Mb_log CK_MB_log history__sudden_onset_pain_missing history__severe_pain_missing history__tearing_pain_missing history__migrating_pain_missing history__trauma_related_missing history__marfan_or_ctd_missing history__aortic_disease_history_missing exam__pulse_deficit_missing exam__bp_difference_missing exam__new_aortic_regurgitation_murmur_missing exam__neurologic_deficit_missing exam__hypotension_or_shock_missing exam__text_suggests_ais_missing exam__text_suggests_aos_missing
feature_infos=[14:94] [0:1] [0:1] [0:1] [0:1] [0:1] [0:1] [0:1] [0:1] [0:1] [0:1] [0:1] [0:1] [0:1] none none [0:1] [0:1] [0.0029955089797984:7.9966538754626084] [1.791759469228055:10.463131911491969] [2.0794415416798357:12.952454859082501] [0.69314718055994529:7.259819610363186] [0:1] [0:1] [0:1] [0:1] none [0:1] [0:1] [0:1] [0:1] [0:1] [0:1] [0:1] none none
tree_sizes=1688 1303 1288 1287 1286 1310 1300 1409 1731 1411 1286 1620 1420 1199 1627 1505 1289 1625 1406 1616 1628 1412 1199 1624 1827 1609 1516 1625 2038 1618 1622 1312 1926 1417 1727 1833 1741 1511 1515 1722 1629 1837 1830 1816 1838 1536 1521 1523 1839 1824 1930 1726 1531 1631 1954 1837 1819 2168 1950 1841 1946 2267 1735 1529 2026 1828 2049 1632 1843 2025 1845 1736 1523 1526 1810 2132 1736 1611 1846 1918 1908 1731 1722 2061 2373 2029 2037 2048 1950 1927 1821 2237 2252 2157 2129 1960 2256 2040 2340 2164 1833 1947 2566 2252 2367 2144 2025 2249 2784 2276 1954 2381 2167 2243 2366 2358 2162 2475 2572 1942 2553 2255 2336 1822 2044 2558 2533 2478 2465 2368 2343 1936 2146 2486 1919 2361 2769 2500 2663 2568 2589 2362 2275 2693 2061 2797 2772 2245 2262 1925 2471 2774 1952 2155 2685 2353 2472 2579 2143 2464 2668 2362 2036 2281 2049 1957 2474 2773 2459 1961 2697 2264 2733 2360 2557 2270 2458 2574 2375 2472 2378 2598 2361 2465 2678 2671 2256 2677 1947 2278 2380 2386 2472 2469 2281 2589 2457 2166 2611 2369 2697 2591 2491 2691 2066 2476 2571 2603 2930 2247 2152 2936 2290 2595 2154 2694 2697 2796 2395 2151 2686 2161 2821 2258 2043 2581 2776 2349 2372 2375 2477 2564 2060 2707 2813 2244 2699 2592 1978 2070 2374 2822 2512 2058 2380 2496 2572 2906 2285 2665 2288 2697 2717 2340 2397 2610 2710 2377 2606 2814 2277 2682 2818 2394 2504 1857 2484 2171 2815 2283 2393 2597 2595 2507 2284 2082 2289 2377 2404 2934 2510 2589 2493 2379 2273 2378 2391 2184 1861 2167 2078 2376 2272 2268 2413 2241 2687 2507 2713 2374 2387 2491 2286 2726 2728 2407 2056 2404 2597 2419 1973 2606 2182 1743 3003 2949 2835 2705 2488 2570 2188 3029 2600 2142 2504 2404 2491 2395 2159 2279 2305 2058 2616 2499 2161 1875 2595 2507 2390 2286 2621 2492 2833 2077 2374 2190 2183 2253 2406 2092 2498 1971 2487 2200 2371 2604 2407 2410 2634 2094 2272 2631 2382 2184 2193 2687 2844 2297 2090 2298 2309 2610 1862 2530 2085 2507 2744 2314 2269 2518 2075 1746 2711 2267 2402 2607 2160 2275 2471 2407 2411 2187 2525 1840 2181 2267 2274 2847 2417 2087 2626 2940 2730 2633 2711 2179 1954 2412 2201 2187 2303 2525 2150 2284 2091 2319 2101 2202 2091 2284 2316 2073 2188 2099 2300 1978 2055 2609 2190 1748 2302 2313 1873 2303 1870 2872 2305 1876 2198 2306 2093 2004 2065 2209 2546 2203 1988 2621 2111 2516 2612 2318 2312 2317 2327 2189 2203 2395 2096 1957 2193 1856 2479 2534 2093 2409 2092 2082 2534 2199 2313 1991 1974 2073 2432 2426 2300 2510 2541 2282 2095 2395 1876 2095 2192 2525 2647 2212 2200 2516 2205 1678 2104 2297 2209 2200 2310 2440 2414 2224 1994 2424 2083 2527 2316 2432 2406 2178 2326 1983 2419 2191 2436 1985 2207 2104 2565 2313 1984 2309 1995 2548 2300 2658 2425 2628 2319 2270 1880 1782 1857 1628 2117 1986 2114 1747 2221 1959 2299 1658 2317 2536 1993 2219 2090 1875 2215 2303 2301 2516 2425 2184 1994 1988 2209 1992 1961 2321 1679 2101 2320 2115 1563 2549 2534 1861 2303 1987 2071 2558 2113 2320 2290 2100 1997 1682 2417 2219 2654 2218 2053 2227 2427 2228 2343 2725 2189 1964 2528 2647 2301 1854 2221 1771 1877 2094 2339 2336 1870 2315

Tree=0
num_leaves=15
num_cat=0
split_feature=4 18 0 2 31 0 21 20 18 18 21 19 21 18
split_gain=254.658 46.516 41.102 14.3986 11.1333 6.94443 5.16301 3.22443 3.07604 2.89901 2.81464 1.40422 0.703904 0.086944
threshold=1.0000000180025095e-35 0.69309717805977866 65.500000000000014 1.0000000180025095e-35 1.0000000180025095e-35 54.500000000000007 2.7440554690903465 4.0951772018816319 1.9809976638580511 1.1019345600274442 2.5839904324100171 5.9690586902534291 2.4466760667407619 0.56814667781789929
decision_type=10 2 2 10 2 2 2 2 2 2 2 2 2 2
left_child=1 5 3 6 -4 7 -3 -1 -6 -5 12 -11 -7 -2
right_child=13 2 4 9 8 10 -8 -9 -10 11 -12 -13 -14 -15
leaf_value=0.031201832075014459 0.095312004391551824 0.077399085426186301 0.07183227620418027 0.074882936649600607 0.020027981225951397 0.022367916383619117 0.045425697299500301 0.059791420386634035 0.049943097008817078 0.11430385486473886 0.0092700955875678059 0.085043467622381186 0.042227971533969261 0.11985368292044765
leaf_weight=11.320931628346445 4.7359132915735236 7.1877069771289852 5.0466379821300533 4.7968856841325787 21.530289649963382 7.1818442493677122 9.2771839499473554 5.3268764764070502 4.8731011748313895 7.5042943954467756 33.844367742538452 4.7663994878530502 7.3401379585266113 44.087729573249817
leaf_count=46 20 30 21 20 87 29 38 22 20 32 136 20 30 188
internal_value=0.0604267 0.0384839 0.056609 0.079497 0.0324484 0.0207385 0.0594103 0.039651 0.0248722 0.0979991 0.0148332 0.105457 0.0304229 0.11817
internal_weight=178.82 129.997 64.9825 33.5325 31.45 65.0142 16.4649 16.6478 26.4034 17.0676 48.3663 12.2707 14.522 48.8236
internal_count=739 531 268 140 128 263 68 68 107 72 195 52 59 208
is_linear=0
shrinkage=1


Tree=1
num_leaves=11
num_cat=0
split_feature=4 8 2 0 18 3 19 18 18 18
split_gain=241.144 129.792 37.6528 21.1442 17.3249 4.77459 2.69536 2.33063 1.16161 0.774313
threshold=1.0000000180025095e-35 1.0000000180025095e-35 1.0000000180025095e-35 54.500000000000007 0.73476597984497327 1.0000000180025095e-35 4.9544166194304404 0.47311890412105362 1.9650120053888491 0.23506431071694328
decision_type=8 10 10 2 2 10 2 2 2 2
left_child=1 3 -2 4 9 -4 -6 -3 -5 -1
right_child=2 7 5 8 6 -7 -8 -9 -10 -11
leaf_value=-0.050975810565063576 -0.02243889669720802 0.016205499563091561 0.018419589135538598 -0.0535366706028442 0.026534163816667462 0.054101571318104967 -0.0032586374454857247 0.043833231069955424 -0.029563954905886525 -0.026060905228305866
leaf_weight=4.9979708343744296 6.3736550360918036 5.2695877850055721 5.0130352526903144 62.772995516657829 4.7452183663845044 53.624645322561264 4.8413998782634735 15.566296443343161 6.1525578796863547 7.1241046488285065
leaf_count=20 26 22 21 252 20 229 20 66 25 29
internal_value=-0.0015854 -0.0282916 0.0439406 -0.0437578 -0.0169126 0.0514111 0.0126017 0.0379081 -0.0518502 -0.0394353
internal_weight=176.481 111.47 65.0113 90.6342 21.7087 58.6377 9.58662 20.8359 68.9256 12.1221
internal_count=730 454 276 366 89 250 40 88 277 49
is_linear=0
shrinkage=0.03


Tree=2
num_leaves=11
num_cat=0
split_feature=4 8 0 1 21 1 17 20 19 10
split_gain=234.265 168.813 17.824 13.0849 17.2905 6.17832 1.90642 1.66103 1.02986 0.754898
threshold=1.0000000180025095e-35 1.0000000180025095e-35 59.500000000000007 1.0000000180025095e-35 2.6210322124986196 1.0000000180025095e-35 1.0000000180025095e-35 3.9269111325907873 4.6959141240107813 inf
decision_type=10 8 2 2 2 2 2 2 2 8
left_child=1 2 3 -1 -5 -3 -6 -7 -8 -4
right_child=-2 5 9 4 6 7 8 -9 -10 -11
leaf_value=-0.047832276725202974 0.052379773732145321 0.013323612589796514 -0.029977935971201079 0.031482680025111259 -0.037151572399618339 0.022780215473071543 -0.003492924269238965 0.05063423528854772 -0.022171909415187846 -0.053567833221910256
leaf_weight=12.932410344481466 48.749934822320938 8.3839987367391604 5.6720226854085922 5.6853975951671627 6.6874634474515959 4.9935326874256161 4.8349700570106471 16.884480252861977 6.3740576952695847 59.077692732214928
leaf_count=52 209 35 23 24 27 21 20 72 26 237
internal_value=-0.00314796 -0.0239692 -0.0424751 -0.0246686 -0.0105364 0.0373338 -0.0248448 0.0455503 -0.0150608 -0.0519887
internal_weight=180.276 131.526 101.264 36.5143 23.5819 30.262 17.8965 21.878 11.209 64.7497
internal_count=746 537 409 149 97 128 73 93 46 260
is_linear=0
shrinkage=0.03


Tree=3
num_leaves=11
num_cat=0
split_feature=4 8 0 2 18 18 20 19 11 18
split_gain=207.776 180.376 16.7967 15.0496 19.5636 3.85673 2.85579 2.81752 1.15058 0.227646
threshold=1.0000000180025095e-35 1.0000000180025095e-35 59.500000000000007 1.0000000180025095e-35 0.62325745929580267 0.36115877892986259 4.0951772018816319 7.1098043661219679 inf 0.56814667781789929
decision_type=10 8 2 10 2 2 2 2 8 2
left_child=1 2 3 6 -5 -3 -1 -7 -4 -2
right_child=9 5 8 4 -6 7 -8 -9 -10 -11
leaf_value=-0.049732007034908279 0.029308326372950354 0.011475456479940898 -0.030116195116913758 -0.038016513282545301 0.028526438428102679 0.050344137131939581 -0.022619916742538711 0.023902138139458649 -0.052812736275995739 0.052698224094823172
leaf_weight=11.711010813713076 4.6958481371402732 4.7924011647701255 6.9036810547113419 5.9481103867292395 8.2970098704099637 19.176159411668781 8.8278499245643598 8.069666460156439 57.026896864175797 42.645683526992798
leaf_count=47 20 20 28 24 35 82 36 34 229 184
internal_value=-0.0021775 -0.0216843 -0.0416787 -0.0238481 7.00322e-05 0.0393183 -0.0396701 0.043636 -0.0508634 0.0510324
internal_weight=178.094 130.753 98.7146 34.784 14.2451 32.0382 20.5389 27.2458 63.9306 47.3415
internal_count=739 535 399 142 59 136 83 116 257 204
is_linear=0
shrinkage=0.03


Tree=4
num_leaves=11
num_cat=0
split_feature=4 8 0 18 2 1 21 11 20 18
split_gain=202.606 164.317 17.4797 16.5426 12.1069 4.81325 2.04932 1.38538 1.26128 0.220403
threshold=1.0000000180025095e-35 1.0000000180025095e-35 59.500000000000007 0.73476597984497327 1.0000000180025095e-35 1.0000000180025095e-35 2.5915093710922874 inf 3.9110220040928101 0.57941449207832885
decision_type=10 8 2 2 10 2 2 8 2 2
left_child=1 2 3 6 -5 -3 -1 -4 -7 -2
right_child=9 5 7 4 -6 8 -8 -9 -10 -11
leaf_value=-0.016792120245960506 0.028604982874888458 0.015129952941600775 -0.028514835360529761 -0.02687697681394205 0.026190860436307847 0.02375031474658848 -0.043415384202334803 -0.051922566803587526 0.048801563847991232 0.051502611906628352
leaf_weight=5.1342491805553463 4.6801638305187216 8.3456511199474352 6.6495579779148102 5.905386880040167 7.8157919347286224 5.4391112774610546 17.102352738380432 57.378545239567757 17.706906631588936 42.825125798583031
leaf_count=21 20 35 27 24 33 23 69 231 76 186
internal_value=-0.00258955 -0.0217823 -0.0405296 -0.0228269 0.00307701 0.0371559 -0.0382555 -0.0499675 0.0441422 0.049883
internal_weight=178.983 131.478 99.9859 35.9578 13.7212 31.4917 22.2366 64.0281 23.146 47.5053
internal_count=745 539 405 147 57 134 90 258 99 206
is_linear=0
shrinkage=0.03


Tree=5
num_leaves=11
num_cat=0
split_feature=4 8 0 18 3 1 29 1 18 20
split_gain=200.224 156.168 15.8916 15.9658 5.37411 3.85338 1.11568 1.05648 1.34596 0.523934
threshold=1.0000000180025095e-35 1.0000000180025095e-35 59.500000000000007 0.73476597984497327 1.0000000180025095e-35 1.0000000180025095e-35 1.0000000180025095e-35 1.0000000180025095e-35 0.23506431071694328 3.9110220040928101
decision_type=10 8 2 2 10 2 2 2 2 2
left_child=1 2 3 7 -5 -3 -4 -1 -9 -7
right_child=-2 5 6 4 -6 9 -8 8 -10 -11
leaf_value=-0.047954246181799387 0.049453023245359148 0.016828777667505006 -0.025288832839751099 -0.012449904871191022 0.021945161148606705 0.024553127928454668 -0.049462666030628259 -0.038882516789903676 -0.015648301543187408 0.04763194257653415
leaf_weight=9.1901054829359055 48.507399201393127 8.0871336162090319 5.1615218520164481 9.001219764351843 5.9221397638320914 4.7168221473693874 59.833737939596176 5.4439349621534348 7.0780016183853149 17.615435287356377
leaf_count=37 212 34 21 37 25 20 242 22 29 76
internal_value=-0.00206422 -0.0212181 -0.0390044 -0.0222724 0.00172032 0.0375558 -0.0479552 -0.0381129 -0.0278779 0.0440187
internal_weight=180.557 132.05 101.631 36.6354 14.9234 30.4194 64.9953 21.712 12.5219 22.3323
internal_count=755 543 413 150 62 130 263 88 51 96
is_linear=0
shrinkage=0.03


Tree=6
num_leaves=11
num_cat=0
split_feature=4 8 0 18 19 9 18 0 19 18
split_gain=179.841 139.629 16.3725 16.3874 4.23808 3.18837 1.88864 1.45008 0.718188 0.488636
threshold=1.0000000180025095e-35 1.0000000180025095e-35 54.500000000000007 0.90623835540838849 6.6688615566375411 1.0000000180025095e-35 0.45425023319954611 44.500000000000007 7.0259470364283807 0.43501867367834662
decision_type=10 8 2 2 2 8 2 2 2 2
left_child=1 2 3 6 9 -4 -1 -5 -7 -3
right_child=-2 4 5 7 -6 8 -8 -9 -10 -11
leaf_value=-0.043569970799878184 0.048400373046568086 0.02477076062262689 -0.019669561108994045 0.0012033814505670794 0.016901928757579527 -0.0482022212167856 -0.017792170325995785 0.023418897159384541 -0.030633151886346143 0.047930210922205972
leaf_weight=8.4098144024610537 47.424342185258865 4.719182148575789 6.5977787375450134 4.8045073151588422 9.2161998301744443 56.121375888586044 6.5907692462205878 5.209233820438385 9.5311773717403394 15.899287953972815
leaf_count=34 209 20 27 20 39 228 27 22 39 69
internal_value=-0.000854494 -0.0194672 -0.0368196 -0.0150933 0.0364631 -0.0440329 -0.0340639 0.0138371 -0.0461495 0.0440205
internal_weight=174.524 127.099 97.2647 25.0143 29.8347 72.2503 15.0006 10.0137 65.6526 20.6185
internal_count=734 525 397 103 128 294 61 42 267 89
is_linear=0
shrinkage=0.03


Tree=7
num_leaves=12
num_cat=0
split_feature=4 8 0 18 2 1 19 19 20 18 0
split_gain=162.116 129.482 14.1696 12.257 10.8875 5.68799 3.07289 1.96193 0.949987 0.424996 0.0407641
threshold=1.0000000180025095e-35 1.0000000180025095e-35 54.500000000000007 0.612475605355564 1.0000000180025095e-35 1.0000000180025095e-35 7.0259470364283807 8.0815822115697866 3.9110220040928101 0.62325745929580267 48.500000000000007
decision_type=10 8 2 2 10 2 2 2 2 2 2
left_child=1 2 3 10 -5 -3 -4 -8 -7 -2 -1
right_child=9 5 6 4 -6 8 7 -9 -10 -11 -12
leaf_value=-0.046022420928452858 0.025745487941262829 0.010535532859933572 -0.046336570199195834 -0.026719416621144933 0.025320953269285702 0.022875456926307453 -0.0087859677370968597 -0.035245497003873749 0.045507475378560334 0.048338159212871115 -0.02512336081011712
leaf_weight=4.9613607823848742 4.5898780673742285 8.3229317069053668 59.991048276424408 5.1671444326639158 7.7886738479137421 5.6239699274301556 5.0658729672431928 6.5988318473100662 16.721278801560402 39.703196093440056 5.6164127588272095
leaf_count=20 20 35 245 21 33 24 21 27 73 177 23
internal_value=-0.00211762 -0.0195011 -0.0366991 -0.0156042 0.00413842 0.0333521 -0.0433171 -0.0253554 0.0410352 0.0466171 -0.0380542
internal_weight=170.151 125.858 95.1893 23.5336 12.9558 30.6682 71.6558 11.6647 22.3452 44.2931 10.5778
internal_count=719 522 390 97 54 132 293 48 97 197 43
is_linear=0
shrinkage=0.03


Tree=8
num_leaves=15
num_cat=0
split_feature=3 8 18 1 0 0 18 1 16 18 19 18 1 20
split_gain=127.435 95.2812 24.6048 14.0241 7.39378 5.84234 9.98061 4.08603 3.97932 2.81808 2.62575 0.881875 0.602621 0.122088
threshold=1.0000000180025095e-35 1.0000000180025095e-35 0.40212061403276617 1.0000000180025095e-35 71.500000000000014 63.500000000000007 0.75376903420262753 1.0000000180025095e-35 1.0000000180025095e-35 0.99879025759975792 7.2765525766297587 0.73476597984497327 1.0000000180025095e-35 4.0951772018816319
decision_type=10 8 2 2 2 2 2 2 8 2 2 2 2 2
left_child=1 5 -2 4 9 6 12 -3 -8 -4 11 -5 -1 -14
right_child=2 7 3 10 -6 -7 8 -9 -10 -11 -12 -13 13 -15
leaf_value=-0.048239109558459489 -0.027911370086764534 0.008331446831694133 0.0016117674278391487 0.023745686159033504 -0.020345206653147759 -0.048087539721528294 -0.019429098528247292 0.039130970656766607 0.013979898249143217 0.030951390968869327 0.018335351696677087 0.045361996787311912 -0.034750897250885204 -0.018460459819586071
leaf_weight=10.542768508195877 5.7815390527248374 5.9524342268705377 4.6890273690223712 5.5243818312883368 4.7536573857069007 40.171549111604691 6.32891874015331 15.135769993066788 4.7757029533386239 7.4875030368566513 6.4096429646015158 39.886373937129974 7.8138932138681412 5.0912814289331436
leaf_count=43 24 25 20 24 20 165 26 66 20 33 28 178 32 21
internal_value=-0.00126475 -0.0240435 0.0279484 0.0329787 0.00863405 -0.0398425 -0.0291738 0.0312082 -0.00509314 0.0206329 0.0406182 0.0433006 -0.0399032 -0.0301139
internal_weight=170.344 95.8123 74.5321 68.7506 16.9302 74.7241 34.5526 21.0882 11.1046 12.1765 51.8204 45.4108 23.4479 12.9052
internal_count=725 398 327 303 73 307 142 91 46 53 230 202 96 53
is_linear=0
shrinkage=0.03


Tree=9
num_leaves=12
num_cat=0
split_feature=4 8 3 0 18 2 18 1 20 18 18
split_gain=158.43 87.6988 26.1248 14.3832 15.9798 9.08665 4.43906 3.71826 2.24158 0.736048 0.239793
threshold=1.0000000180025095e-35 1.0000000180025095e-35 1.0000000180025095e-35 59.500000000000007 0.73476597984497327 1.0000000180025095e-35 1.0919007785020396 1.0000000180025095e-35 4.0951772018816319 0.98766512271122087 0.58500114237739143
decision_type=8 10 10 2 2 10 2 2 2 2 2
left_child=1 3 6 4 8 -6 -2 -3 -1 -5 -9
right_child=2 7 -4 9 5 -7 -8 10 -10 -11 -12
leaf_value=-0.041493561573775394 -0.02080180146529631 0.0071082711107142253 0.046412434218530037 -0.0482207952609746 -0.020836304188170653 0.027189095373899831 0.014461720306629082 0.021734773108467748 -0.016017939439092129 -0.034444852484857368 0.041645217573609672
leaf_weight=13.651335105299951 5.7719658464193326 5.2249044179916408 49.753938511013985 38.431615561246872 5.1431337445974332 7.5170387476682663 5.1635698080062866 4.644076660275462 6.2933314293622962 19.791715621948242 11.768090963363646
leaf_count=56 24 22 225 159 21 32 22 20 26 82 52
internal_value=-0.00135655 -0.0223869 0.0373464 -0.03527 -0.0184851 0.00758192 -0.00433439 0.0308631 -0.0346036 -0.0441987 0.0375831
internal_weight=173.155 112.465 60.6895 90.8282 32.6048 12.6602 10.9355 21.6371 19.9447 58.2233 16.4122
internal_count=741 470 271 376 135 53 46 94 82 241 72
is_linear=0
shrinkage=0.03


Tree=10
num_leaves=11
num_cat=0
split_feature=4 8 0 2 1 1 20 21 11 20
split_gain=149.148 119.42 12.1712 13.4453 10.5056 3.15426 2.0622 1.44655 1.22864 0.650523
threshold=1.0000000180025095e-35 1.0000000180025095e-35 59.500000000000007 1.0000000180025095e-35 1.0000000180025095e-35 1.0000000180025095e-35 4.0951772018816319 2.847807942661571 inf 3.9110220040928101
decision_type=10 8 2 10 2 2 2 2 8 2
left_child=1 2 3 6 -5 -3 -1 -6 -4 -7
right_child=-2 5 8 4 7 9 -8 -9 -10 -11
leaf_value=-0.043343954068181159 0.044483564527965654 0.014984521929005585 -0.023681518064077142 -0.028944127321984512 0.031106709385081834 0.021196035376623696 -0.020342965362371162 0.0067488716222318086 -0.044629317309990209 0.043332738855428828
leaf_weight=11.65826389193535 45.611335381865501 8.0306225717067736 6.5364449769258499 5.088263958692548 4.6776739656925201 4.6264943480491665 9.2594819813966733 4.7312429249286652 53.669629499316216 16.812792435288429
leaf_count=48 209 34 27 21 20 20 38 20 224 75
internal_value=-0.00137879 -0.0183215 -0.0345332 -0.0197253 0.00252134 0.0336875 -0.034555 0.0206835 -0.0427791 0.0397132
internal_weight=170.702 125.091 95.621 35.4149 14.4972 29.4699 20.9177 9.40892 60.2061 21.4393
internal_count=736 527 398 147 61 129 86 40 251 95
is_linear=0
shrinkage=0.03


Tree=11
num_leaves=14
num_cat=0
split_feature=4 8 0 1 2 18 20 18 0 18 18 18 18
split_gain=141.888 111.24 13.6565 14.6424 11.7026 6.3856 3.83398 3.27785 4.07322 1.83891 0.273242 0.200382 0.397929
threshold=1.0000000180025095e-35 1.0000000180025095e-35 59.500000000000007 1.0000000180025095e-35 1.0000000180025095e-35 1.083497219343849 4.0951772018816319 0.36115877892986259 71.500000000000014 0.98766512271122087 0.56814667781789929 1.2237711063438923 1.9650120053888491
decision_type=10 8 2 2 10 2 2 2 2 2 2 2 2
left_child=1 2 3 -1 6 -6 -5 -3 -9 -4 -2 -11 -13
right_child=10 7 9 4 5 -7 -8 8 -10 11 -12 12 -14
leaf_value=-0.042628926357245175 0.024754496288252718 0.0083497829248945863 -0.046565683330532806 -0.036369288840840307 -0.0029370652582989911 0.043113363398818355 -0.0045527435236051928 0.043943347535441588 0.012351510000251545 -0.019665387038565282 0.045279301332603217 -0.039013746162874507 -0.019845095376096633
leaf_weight=12.338131397962568 4.7227727174758902 4.9230808466672924 39.879455417394638 6.0478085428476334 5.0280396491289139 4.591161847114563 7.2417817115783691 18.352367475628856 5.7531853914260855 6.1510921865701702 39.704526752233505 11.439557909965517 5.0309192240238181
leaf_count=51 21 21 168 25 21 20 30 82 25 26 185 48 21
internal_value=-0.0018599 -0.0180394 -0.0332999 -0.0176315 -0.0029486 0.0210326 -0.0205637 0.0327446 0.0371957 -0.0417191 0.0436904 -0.0315655 -0.0346297
internal_weight=171.204 126.777 97.7479 35.2469 22.9088 9.6192 13.2896 29.0286 24.1056 62.501 44.4273 22.6216 16.4705
internal_count=744 538 410 147 96 41 55 128 107 263 206 95 69
is_linear=0
shrinkage=0.03


Tree=12
num_leaves=12
num_cat=0
split_feature=4 8 18 9 1 2 18 1 21 18 5
split_gain=140.555 115.218 8.9053 16.9679 3.95401 7.36068 3.62771 2.45457 1.6004 0.422327 0.0918871
threshold=1.0000000180025095e-35 1.0000000180025095e-35 0.73476597984497327 1.0000000180025095e-35 1.0000000180025095e-35 1.0000000180025095e-35 0.36115877892986259 1.0000000180025095e-35 2.8564536912166019 0.56814667781789929 1.0000000180025095e-35
decision_type=10 8 2 8 2 10 2 2 2 2 8
left_child=1 2 10 -4 -5 8 -3 -8 -6 -2 -1
right_child=9 6 3 4 5 -7 7 -9 -10 -11 -12
leaf_value=-0.044219297071913563 0.023284876437031875 0.0065063368892963932 0.025302400561380119 -0.04232970190843284 -0.015639739816282042 0.005632265664646828 0.016729185071055769 0.042438163580705623 -0.040079436099891036 0.044573632016845659 -0.026342765097828964
leaf_weight=48.488431975245476 4.4750442504882804 4.6924088597297695 4.92534039914608 14.799610301852224 5.9165324568748501 6.5161277651786795 6.3090543597936657 18.472009032964706 8.4177561402320844 39.799419090151787 5.7013078778982154
leaf_count=205 20 20 21 62 25 28 27 84 35 188 24
internal_value=-0.00233203 -0.0186953 -0.0347417 -0.0231427 -0.0303435 -0.0202879 0.0323451 0.0367956 -0.0316696 0.0429837 -0.0428499
internal_weight=168.513 124.239 94.7651 40.5754 35.65 20.8504 29.4735 24.7811 14.3343 44.2745 54.1897
internal_count=739 531 400 171 150 88 131 111 60 208 229
is_linear=0
shrinkage=0.03


Tree=13
num_leaves=10
num_cat=0
split_feature=4 8 0 18 1 21 3 20 19
split_gain=131.846 105.598 13.8826 12.5517 3.69747 2.87779 2.68344 1.91857 1.00421
threshold=1.0000000180025095e-35 1.0000000180025095e-35 59.500000000000007 0.73476597984497327 1.0000000180025095e-35 2.6210322124986196 1.0000000180025095e-35 3.9110220040928101 7.1627813413284871
decision_type=10 8 2 2 2 2 10 2 2
left_child=1 2 3 5 -3 -1 -5 -6 -4
right_child=-2 4 8 6 7 -7 -8 -9 -10
leaf_value=-0.0085800235868649117 0.042876897165252455 0.011355608425086979 -0.044280166588373041 -0.0053395851601771675 0.015259860483879301 -0.037285025373636746 0.02032845229285565 0.041478301855060962 -0.027443098424270122
leaf_weight=4.7385751008987453 42.388580411672592 8.2172060161829013 50.172337785363197 8.4137554913759214 4.7821231782436397 15.96637240052223 5.1022644191980353 17.205925598740578 10.337197870016096
leaf_count=20 202 35 215 35 21 67 22 79 44
internal_value=-0.00223778 -0.0177633 -0.0332714 -0.0172637 0.0303812 -0.0314135 0.00508294 0.036688 -0.0418967
internal_weight=167.324 124.936 94.7305 34.221 30.2053 20.7049 13.516 21.988 60.5095
internal_count=740 538 403 144 135 87 57 100 259
is_linear=0
shrinkage=0.03


Tree=14
num_leaves=14
num_cat=0
split_feature=4 1 0 2 21 20 5 3 21 20 0 21 0
split_gain=124.719 23.8254 19.0912 9.05849 6.04014 6.64308 5.34941 4.63308 3.77754 3.26982 2.68455 1.78224 0.778889
threshold=1.0000000180025095e-35 1.0000000180025095e-35 59.500000000000007 1.0000000180025095e-35 2.9729720159030868 4.0474272610532234 1.0000000180025095e-35 1.0000000180025095e-35 3.0610489973715933 3.9880572622396131 74.500000000000014 2.9258425522898492 68.500000000000014
decision_type=10 2 2 10 2 2 8 8 2 2 2 2 2
left_child=1 6 3 8 5 -4 12 10 9 -3 -7 -5 -1
right_child=-2 2 4 11 -6 7 -8 -9 -10 -11 -12 -13 -14
leaf_value=-0.030316071445813976 0.041626937192045368 -0.013031665077457736 -0.032301248559048056 0.033030340302581257 -0.036261991578147586 0.0009384741804569221 -0.0078881679910990064 0.020903943664103027 -0.022443660433211211 0.015223911622703038 -0.025456169398671059 0.010977641267930828 -0.044367852213527403
leaf_weight=22.43548509478569 43.443644776940346 5.0927016735076931 8.0904898196458834 9.6687542051076907 13.396313294768332 8.0151577591896075 7.041952669620513 5.1528915762901297 5.9906224906444541 8.4821089506149274 5.0230156779289237 6.8375108987092963 18.033758401870728
leaf_count=96 210 22 35 43 58 36 30 23 25 37 22 30 78
internal_value=-0.00151318 -0.0169307 -0.00632478 0.00934652 -0.0204513 -0.0113585 -0.0333613 -0.000846369 -0.00447053 0.00445678 -0.0103192 0.0250442 -0.0374967
internal_weight=166.704 123.261 75.7496 36.0717 39.6779 26.2816 47.5112 18.1911 19.5654 13.5748 13.0382 16.5063 40.4692
internal_count=745 535 331 157 174 116 204 81 84 59 58 73 174
is_linear=0
shrinkage=0.03


Tree=15
num_leaves=13
num_cat=0
split_feature=4 8 0 18 19 19 20 19 20 20 18 0
split_gain=122.491 93.6342 12.0866 10.8598 5.27747 2.69268 2.39448 1.71962 1.14468 0.54546 0.462151 0.330367
threshold=1.0000000180025095e-35 1.0000000180025095e-35 54.500000000000007 1.083497219343849 6.6688615566375411 7.0259470364283807 4.1343659160588695 8.0815822115697866 4.6582358952060465 3.8055501422592646 0.56814667781789929 65.500000000000014
decision_type=10 8 2 2 2 2 2 2 2 2 2 2
left_child=1 2 3 6 9 11 -1 -7 -6 -3 -2 -4
right_child=10 4 5 -5 8 7 -8 -9 -10 -11 -12 -13
leaf_value=-0.034113619403173756 0.022151928382877276 0.021211405877205661 -0.032240338864573406 0.01377241962904425 -0.0010491166843127622 -0.0062899430909699192 -0.0077763481497937596 -0.030384360463576038 0.018997314975827771 0.042401096378027435 0.042716387478874095 -0.043853462772674837
leaf_weight=10.624421760439875 4.5673690587282172 4.7916694730520311 21.290063261985779 8.6692298799753171 4.6128445118665677 5.1356910765171033 5.228626921772956 6.5068009793758392 4.5044338405132294 14.906180292367933 39.70088829100132 36.54599666595459
leaf_count=45 21 21 92 37 20 22 22 28 20 69 196 160
internal_value=-0.00110522 -0.0165382 -0.0309856 -0.0122175 0.0300508 -0.0373425 -0.026404 -0.0210941 0.0097537 0.0385204 0.0411309 -0.0401992
internal_weight=167.084 122.816 94.0008 24.5223 28.8151 69.4786 15.853 11.6425 9.11728 19.6978 44.2683 57.8361
internal_count=753 536 406 104 130 302 67 50 40 90 217 252
is_linear=0
shrinkage=0.03


Tree=16
num_leaves=11
num_cat=0
split_feature=4 8 0 18 1 21 19 10 20 20
split_gain=120.543 82.4733 15.8113 14.8945 5.55145 4.48216 2.20053 1.7614 1.22856 0.0817995
threshold=1.0000000180025095e-35 1.0000000180025095e-35 59.500000000000007 1.083497219343849 1.0000000180025095e-35 2.5915093710922874 5.0388632665683639 inf 3.9110220040928101 4.1805210894617968
decision_type=10 8 2 2 2 2 2 8 2 2
left_child=1 2 3 5 -3 -1 -5 -4 -6 -7
right_child=-2 4 7 6 8 9 -8 -9 -10 -11
leaf_value=-0.0036699122103775977 0.041105847136528782 0.0044021469833485502 -0.017610427984650793 0.027069762321790095 0.017070877239010893 -0.037816206032177439 0.00033456510143471755 -0.042011360540075433 0.039539343488829488 -0.021773508029217334
leaf_weight=6.1189004033803966 42.910052135586739 7.5313536524772671 4.9302707761526108 5.2660362571477872 5.1930528283119228 11.854729577898981 5.0126738399267197 52.431053623557091 15.499466583132742 5.9750041067600241
leaf_count=26 214 32 21 23 23 51 21 232 73 25
internal_value=-0.00147208 -0.0169351 -0.0306909 -0.0139801 0.0272262 -0.0266192 0.0152173 -0.0402518 0.0349475 -0.0338819
internal_weight=162.723 119.813 91.5887 34.2273 28.2239 23.9486 10.2787 57.3613 20.6925 17.8297
internal_count=741 527 399 146 128 102 44 253 96 76
is_linear=0
shrinkage=0.03


Tree=17
num_leaves=14
num_cat=0
split_feature=4 8 9 18 1 18 2 21 19 19 19 18 18
split_gain=114.864 85.1184 12.0829 11.3664 4.31116 6.98332 12.0539 5.13135 4.30351 2.54508 1.97567 0.726652 0.426165
threshold=1.0000000180025095e-35 1.0000000180025095e-35 1.0000000180025095e-35 0.75376903420262753 1.0000000180025095e-35 1.083497219343849 1.0000000180025095e-35 2.4973207021709531 6.6688615566375411 8.239932249455304 7.1098043661219679 0.62325745929580267 0.46686882273893787
decision_type=10 8 8 2 2 2 10 2 2 2 2 2 2
left_child=1 2 3 -1 -4 7 10 -6 12 -10 -7 -2 -3
right_child=11 8 4 -5 5 6 -8 -9 9 -11 -12 -13 -14
leaf_value=-0.0302793675756317 0.019738945526890851 0.019517486748786492 -0.043539019819504143 0.027644025520097915 -0.0075105300724250075 -0.041196570076307303 0.02313232134585759 -0.040967661508797153 -0.0056660172774738249 0.023587227225014464 -0.011459095660221914 0.041578817392659374 0.039371310136999266
leaf_weight=4.8758396208286285 4.2537289112806311 4.537950783967978 34.309352472424507 5.3376380652189255 5.4708165824413326 4.9088250398635846 5.4349429011344901 26.072517290711403 4.6444537043571454 4.4553084373474121 4.6566168963909149 38.214981466531754 14.445589169859884
leaf_count=21 20 20 152 23 24 21 24 115 20 20 20 195 68
internal_value=-0.00190648 -0.0170141 -0.0310334 -0.000242465 -0.0348725 -0.0277026 -0.0099615 -0.035574 0.0279505 0.00957389 -0.0291746 0.0398957 0.0358395
internal_weight=161.619 119.15 91.0665 10.2135 80.8531 46.5437 15.0004 31.5433 28.0833 9.09976 9.56544 42.4687 18.9835
internal_count=743 528 400 44 356 204 65 139 128 40 41 215 88
is_linear=0
shrinkage=0.03


Tree=18
num_leaves=12
num_cat=0
split_feature=4 8 2 18 0 19 0 18 19 17 19
split_gain=107.781 82.2703 9.82185 17.3594 8.49488 2.24993 2.13925 5.31377 2.0135 1.44818 0.0939696
threshold=1.0000000180025095e-35 1.0000000180025095e-35 1.0000000180025095e-35 1.083497219343849 60.500000000000007 7.1627813413284871 61.500000000000007 0.42198903513126457 7.1098043661219679 1.0000000180025095e-35 3.2523087303165323
decision_type=10 8 10 2 2 2 2 2 2 2 2
left_child=1 2 5 6 -5 10 7 -4 9 -3 -1
right_child=-2 8 3 4 -6 -7 -8 -9 -10 -11 -12
leaf_value=-0.023160406166913117 0.040047822772826272 0.013904595355382857 -0.035995028430864225 0.035476337834977938 -0.014571278553588928 -0.020495103404876307 -0.040891935678841897 0.0049430801104476674 0.012952568652211831 0.037719094854997581 -0.041234422667122378
leaf_weight=4.7009751200675955 41.211507499217987 4.542363896965985 5.5219870507717186 6.111523285508154 4.5927198678255081 9.8525515198707563 10.375386118888853 4.6925229579210281 7.8380595445632926 15.761205762624741 43.595474824309349
leaf_count=21 212 20 24 27 20 43 47 20 35 75 195
internal_value=-0.00112692 -0.015774 -0.0297901 -0.0155132 0.0145928 -0.0370814 -0.0311156 -0.0184244 0.0282674 0.033294 -0.0399807
internal_weight=158.796 117.585 89.4431 31.2941 10.7042 58.149 20.5899 10.2145 28.1416 20.3036 48.2964
internal_count=739 527 397 138 47 259 91 44 130 95 216
is_linear=0
shrinkage=0.03


Tree=19
num_leaves=14
num_cat=0
split_feature=4 8 18 9 2 19 18 19 21 19 19 21 21
split_gain=107.372 79.6324 7.34793 9.90655 3.10871 9.30227 2.85117 2.55265 1.45813 1.80106 0.608124 0.638125 0.709209
threshold=1.0000000180025095e-35 1.0000000180025095e-35 0.75376903420262753 1.0000000180025095e-35 1.0000000180025095e-35 5.0770141741536143 0.36115877892986259 7.1098043661219679 2.9096258622311582 5.599158042427983 2.9902649910276016 2.4973207021709531 2.3465905316554028
decision_type=10 8 2 8 10 2 2 2 2 2 2 2 2
left_child=1 2 10 -4 8 -6 -3 -8 9 -5 -1 12 -12
right_child=-2 6 3 4 5 -7 7 -9 -10 -11 11 -13 -14
leaf_value=-0.019151226220351689 0.039552791901027756 0.0054521195741128771 0.01741407494323606 -0.033786196207568765 0.02033892159992888 -0.029828820732464727 0.039021541372505346 0.014699998934797915 -0.040475285454241436 -0.0090552889423908631 -0.03295639464524789 -0.040829669905597027 -0.012101260261173962
leaf_weight=4.7284164577722541 41.083625763654709 4.8089918941259411 5.1187192648649216 4.709368824958803 4.4794255048036558 7.7812244892120361 15.4191140383482 7.3934277296066275 10.212065845727919 6.9099560976028442 4.662305995821951 38.398966714739799 4.4384812861680984
leaf_count=21 215 21 22 21 20 34 74 33 45 31 21 175 20
internal_value=-0.0016927 -0.016136 -0.029566 -0.0189569 -0.0247584 -0.0113485 0.0278026 0.0320874 -0.0314627 -0.0209619 -0.037025 -0.0383727 -0.0249903
internal_weight=160.144 119.06 91.4389 39.2108 34.092 12.2606 27.6215 22.8125 21.8314 11.6193 52.2282 47.4998 9.10079
internal_count=753 538 410 173 151 54 128 107 97 52 237 216 41
is_linear=0
shrinkage=0.03


Tree=20
num_leaves=14
num_cat=0
split_feature=4 8 2 0 18 1 1 18 18 18 0 19 18
split_gain=99.9755 50.6303 20.2686 9.68682 14.4491 5.21668 2.66214 2.76066 1.19595 1.18786 1.52741 0.863354 0.792958
threshold=1.0000000180025095e-35 1.0000000180025095e-35 1.0000000180025095e-35 59.500000000000007 0.90623835540838849 1.0000000180025095e-35 1.0000000180025095e-35 0.31114771979399708 1.4917741750445088 0.98766512271122087 74.500000000000014 5.9330023761382913 1.3825302279094951
decision_type=8 10 10 2 2 2 2 2 2 2 2 2 2
left_child=1 3 -2 4 6 -3 -1 -8 -6 -5 12 -7 -11
right_child=2 5 -4 9 8 11 7 -9 -10 10 -12 -13 -14
leaf_value=-0.039211746364295828 -0.016427851749914658 -0.0017850170228962399 0.038558099057315741 -0.040648859281792793 0.024770756306582778 0.037672502628882623 -0.029969429107342693 -0.0010527341687691816 0.0036102852119300282 -0.0056114424131193871 -0.037091481624652034 0.01729025944696605 -0.023169058245455062
leaf_weight=9.6463310271501577 6.3298678249120703 5.6002313494682321 47.271690964698792 33.276378974318504 4.6120990663766843 9.4728410094976407 5.0319572240114212 6.0053261518478394 4.9063433408737183 4.3677613288164157 8.5480871349573118 5.7862674593925485 7.1289132684469223
leaf_count=43 28 24 247 156 20 46 22 26 21 20 39 27 32
internal_value=-0.00107077 -0.0181348 0.0318828 -0.0285268 -0.0142706 0.0228778 -0.0279294 -0.0156305 0.0152437 -0.0361905 -0.0272093 0.0314823 -0.0174815
internal_weight=157.984 104.383 53.6016 83.5232 30.2021 20.8593 20.6836 11.0373 9.51844 53.3211 20.0448 15.2591 11.4967
internal_count=751 476 275 379 132 97 91 48 41 247 91 73 52
is_linear=0
shrinkage=0.03


Tree=21
num_leaves=12
num_cat=0
split_feature=4 8 0 18 1 20 29 0 18 18 0
split_gain=91.0783 72.6147 11.4203 8.61157 3.75641 3.19563 2.65119 0.846951 1.36852 0.832043 0.513783
threshold=1.0000000180025095e-35 1.0000000180025095e-35 54.500000000000007 1.083497219343849 1.0000000180025095e-35 4.1343659160588695 1.0000000180025095e-35 62.500000000000007 0.42198903513126457 0.50379644514047073 48.500000000000007
decision_type=10 8 2 2 2 2 2 2 2 2 2
left_child=1 2 3 5 -3 10 -4 8 -8 -6 -1
right_child=-2 4 6 -5 9 -7 7 -9 -10 -11 -12
leaf_value=-0.039650740858972008 0.038570603826086916 0.0083946983466102916 -0.011112964708727548 0.015745981676246714 0.016314892748459788 -0.002280547981798919 -0.034061031938358612 -0.038546628777324392 -0.013791800490091559 0.037615774441779888 -0.017642369704033326
leaf_weight=4.5715427696704882 39.137384846806526 7.8777613788843182 5.4986953735351554 7.8148044645786277 4.384253382682803 5.3439743816852561 8.4783151447772997 42.993653133511543 7.6719441264867774 15.892077997326849 4.6484454125165939
leaf_count=20 212 34 24 34 20 23 39 203 34 79 21
internal_value=-0.000391507 -0.0138491 -0.0273423 -0.00839385 0.0273642 -0.0215264 -0.0336743 -0.0355522 -0.025798 0.0339933 -0.0313667
internal_weight=154.313 115.175 87.0214 22.3788 28.1541 14.564 64.6426 59.1439 16.1503 20.2763 9.21999
internal_count=743 531 398 98 133 64 300 276 73 99 41
is_linear=0
shrinkage=0.03


Tree=22
num_leaves=10
num_cat=0
split_feature=4 8 0 1 2 1 9 0 19
split_gain=90.133 77.9283 9.50798 7.841 5.5228 2.87835 2.50416 0.497011 1.73385
threshold=1.0000000180025095e-35 1.0000000180025095e-35 54.500000000000007 1.0000000180025095e-35 1.0000000180025095e-35 1.0000000180025095e-35 1.0000000180025095e-35 63.500000000000007 4.6839796580648843
decision_type=10 8 2 2 10 2 8 2 2
left_child=1 2 3 -1 -5 -3 -4 8 -8
right_child=-2 5 6 4 -6 -7 7 -9 -10
leaf_value=-0.034038506113207308 0.038084125779940144 0.011298998092166402 -0.012777828957236868 -0.01505708297805401 0.018183471430543118 0.034635135873083853 -0.038592246201707668 -0.039202733909580914 -0.016207643809313846
leaf_weight=7.9449906945228603 38.557532697916031 7.8387839198112514 5.898920401930809 8.3657761514186877 7.6590228378772727 19.94744798541069 6.92490887641907 40.758694678544998 9.5267165601253492
leaf_count=35 213 34 26 36 34 99 32 195 43
internal_value=-0.0010219 -0.0143643 -0.0282667 -0.0115357 0.000965053 0.028673 -0.0343423 -0.0363081 -0.0273014
internal_weight=153.423 114.865 87.079 23.9698 16.0248 27.7862 63.1092 57.2103 16.4516
internal_count=747 534 401 105 70 133 296 270 75
is_linear=0
shrinkage=0.03


Tree=23
num_leaves=14
num_cat=0
split_feature=4 8 0 1 2 1 18 18 19 18 1 21 21
split_gain=81.1124 61.6104 12.5961 8.84451 5.23884 4.44695 2.81827 1.05866 0.8514 0.601364 1.73918 4.40468 0.276049
threshold=1.0000000180025095e-35 1.0000000180025095e-35 54.500000000000007 1.0000000180025095e-35 1.0000000180025095e-35 1.0000000180025095e-35 2.24707014821217 0.56814667781789929 6.80791296586579 0.75376903420262753 1.0000000180025095e-35 2.8331960427188219 2.4973207021709531
decision_type=10 8 2 2 10 2 2 2 2 2 2 2 2
left_child=1 2 3 -1 -5 -3 9 -2 -7 12 -11 -12 -4
right_child=7 5 6 4 -6 8 -8 -9 -10 10 11 -13 -14
leaf_value=-0.031793438326287754 0.015921481257929086 0.0054547387502242991 -0.0246508274792379 -0.011015071296338786 0.021973362560796943 0.036482650505777106 -0.0076333129248635128 0.03886284963761736 0.015775462971365641 -0.036921948331905763 0.0022240063470453306 -0.032069767579761793 -0.040885085677198639
leaf_weight=7.1692559272050866 3.9555702358484259 8.0729307085275668 7.1641008704900733 7.4204745888710013 8.080106720328331 14.729965418577196 4.3995021730661383 33.648121923208237 4.6239189207553855 10.123398914933205 5.6662440448999405 6.9007027149200439 28.102784559130669
leaf_count=32 20 35 34 32 36 75 20 191 22 48 26 32 137
internal_value=-0.000642391 -0.0134193 -0.025975 -0.00646225 0.00647058 0.0250496 -0.032855 0.0369246 0.0325535 -0.0346076 -0.0274055 -0.017583 -0.0383579
internal_weight=150.057 112.453 85.0266 22.6698 15.5006 27.4268 62.3567 37.6037 19.3539 57.9572 22.6903 12.5669 35.2669
internal_count=740 529 397 100 68 132 297 211 97 277 106 58 171
is_linear=0
shrinkage=0.03


Tree=24
num_leaves=16
num_cat=0
split_feature=4 8 0 1 2 18 19 20 20 18 18 0 19 18 20
split_gain=76.8951 60.8518 11.0552 10.0124 8.47871 5.37499 2.96066 2.46245 1.71127 1.67316 1.61485 1.67231 1.27302 1.09541 0.324425
threshold=1.0000000180025095e-35 1.0000000180025095e-35 59.500000000000007 1.0000000180025095e-35 1.0000000180025095e-35 1.1019345600274442 6.6688615566375411 4.0951772018816319 4.6582358952060465 0.38184941825544505 0.98766512271122087 66.500000000000014 7.1627813413284871 0.62325745929580267 3.6082078789095555
decision_type=10 8 2 2 10 2 2 2 2 2 2 2 2 2 2
left_child=1 2 3 14 7 -6 9 -5 -8 -3 -4 -12 -13 -2 -1
right_child=13 6 10 4 5 -7 8 -9 -10 -11 11 12 -14 -15 -16
leaf_value=-0.019128024320488598 0.015344267506164248 0.011704588617117411 -0.038891581102852665 -0.029450316242676088 -0.0017481798557661011 0.039284230956321511 -0.0036800649524299216 -0.0038126726260258644 0.020831879903285881 0.036414879295829185 -0.0068518455471354165 -0.034989667559012901 -0.012469810466648199 0.038430042730852369 -0.039695284307162855
leaf_weight=4.401351645588873 3.9029878228902808 4.4219689071178498 32.403739705681801 5.4917134046554565 5.5573585629463196 4.7738039046525955 4.4965631514787656 7.74239781498909 4.2692860811948776 14.460084706544874 4.5655913352966335 10.710245177149771 4.7373935878276816 32.276764214038849 6.8184160888195038
leaf_count=20 20 20 161 25 24 22 20 33 20 74 21 51 22 187 31
internal_value=-0.00112695 -0.013167 -0.0254118 -0.0118158 -0.00037284 0.0190056 0.0249924 -0.015773 0.00916883 0.0315078 -0.0340442 -0.0247185 -0.0292615 0.0364193 -0.0338526
internal_weight=151.03 114.85 87.202 34.785 23.5653 10.3312 27.6479 13.2341 8.76585 18.8821 52.417 20.0132 15.4476 36.1798 11.2198
internal_count=751 544 410 155 104 46 134 58 40 94 255 94 73 207 51
is_linear=0
shrinkage=0.03


Tree=25
num_leaves=14
num_cat=0
split_feature=4 8 0 18 1 12 21 21 20 18 21 18 18
split_gain=76.5728 61.4316 11.3087 9.81223 2.92878 2.88288 3.80081 1.83138 1.54841 1.05026 0.411368 0.0388228 1.33178
threshold=1.0000000180025095e-35 1.0000000180025095e-35 62.500000000000007 0.73476597984497327 1.0000000180025095e-35 inf 2.7440554690903465 2.5915093710922874 3.9110220040928101 0.56814667781789929 2.9780741009902076 0.98766512271122087 1.1863167036526074
decision_type=10 8 2 2 2 8 2 2 2 2 2 2 2
left_child=1 2 3 7 -3 -5 -7 -1 -6 -2 -9 -4 -13
right_child=9 4 11 5 8 6 -8 10 -10 -11 -12 12 -14
leaf_value=-0.0088347816822282911 0.015334265368652308 0.0081420506527065482 -0.039783417224021136 0.020801117610135332 0.012820969863870723 0.012977247788221241 -0.019131910610836092 -0.036529615726015652 0.035809265589745683 0.038095518889465343 -0.020169281620717235 -0.011571636456039598 -0.033896404616361585
leaf_weight=5.4436095505952862 3.9049289077520362 8.0195318758487719 27.579381093382835 4.9733381569385529 5.0349369794130352 5.2078673541545886 6.2163149565458298 9.6504335552454013 14.600119084119795 32.499165162444115 7.5765695869922629 4.6299900412559536 12.751198038458822
leaf_count=25 20 35 140 22 24 23 27 46 76 192 35 22 61
internal_value=-0.00107081 -0.0134095 -0.0261143 -0.0137819 0.0247583 0.00383683 -0.00462814 -0.0261492 0.0308215 0.0361292 -0.0308355 -0.0362974 -0.0289026
internal_weight=148.087 111.683 84.0287 39.0681 27.6546 16.3975 11.4242 22.6706 19.6351 36.4041 17.227 44.9606 17.3812
internal_count=748 536 401 178 135 72 50 106 100 212 81 223 83
is_linear=0
shrinkage=0.03


Tree=26
num_leaves=13
num_cat=0
split_feature=4 8 0 2 18 1 20 0 18 18 18 18
split_gain=74.9846 55.9227 11.7176 9.56839 10.1892 4.72721 3.94466 1.75829 1.53824 1.06201 0.997567 0.969623
threshold=1.0000000180025095e-35 1.0000000180025095e-35 59.500000000000007 1.0000000180025095e-35 0.51580870992191585 1.0000000180025095e-35 4.0951772018816319 47.500000000000007 0.98766512271122087 0.57941449207832885 0.47311890412105362 1.2237711063438923
decision_type=10 8 2 10 2 2 2 2 2 2 2 2
left_child=1 2 3 6 -5 -3 -1 -6 -4 -2 -7 -10
right_child=9 5 8 4 7 10 -8 -9 11 -11 -12 -13
leaf_value=-0.036924439037902976 0.014978756936070195 0.0033996045928935069 -0.038813620627372682 -0.027127217863966529 0.0089926234359883426 0.01367000824389503 -0.0078082061682123276 0.035280855681124025 -0.010997612119939571 0.037746818940875074 0.03534476856237008 -0.028966450903061033
leaf_weight=9.7503496408462542 3.8725240528583518 7.7878866642713573 32.788541674613953 4.4118182659149161 5.4178591817617399 4.2152739912271526 7.9546247720718375 4.6545945554971695 5.4349603503942516 32.017331033945084 14.704103723168371 14.085223719477652
leaf_count=46 20 34 169 20 24 20 34 21 26 193 78 68
internal_value=-0.00135147 -0.0135415 -0.0254469 -0.0107404 0.00713012 0.0236843 -0.0249597 0.0232299 -0.0341256 0.0357628 0.0314443 -0.0247432
internal_weight=147.095 111.205 84.498 32.1892 14.4843 26.7073 17.705 10.0725 52.3087 35.8899 18.9194 19.5202
internal_count=753 540 408 145 65 132 80 45 263 213 98 94
is_linear=0
shrinkage=0.03


Tree=27
num_leaves=14
num_cat=0
split_feature=4 8 1 18 2 1 0 19 21 19 18 20 20
split_gain=73.6673 48.7673 10.4041 10.759 12.5644 4.5021 3.30181 2.00197 1.74646 1.05427 1.04655 0.996213 0.255741
threshold=1.0000000180025095e-35 1.0000000180025095e-35 1.0000000180025095e-35 0.73476597984497327 1.0000000180025095e-35 1.0000000180025095e-35 59.500000000000007 7.1627813413284871 3.051637111079994 5.3542222040740404 0.56246479849274167 3.9522043336703745 3.5219379084376894
decision_type=10 8 2 2 10 2 2 2 2 2 2 2 2
left_child=1 2 12 6 7 -3 8 -5 -4 -6 -2 -7 -1
right_child=10 5 3 4 9 11 -8 -9 -10 -11 -12 -13 -14
leaf_value=-0.023261549135939259 0.014812602306204202 0.0024024154876312693 -0.0032138067079390902 -0.026650488635778728 0.033630581976547703 0.012787011225171918 -0.037848338456437987 -0.0019882194261724479 -0.026818067850430914 0.011171127784476676 0.037440327771598329 0.034341798397250427 -0.039521010061387661
leaf_weight=6.491986706852912 3.8592700213193885 7.5796778947114971 6.5510956048965472 8.5821707397699338 4.7285475134849548 4.1533227264881161 14.156965568661688 4.5361897200346002 4.4145508110523224 5.0384083390235901 31.56984706223011 13.345063239336012 28.420682653784752
leaf_count=32 20 33 30 40 22 20 74 21 20 23 194 72 143
internal_value=-0.00149467 -0.0138284 -0.0248618 -0.0152916 -0.000262357 0.022208 -0.0284482 -0.0188674 -0.0141635 0.0241582 0.0354498 0.0301935 -0.0372295
internal_weight=143.428 107.999 82.9206 48.0079 22.8853 25.0781 25.1226 13.1184 10.9656 9.76696 35.4291 17.4984 34.9127
internal_count=744 530 405 230 106 125 124 61 50 45 214 92 175
is_linear=0
shrinkage=0.03


Tree=28
num_leaves=18
num_cat=0
split_feature=4 1 0 18 18 5 21 21 0 20 18 18 21 0 18 0 18
split_gain=65.2171 17.5774 14.0396 8.08687 6.81834 5.54721 5.3875 4.96091 3.17192 1.59227 1.37472 0.908853 0.820699 0.599767 3.05807 0.523662 0.0356372
threshold=1.0000000180025095e-35 1.0000000180025095e-35 59.500000000000007 0.80870304104163881 0.23506431071694328 1.0000000180025095e-35 3.2484176600955048 3.0563541271966739 75.500000000000014 3.8297271732458493 1.4793266326562853 0.56814667781789929 2.6063797390931955 68.500000000000014 1.083497219343849 69.500000000000014 0.43501867367834662
decision_type=10 2 2 2 2 8 2 2 2 2 2 2 2 2 2 2 2
left_child=1 5 4 12 -3 13 8 9 15 -6 -11 -2 -4 14 16 -5 -1
right_child=11 2 3 6 7 -7 -8 -9 -10 10 -12 -13 -14 -15 -16 -17 -18
leaf_value=-0.036786925099266989 0.015484158431149109 -0.019920719398727697 -0.014558761098018336 0.008549643481659543 0.0093723707864041099 -0.0012791581660671915 -0.026873304934629836 -0.000406203646495307 -0.01158824117352567 0.040032116460040491 0.014659768449301235 0.037058204439613211 -0.033427732309288964 -0.038112789641062655 -0.0057857887157083919 0.024367753178355878 -0.02054965391182453
leaf_weight=8.7717275768518466 4.0166577845811835 4.070942476391795 5.354449242353442 5.4874646365642565 4.5739750415086808 6.4945436865091315 4.1998541653156272 8.4821059256792051 4.1791072338819495 8.1146187335252744 4.581935614347457 30.239732310175896 12.046355977654455 14.899176865816115 5.9110607802867881 4.4830508232116699 5.3645417094230643
leaf_count=44 21 19 28 27 22 30 21 39 21 39 23 190 64 78 27 23 26
internal_value=-0.000391155 -0.0119522 -0.00218136 -0.0146748 0.012785 -0.0269973 -0.000551895 0.0185065 0.00851892 0.0273089 0.0326146 0.0350395 -0.0287283 -0.0316083 -0.0251931 0.0172348 -0.0323898
internal_weight=141.271 107.015 65.5739 35.7503 29.8236 41.4411 18.3495 25.7526 14.1496 17.2705 12.6966 34.2564 17.4008 34.9465 20.0473 9.97052 14.1363
internal_count=742 531 326 184 142 205 92 123 71 84 62 211 92 175 97 50 70
is_linear=0
shrinkage=0.03


Tree=29
num_leaves=14
num_cat=0
split_feature=4 8 2 1 0 21 1 21 20 19 3 3 11
split_gain=64.0387 36.5439 16.5811 8.01539 8.45954 7.91874 3.46396 2.32443 1.93573 1.2542 2.22989 0.20241 0.0783489
threshold=1.0000000180025095e-35 1.0000000180025095e-35 1.0000000180025095e-35 1.0000000180025095e-35 59.500000000000007 2.6210322124986196 1.0000000180025095e-35 3.051637111079994 3.9269111325907873 7.1627813413284871 1.0000000180025095e-35 1.0000000180025095e-35 inf
decision_type=8 10 10 2 2 2 2 2 2 2 10 10 8
left_child=1 3 -2 12 5 -5 -3 -7 -8 10 -6 -4 -1
right_child=2 6 11 4 9 7 8 -9 -10 -11 -12 -13 -14
leaf_value=-0.020511928094423513 -0.016127771094015003 -0.00030462284214698561 0.018195641427346886 0.027996997624961533 -0.036011914486610286 -0.00049861575902952651 0.0084773199545614391 -0.023758343672747262 0.034599385825882567 -0.011575467247309693 -0.0091909820505363272 0.035777448237373263 -0.037798315516423868
leaf_weight=4.323139101266861 6.1722620129585257 5.3019114136695871 3.9354127496480933 5.1394048929214504 15.026028335094457 7.7238484770059568 4.3678152263164529 6.832368403673172 10.05032931268215 5.6417744010686866 4.397743731737136 36.057847052812576 26.830141752958301
leaf_count=21 29 23 19 23 80 35 21 30 55 27 22 224 140
internal_value=-0.00110227 -0.0150813 0.0275618 -0.0244855 -0.0157813 -0.000896279 0.0205559 -0.0122417 0.0277491 -0.0269943 -0.0306867 0.0345334 -0.036112
internal_weight=141.8 95.6345 46.1655 75.9144 44.7612 19.6956 19.7201 14.5562 14.4181 25.0655 19.4238 39.9933 31.1533
internal_count=749 477 272 378 217 88 99 65 76 129 102 243 161
is_linear=0
shrinkage=0.03


Tree=30
num_leaves=14
num_cat=0
split_feature=4 8 9 18 18 1 2 18 19 21 0 19 18
split_gain=63.3909 45.211 7.93462 6.49656 3.98018 5.47183 7.43598 3.23476 2.48884 2.29667 3.45676 1.27551 1.15249
threshold=1.0000000180025095e-35 1.0000000180025095e-35 1.0000000180025095e-35 0.75376903420262753 0.98766512271122087 1.0000000180025095e-35 1.0000000180025095e-35 0.36115877892986259 6.6688615566375411 2.4973207021709531 61.500000000000007 7.1627813413284871 0.57941449207832885
decision_type=10 8 8 2 2 2 10 2 2 2 2 2 2
left_child=1 2 3 -1 9 -6 11 -3 -9 10 -4 -7 -2
right_child=12 7 4 -5 5 6 -8 8 -10 -11 -12 -13 -14
leaf_value=-0.023560270066513976 0.013380554505192608 -0.0019253049331422424 0.003549328461945877 0.021823422563794971 -0.03218844955985372 -0.028962188933045849 0.021004583169371333 0.034211042311920056 0.011083134269990112 -0.036598451874477141 -0.032277689846214305 -0.005923849915666757 0.036474459979982721
leaf_weight=4.1210975795984268 3.7266465276479712 4.1764606684446361 4.1617848277091962 5.3764432519674301 10.806743815541267 5.0911422073841077 5.4952843934297571 13.095610171556475 7.8529146909713736 34.367435142397881 4.26273512840271 4.3435121327638626 29.749760091304779
leaf_count=20 20 19 19 24 54 24 26 72 37 182 23 20 195
internal_value=-0.000900355 -0.0125658 -0.0237784 0.00176245 -0.0272926 -0.0168935 -0.00449696 0.0218326 0.0264411 -0.0330184 -0.0160802 -0.01994 0.0343663
internal_weight=136.628 103.151 78.0262 9.49754 68.5286 25.7367 14.9299 25.125 20.9485 42.792 8.42452 9.43465 33.4764
internal_count=735 520 392 44 348 124 70 128 109 224 42 44 215
is_linear=0
shrinkage=0.03


Tree=31
num_leaves=11
num_cat=0
split_feature=4 8 0 1 9 1 2 19 19 20
split_gain=58.3136 49.7153 9.91483 6.64243 3.2558 3.11715 3.08032 1.28759 1.20254 0.150089
threshold=1.0000000180025095e-35 1.0000000180025095e-35 54.500000000000007 1.0000000180025095e-35 1.0000000180025095e-35 1.0000000180025095e-35 1.0000000180025095e-35 7.0259470364283807 8.3085423085374455 3.8033229670845743
decision_type=10 8 2 2 8 2 10 2 2 2
left_child=1 2 3 -1 -4 -3 -5 -6 -9 -7
right_child=-2 5 4 6 7 9 -8 8 -10 -11
leaf_value=-0.028220091590843099 0.034021532240888795 0.0074398993607563517 -0.0067127607720473782 -0.0071609530965560273 -0.034284125155667595 0.016975683832386061 0.01852269121013916 -0.0046259404331196506 -0.02666601084253397 0.033731762592705647
leaf_weight=6.657909408211709 32.390792325139046 7.9610192179679897 5.789580762386322 7.6315554678440094 42.714122384786606 4.0163528472185162 7.3770287334918976 4.1797457933425886 5.4120955914258957 13.671328932046888
leaf_count=32 212 35 27 34 232 20 34 20 27 77
internal_value=-0.000570992 -0.0114205 -0.0230551 -0.00541557 -0.0294307 0.0242682 0.00583156 -0.0317722 -0.0184053 0.0310389
internal_weight=137.802 105.411 79.762 21.6665 58.0955 25.6487 15.0086 52.306 9.59184 17.6877
internal_count=750 538 406 100 306 132 68 279 47 97
is_linear=0
shrinkage=0.03


Tree=32
num_leaves=17
num_cat=0
split_feature=3 2 0 18 18 21 16 5 0 21 18 18 0 18 18 18
split_gain=47.8192 22.0398 10.6453 9.42255 8.0715 2.92997 3.35209 2.58053 2.558 2.38069 1.58065 1.34414 1.32165 0.907086 0.0514047 0.174627
threshold=1.0000000180025095e-35 1.0000000180025095e-35 64.500000000000014 0.53940883066996526 0.69309717805977866 3.2484176600955048 1.0000000180025095e-35 inf 71.500000000000014 2.6137328127880433 0.94583256710145891 1.6658110989035595 53.500000000000007 0.29638710320657907 0.4855030820314819 1.0278305065072166
decision_type=10 8 2 2 2 2 8 8 2 2 2 2 2 2 2 2
left_child=2 -2 4 -3 9 6 -6 11 10 -1 -5 14 -11 -14 -4 -16
right_child=1 3 7 8 5 -7 -8 -9 -10 12 -12 -13 13 -15 15 -17
leaf_value=-0.00057192881492298963 -0.037596282706930939 -0.0069702673586428832 -0.037524623115706326 0.015740526728301785 0.0013608525809806838 -0.0095196610779655095 0.030864675194292573 -0.0029203814870820775 0.0087646626986416388 -0.010985062878940301 0.035524038739251723 -0.012581881750454309 -0.037147960194911296 -0.013374577996815452 -0.018103226045533435 -0.031484012023812125
leaf_weight=5.9154032021760967 4.7419889569282523 6.8629784882068625 14.856690287590029 6.7498554587364188 7.0995039343833932 4.8820419907569876 5.9568339884281167 3.6840243935585013 5.5229146331548682 7.5962842255830791 32.048364400863647 5.2444507926702491 5.8342199474573118 3.9503437876701355 8.2010170668363553 7.6260432302951804
leaf_count=29 24 36 84 39 35 22 29 18 33 37 204 27 31 20 46 40
internal_value=-0.00211691 0.0190156 -0.0167891 0.0248804 -0.00588911 0.00896315 0.0160598 -0.0277112 0.0298574 -0.0172237 0.0325642 -0.0301053 -0.0225516 -0.02968 -0.0326087 -0.0260384
internal_weight=136.773 55.9261 80.8469 51.1841 41.2346 17.9384 13.0563 39.6122 44.3211 23.2963 38.7982 35.9282 17.3808 9.78456 30.6838 15.8271
internal_count=754 336 418 312 203 86 64 215 276 117 243 197 88 51 170 86
is_linear=0
shrinkage=0.03


Tree=33
num_leaves=12
num_cat=0
split_feature=4 8 0 1 21 1 2 20 30 19 20
split_gain=59.2133 42.6453 10.2762 8.42568 6.96543 3.42505 3.23664 2.47268 1.38529 1.19722 0.281299
threshold=1.0000000180025095e-35 1.0000000180025095e-35 59.500000000000007 1.0000000180025095e-35 2.6210322124986196 1.0000000180025095e-35 1.0000000180025095e-35 3.9110220040928101 1.0000000180025095e-35 3.9981939681839127 3.6558362615500068
decision_type=10 8 2 2 2 2 10 2 2 2 2
left_child=1 2 3 10 -5 -3 9 -7 -4 -6 -1
right_child=-2 5 8 4 6 7 -8 -9 -10 -11 -12
leaf_value=-0.016869344742296632 0.034347295272255267 0.0045656221780277602 -0.012326148950877141 0.028401997447101229 -0.0033108808793392169 0.0069424841250175411 0.008932990754691247 0.035107967642672912 -0.033386738389507217 -0.024099586655125533 -0.03605190578272699
leaf_weight=4.1875416040420514 31.284035608172417 7.9939517676830318 4.6707895249128333 5.2962792217731502 4.1550126075744647 4.2517147362232235 5.7781804949045172 12.718353778123854 42.456464171409607 6.9598314464092255 6.1256441920995712
leaf_count=20 213 35 22 24 20 21 27 73 238 31 31
internal_value=-0.0012177 -0.0120797 -0.0227545 -0.00937015 0.0013144 0.0215354 -0.00829076 0.0288304 -0.0315989 -0.017243 -0.0304427
internal_weight=135.878 104.594 79.6297 32.5025 22.1893 24.964 16.893 16.9701 47.1273 11.1148 10.3132
internal_count=755 542 413 153 102 129 78 94 260 51 51
is_linear=0
shrinkage=0.03


Tree=34
num_leaves=15
num_cat=0
split_feature=3 8 2 17 1 19 0 0 5 19 18 19 19 19
split_gain=38.0686 34.6986 20.7961 7.98046 5.03224 5.58196 5.80002 3.05277 2.27925 2.26981 2.16493 0.653368 0.627203 0.134357
threshold=1.0000000180025095e-35 1.0000000180025095e-35 1.0000000180025095e-35 1.0000000180025095e-35 1.0000000180025095e-35 7.0259470364283807 59.500000000000007 66.500000000000014 1.0000000180025095e-35 3.9405986567799238 0.56814667781789929 7.1098043661219679 7.1098043661219679 3.3214258967098487
decision_type=10 8 8 2 2 2 2 2 8 2 2 2 2 2
left_child=1 4 -2 -4 -1 6 9 11 -9 -6 -3 13 -12 -5
right_child=2 10 3 7 5 -7 -8 8 -10 -11 12 -13 -14 -15
leaf_value=-0.034802486679894939 -0.036770075603510449 0.0058916614660834707 -0.012314037685107729 0.018345932766880672 0.009128096190306946 0.0062616763199816799 -0.034503930210744979 -0.00041158361134058144 0.026179124225245713 -0.015536227427101935 0.033796074375522435 0.016574046361675088 0.013978687986070788 0.036957359181597024
leaf_weight=23.659300312399864 4.4409635215997687 6.0793351680040386 4.0390296429395667 3.4941222220659283 4.6124840825796145 7.4554705470800391 14.533582061529158 5.5966113805770847 4.9564935266971597 7.752113401889801 8.3731462210416776 4.5521771162748328 4.2828189730644217 26.672164067625999
leaf_count=133 23 29 22 22 22 35 84 33 32 35 47 27 21 174
internal_value=0.000719583 -0.0127802 0.0198764 0.0256075 -0.0241637 -0.0160597 -0.0222492 0.0291838 0.0132623 -0.0063409 0.0219065 0.0335166 0.0286045 0.0354594
internal_weight=130.5 76.7483 53.7516 49.3106 58.013 34.3537 26.8982 45.2716 10.5531 12.3646 18.7353 34.7185 12.656 30.1663
internal_count=739 406 333 310 309 176 141 288 65 57 97 223 68 196
is_linear=0
shrinkage=0.03


Tree=35
num_leaves=16
num_cat=0
split_feature=4 18 0 2 32 18 0 18 1 21 1 0 21 0 19
split_gain=52.0735 15.2844 12.5129 4.73509 4.49735 4.28919 4.08239 3.97601 3.08287 2.71633 2.43559 1.37067 1.04978 0.780945 0.0556582
threshold=1.0000000180025095e-35 0.70802365963461933 66.500000000000014 1.0000000180025095e-35 1.0000000180025095e-35 1.083497219343849 60.500000000000007 0.31114771979399708 1.0000000180025095e-35 2.9522993070431607 1.0000000180025095e-35 52.500000000000007 2.8986667661772656 53.500000000000007 5.9690586902534291
decision_type=10 2 2 10 2 2 2 2 2 2 2 2 2 2 2
left_child=1 6 3 9 -4 -5 7 13 -9 11 -6 -3 -12 -1 -7
right_child=-2 2 4 5 10 14 -8 8 -10 -11 12 -13 -14 -15 -16
leaf_value=-0.013407225440078264 0.033818959695694026 -0.0013037494018445857 0.0069529860885275416 -0.0013265177830315748 -0.034615061263394933 0.03898744521404509 -0.031671930529182137 -0.017242409816529747 0.012264001543420505 -0.013461182415292275 -0.0017662788659512129 0.021846365173168646 -0.021444788390417267 -0.031903724369779542 0.01979554378280194
leaf_weight=6.3944441974163073 29.489744901657104 4.0308869183063489 5.4263576716184643 4.1155881285667428 7.9207549393177041 6.5638088285922986 23.99581740796566 4.4537638425827009 6.6670929938554764 5.9738871455192575 5.6104036867618561 4.0552787780761719 3.6065973341464996 6.1975841224193573 4.0451662093400955
leaf_count=31 208 20 27 19 44 35 142 23 32 28 30 21 20 33 21
internal_value=-0.000508696 -0.010964 0.000447188 0.013362 -0.0158959 0.0246735 -0.0230029 -0.0133038 -5.60266e-07 0.000664253 -0.0231151 0.0114328 -0.0108117 -0.0241883 0.0340052
internal_weight=128.547 99.0574 51.3487 28.7846 22.5641 14.7246 47.7087 23.7129 11.1209 14.0601 17.1378 8.08617 9.217 12.592 10.609
internal_count=734 526 265 144 121 75 261 119 55 69 94 41 50 64 56
is_linear=0
shrinkage=0.03


Tree=36
num_leaves=15
num_cat=0
split_feature=4 1 18 2 5 0 20 21 18 18 21 21 18 31
split_gain=51.5328 14.1829 11.1774 7.74312 6.03127 5.12255 4.26664 3.50901 2.97839 1.2288 0.945234 0.886823 0.728413 0.469921
threshold=1.0000000180025095e-35 1.0000000180025095e-35 0.70802365963461933 1.0000000180025095e-35 1.0000000180025095e-35 59.500000000000007 4.4402927615512482 3.2600159261750652 0.23506431071694328 0.56246479849274167 2.6063797390931955 2.8063815381345165 1.4917741750445088 1.0000000180025095e-35
decision_type=10 2 2 10 8 2 2 2 2 2 2 2 2 2
left_child=1 4 5 6 13 8 11 -5 -3 -2 -7 -4 -8 -1
right_child=9 2 3 7 -6 10 12 -9 -10 -11 -12 -13 -14 -15
leaf_value=-0.015044644644852636 0.011619323349152161 -0.018359442791820502 0.020453859291901334 0.032119676086266001 0.00095698372742173082 -0.012195810728353289 -0.02339768976268804 -0.00050285711777178018 0.0091533182781398451 0.03501918204486746 -0.033140587960237937 0.00096313755228850473 -0.0058396304433695105 -0.032876230973296158
leaf_weight=4.0484597831964519 3.5623451173305538 4.9531297534704226 3.6939673274755505 11.265791922807692 6.2486408352851859 4.3739948719739905 5.3654627203941327 3.8743433803319922 7.7741884738206863 26.46652714908123 10.066321745514868 3.9913691580295563 4.5018446743488312 27.137982219457626
leaf_count=21 20 24 20 61 30 25 28 20 37 196 60 20 23 151
internal_value=-0.00100693 -0.0116392 -0.00246456 0.00923858 -0.025864 -0.0163758 -0.00432546 0.0242577 -0.00211135 0.0327072 -0.0279971 0.0116077 -0.0166615 -0.0311008
internal_weight=127.324 97.2955 59.8604 32.6928 37.4351 27.1676 17.5526 15.1401 12.7273 30.0289 14.4403 7.68534 9.86731 31.1864
internal_count=736 520 318 172 202 146 91 81 61 216 85 40 51 172
is_linear=0
shrinkage=0.03


Tree=37
num_leaves=13
num_cat=0
split_feature=4 8 9 18 18 0 2 21 0 19 18 18
split_gain=47.6134 39.6619 7.35794 7.20253 3.50955 4.67692 6.13485 3.22687 4.2288 2.99756 1.47353 1.26497
threshold=1.0000000180025095e-35 1.0000000180025095e-35 1.0000000180025095e-35 0.75376903420262753 0.98766512271122087 65.500000000000014 1.0000000180025095e-35 2.4973207021709531 60.500000000000007 6.80791296586579 0.43501867367834662 0.56814667781789929
decision_type=10 8 8 2 2 2 10 2 2 2 2 2
left_child=1 2 3 -1 7 6 -6 8 -4 10 -3 -2
right_child=11 9 4 -5 5 -7 -8 -9 -10 -11 -12 -13
leaf_value=-0.022759891705358647 0.011094302135295553 0.009442565015811373 0.0074002293804978107 0.026536143686141336 -0.019269161686148253 -0.028574582808278869 0.019486981365604238 -0.036299640106793998 -0.031202446062548565 0.0052492305049141302 0.033048209126733237 0.034723580490384466
leaf_weight=4.1180302202701569 3.5115021914243725 4.1279718577861848 4.2779411226510984 4.5886697918176651 7.6983580142259616 12.346531659364699 5.3838772475719452 29.721238657832146 4.3704434186220169 8.1103899478912336 12.509320318698881 25.052529558539391
leaf_count=21 20 19 20 21 35 68 26 174 26 39 73 190
internal_value=-0.0010965 -0.0111319 -0.022263 0.00327773 -0.0257454 -0.016065 -0.00306823 -0.0315899 -0.0133196 0.0210777 0.0280587 0.0322922
internal_weight=125.817 97.2528 72.5051 8.7067 63.7984 25.4288 13.0822 38.3696 8.64838 24.7477 16.6373 28.564
internal_count=732 522 391 42 349 129 61 220 46 131 92 210
is_linear=0
shrinkage=0.03


Tree=38
num_leaves=13
num_cat=0
split_feature=4 8 0 18 2 21 1 20 18 19 21 21
split_gain=45.1882 39.1669 7.60635 9.47928 8.83796 2.78251 2.45934 2.05029 1.36797 1.07451 0.0224722 0.486729
threshold=1.0000000180025095e-35 1.0000000180025095e-35 65.500000000000014 1.083497219343849 1.0000000180025095e-35 2.6137328127880433 1.0000000180025095e-35 3.9269111325907873 0.56246479849274167 7.1627813413284871 2.9780741009902076 3.2600159261750652
decision_type=10 8 2 2 10 2 2 2 2 2 2 2
left_child=1 2 3 5 -5 -1 -3 -8 -2 -4 -7 -12
right_child=8 6 9 4 -6 10 7 -9 -10 -11 11 -13
leaf_value=-0.0063534952947550761 0.01002649658902278 0.00646636241286422 -0.034931499239197042 -0.01460054210661069 0.030418974421342934 -0.033307204772142981 0.0081820295542661629 0.033946919937989838 0.034490405046140718 -0.016615961285339612 -0.010862884322575005 -0.027794921502497176
leaf_weight=7.8427280187606838 3.3464915603399303 7.7062637805938747 27.207506537437439 7.2356100082397443 6.5919279605150223 9.3602858185768145 4.5110848844051388 12.156010985374449 24.240849673748016 6.3887221664190283 4.9169925153255445 4.8715850263834
leaf_count=39 19 34 167 33 32 53 23 74 188 34 26 25
internal_value=-0.00128748 -0.0108042 -0.0215624 -0.0123875 0.00746545 -0.0224614 0.0215973 0.0278313 0.0319773 -0.0320295 -0.0284159 -0.0210849
internal_weight=126.376 98.7887 74.4154 40.8191 13.8275 26.9916 24.3734 16.6671 27.5873 33.5962 19.1489 9.78858
internal_count=747 540 409 208 65 143 131 97 207 201 104 51
is_linear=0
shrinkage=0.03


Tree=39
num_leaves=15
num_cat=0
split_feature=4 8 3 18 0 2 1 20 0 18 1 18 19 4
split_gain=44.5548 22.4718 10.1396 7.42492 7.85476 8.35308 3.53365 1.54821 1.45929 3.18219 2.95361 1.11988 0.803973 0.365503
threshold=1.0000000180025095e-35 1.0000000180025095e-35 1.0000000180025095e-35 0.90623835540838849 65.500000000000014 1.0000000180025095e-35 1.0000000180025095e-35 3.9269111325907873 61.500000000000007 0.31114771979399708 1.0000000180025095e-35 1.0919007785020396 6.9833237791804699 inf
decision_type=8 10 10 2 2 10 2 2 2 2 2 2 2 8
left_child=1 3 11 8 5 -5 -3 -8 9 -1 -11 -2 -6 -4
right_child=2 6 13 4 12 -7 7 -9 -10 10 -12 -13 -14 -15
leaf_value=-0.033542151564616887 -0.012633565503050221 -0.0047662095229790945 0.034775078908561907 -0.014703250595851243 -0.029385444880978169 0.030165591325089641 0.0060097757820732978 0.029503803344056057 -0.03540530911849004 -0.024564144754032131 0.0044713564623803104 0.0071433836952048135 -0.0095651812847933719 0.015542043657477612
leaf_weight=9.2468772083520907 4.4295737743377668 5.2991835922002801 26.883864641189579 6.6313616931438464 8.4712519198656064 6.425626814365387 4.1640716791152963 9.2099922001361829 20.499093487858772 4.8597874343395215 6.2745325267314911 4.0069877654314041 3.9242300987243643 3.3681888580322257
leaf_count=51 23 23 208 31 49 31 21 56 134 26 29 20 21 20
internal_value=-0.000986026 -0.0131116 0.0253152 -0.0212367 -0.00807582 0.00795281 0.0153633 0.0231158 -0.0290423 -0.0212858 -0.0091817 -0.00347881 -0.0242931 0.0331996
internal_weight=123.695 85.006 38.6886 66.3328 25.4525 13.057 18.6732 13.3741 40.8803 20.3812 11.1343 8.43656 12.3955 30.2521
internal_count=743 472 271 372 132 62 100 77 240 106 55 43 70 228
is_linear=0
shrinkage=0.03


Tree=40
num_leaves=14
num_cat=0
split_feature=4 8 1 18 2 19 19 16 21 18 18 19 20
split_gain=43.7436 32.224 7.62016 7.63693 8.63471 3.24212 3.58957 2.1814 1.70528 1.45176 1.41919 0.995448 0.683232
threshold=1.0000000180025095e-35 1.0000000180025095e-35 1.0000000180025095e-35 0.73476597984497327 1.0000000180025095e-35 6.6688615566375411 8.5867930053083388 1.0000000180025095e-35 2.5915093710922874 0.36115877892986259 0.55675045058093031 5.2806591939842535 3.6082078789095555
decision_type=10 8 2 2 10 2 2 8 2 2 2 2 2
left_child=1 2 12 8 7 9 -7 -5 -4 -3 -2 -6 -1
right_child=10 5 3 4 11 6 -8 -9 -10 -11 -12 -13 -14
leaf_value=-0.018669461896428076 0.0094465266421950751 0.0083739649890706893 -0.0067218184427697211 -0.028245602592598822 0.031796784875648118 -0.013037204644409994 0.022346080025948629 -0.0032401861025760934 -0.029086359058612149 0.031738718010682607 0.034161023099248962 0.0097889131137779157 -0.035705602768242889
leaf_weight=6.5212426483631161 3.2932944595813778 4.0534918904304531 4.6269466727972057 5.2163769006729117 3.9625899642705917 4.7027395069599134 3.7399554252624512 6.9453012645244607 15.960512280464171 11.702869907021521 24.765658535063267 5.068089559674263 21.625970497727394
leaf_count=37 19 19 25 26 20 22 19 35 93 72 201 24 132
internal_value=-0.000533907 -0.0103705 -0.0206349 -0.0120449 0.000714879 0.0189317 0.0033435 -0.0152966 -0.0246042 0.0265864 0.0316852 0.021653 -0.0325346
internal_weight=122.185 94.1261 69.927 41.7798 21.1924 24.1991 8.44269 12.1617 20.5875 15.7564 28.059 9.03068 28.1472
internal_count=744 524 392 223 105 132 41 61 118 91 220 44 169
is_linear=0
shrinkage=0.03


Tree=41
num_leaves=16
num_cat=0
split_feature=2 18 8 0 5 1 1 12 19 21 0 20 21 0 1
split_gain=27.8528 22.8006 22.1452 7.45209 5.98856 4.61493 2.6244 2.41825 1.47947 1.00901 0.502521 2.83568 0.483584 0.389094 0.217738
threshold=1.0000000180025095e-35 0.38865224428333434 1.0000000180025095e-35 61.500000000000007 1.0000000180025095e-35 1.0000000180025095e-35 1.0000000180025095e-35 1.0000000180025095e-35 7.1627813413284871 2.8243462541691211 63.500000000000007 4.0951772018816319 2.6497083809956692 73.500000000000014 1.0000000180025095e-35
decision_type=10 2 8 2 8 2 2 8 2 2 2 2 2 2 2
left_child=2 12 8 6 7 -4 -3 -5 10 -9 11 -1 -2 -10 -6
right_child=1 3 5 4 14 -7 -8 9 13 -11 -12 -13 -14 -15 -16
leaf_value=-0.031408075463612621 -0.011764410598117208 0.010183561878390479 -0.0064238321939380999 0.011731449872015342 0.011770718370227192 0.027470064827087828 0.034576647101881422 -0.003512203227988047 -0.0043693121496902595 -0.0241862649923648 -0.033805552171384499 -0.0064082630010867574 -0.030953576365757015 -0.018410278223175973 0.029176381115639725
leaf_weight=10.8688982129097 3.5380600690841657 5.9496957883238819 5.0953031480312321 3.5485106185078621 3.0717190727591497 9.2255635112524033 24.572218127548695 4.292361795902254 4.2781312465667716 4.1539834290742874 18.290025368332863 7.1759008914232245 6.8074553310871124 3.5493965148925781 5.2581121698021889
leaf_count=62 20 37 22 19 19 54 174 28 21 25 121 34 41 20 40
internal_value=-0.00117511 0.0128722 -0.0158424 0.0211317 0.00659486 0.0157786 0.0302956 -0.0069168 -0.0262187 -0.0151639 -0.0288546 -0.0223249 -0.0260064 -0.0121005 0.0247074
internal_weight=119.675 61.1921 58.4832 50.8466 20.3247 14.3209 30.5219 11.9949 44.1624 8.44635 36.3348 18.0448 10.3455 7.82753 8.32983
internal_count=737 403 334 342 131 76 211 72 258 53 217 96 61 41 59
is_linear=0
shrinkage=0.03


Tree=42
num_leaves=16
num_cat=0
split_feature=3 8 2 18 0 18 18 0 19 19 1 5 16 21 21
split_gain=30.133 22.7877 15.615 6.10892 5.21918 4.0169 3.0816 2.57679 2.21003 2.08985 1.82861 1.1843 1.10318 1.0519 0.801429
threshold=1.0000000180025095e-35 1.0000000180025095e-35 1.0000000180025095e-35 0.53940883066996526 63.500000000000007 0.75376903420262753 0.47311890412105362 66.500000000000014 7.7160414796494878 6.1081352352533109 1.0000000180025095e-35 1.0000000180025095e-35 1.0000000180025095e-35 3.3321981325835104 3.0563541271966739
decision_type=10 8 8 2 2 2 2 2 2 2 2 8 10 2 2
left_child=1 4 -2 -4 5 10 -3 13 -6 -8 -1 -9 -7 -5 -12
right_child=2 6 3 7 8 12 9 11 -10 -11 14 -13 -14 -15 -16
leaf_value=-0.032864460487882725 -0.034872532376356416 -0.0048055142265027431 -0.0046938632949917909 0.033610963598472321 -0.035136150085505448 -0.006758555416480125 0.034237126771671948 0.0010203728985291735 -0.0074497299885262734 0.0091934474965571587 -0.0040154186802703537 0.020798281000327365 0.011748961954088954 0.011507816984857889 -0.020916360318171442
leaf_weight=6.5042475014925047 3.875997617840766 4.5805620849132564 6.2453120201826087 24.47218027710915 24.05517373979092 4.8777542710304242 6.1779503077268583 5.0396382808685276 3.590482920408248 6.8981320559978485 6.6012883633375168 5.2240159735083589 4.7926635146141052 3.5704001039266577 3.8238459825515747
leaf_count=40 22 22 36 185 160 23 38 33 20 35 35 38 22 25 20
internal_value=-0.00109124 -0.0133426 0.0170007 0.0221802 -0.0228842 -0.0126707 0.0156269 0.0265696 -0.031926 0.0226173 -0.0210851 0.0120397 0.00265525 0.0312899 -0.0115027
internal_weight=120.33 71.9021 48.4275 44.5515 54.2455 26.5998 17.6566 38.3062 27.6457 13.0761 16.9294 10.2637 9.67042 28.0426 10.4251
internal_count=754 415 339 317 320 140 95 281 180 73 95 71 45 210 55
is_linear=0
shrinkage=0.03


Tree=43
num_leaves=16
num_cat=0
split_feature=3 8 2 18 10 5 0 1 0 18 16 0 20 0 0
split_gain=29.9998 27.0216 14.5119 7.54659 3.61416 3.45181 3.19607 1.9046 1.90127 1.72876 2.03085 1.34592 1.23087 0.309194 0.121156
threshold=1.0000000180025095e-35 1.0000000180025095e-35 1.0000000180025095e-35 1.0767060021897834 inf 1.0000000180025095e-35 51.500000000000007 1.0000000180025095e-35 66.500000000000014 0.98766512271122087 1.0000000180025095e-35 73.500000000000014 3.9880572622396131 51.500000000000007 59.500000000000007
decision_type=10 8 8 2 8 8 2 2 2 2 10 2 2 2 2
left_child=1 4 -2 5 -1 6 -4 -3 -5 14 -11 -12 -9 -7 -6
right_child=2 7 3 8 9 13 -8 12 -10 10 11 -13 -14 -15 -16
leaf_value=-0.0026000709802944601 -0.033837923302305978 0.0040023411615866446 0.014464645499447584 0.03581263261944221 -0.023616080194416383 0.0090294734756411529 -0.018144836514573642 0.0076193458530488681 0.014972640059411672 -0.027560040811152323 0.0032112064087863219 -0.01824590886262124 0.030924193001967637 0.025724666126714785 -0.034999696052429148
leaf_weight=6.6714839935302734 3.7511467039585105 6.5681217461824426 3.4300514683127421 20.822818897664551 13.124367848038675 3.3493233397603026 6.1710273772478104 3.7114773243665695 7.4348679929971686 7.6630809158086786 5.4720916450023651 3.6638257950544357 7.8624461442232132 3.7259105294942856 17.755414679646492
leaf_count=34 22 29 22 163 71 22 37 20 52 43 27 22 50 26 126
internal_value=-0.00107135 -0.0132362 0.0169439 0.0218277 -0.0237218 0.00536348 -0.00622937 0.0177751 0.0310286 -0.0265632 -0.0170272 -0.00634501 0.0246512 0.0199183 -0.031054
internal_weight=121.177 72.4923 48.6851 44.934 54.3503 16.6763 9.60108 18.142 28.2577 47.6788 16.799 9.13592 11.5739 7.07523 30.8798
internal_count=766 422 344 322 323 107 59 99 215 289 92 49 70 48 197
is_linear=0
shrinkage=0.03


Tree=44
num_leaves=16
num_cat=0
split_feature=3 8 2 18 5 1 0 19 0 1 20 0 20 21 0
split_gain=28.5757 22.9652 13.3005 6.13178 3.89219 3.84414 4.60047 3.95297 3.67686 2.81007 1.95511 1.32041 0.970257 0.501208 0.169225
threshold=1.0000000180025095e-35 1.0000000180025095e-35 1.0000000180025095e-35 1.0595233981360976 1.0000000180025095e-35 1.0000000180025095e-35 59.500000000000007 7.1627813413284871 51.500000000000007 1.0000000180025095e-35 4.0951772018816319 71.500000000000014 3.9880572622396131 2.841993923664011 51.500000000000007
decision_type=10 8 10 2 8 2 2 2 2 2 2 2 2 2 2
left_child=1 5 -2 4 8 -1 10 -8 -4 -3 -7 -5 -11 -6 -12
right_child=2 9 3 11 13 6 7 -9 -10 12 14 -13 -14 -15 -16
leaf_value=-0.032473895993289301 -0.033321496494115421 -0.00049930200717066844 0.015937351472071697 0.032966860136389865 0.028084408596569185 -0.014803775055591318 -0.033113708734095991 0.00079771126122319444 -0.018621399853446265 0.0090986301835294797 0.0016433075710673738 0.0097309166085686929 0.030487951218619788 0.0077921072902591947 0.010012764016727812
leaf_weight=20.951642766594887 3.4206455498933783 5.8962129652500161 3.6310947835445422 23.842831671237949 4.4422561749815932 5.5876356959342983 12.489188298583032 3.9542764276266089 6.035761721432209 3.9102554023265839 4.4696757495403272 3.5617803260684004 7.6115949973464012 2.6411966755986214 4.3262942433357239
leaf_count=137 20 26 23 188 30 29 84 21 36 21 20 25 49 18 20
internal_value=-0.000398353 -0.0126359 0.0172944 0.0218667 0.00698618 -0.0225618 -0.0150164 -0.0253806 -0.00536319 0.0164938 -0.00228832 0.0303958 0.0245352 0.022418 0.00636173
internal_weight=116.772 69.1968 47.5756 44.1549 16.7503 51.7787 30.8271 16.4435 9.66686 17.4181 14.3836 27.4046 11.5219 7.08345 8.79597
internal_count=747 407 340 320 107 311 174 105 59 96 69 213 70 48 40
is_linear=0
shrinkage=0.03


Tree=45
num_leaves=13
num_cat=0
split_feature=4 8 1 9 21 19 17 16 20 2 20 19
split_gain=36.8161 27.1367 6.92605 5.84502 3.43613 2.87343 1.42249 1.07101 0.882115 0.861468 0.738146 0.549929
threshold=1.0000000180025095e-35 1.0000000180025095e-35 1.0000000180025095e-35 1.0000000180025095e-35 2.6137328127880433 6.6688615566375411 1.0000000180025095e-35 1.0000000180025095e-35 6.0414421889461165 1.0000000180025095e-35 3.6082078789095555 3.6913638964242277
decision_type=10 8 2 8 2 2 2 10 2 10 2 2
left_child=1 2 10 -4 9 6 -3 11 -9 -5 -1 -6
right_child=-2 5 3 4 7 -7 -8 8 -10 -11 -12 -13
leaf_value=-0.017154313591600145 0.030615204864173635 0.0074369147456812097 0.013739006733520969 -0.0078380077834437484 -0.013773173510334599 0.0025101713561332551 0.030562691881548684 -0.0028927448232625619 -0.020251991366565841 0.0088719931634464577 -0.034662835165674533 -0.031190913207481994
leaf_weight=6.0370556414127376 25.001638494431973 3.9791709929704675 6.2837029695510864 5.1089669615030271 4.8660158216953286 7.6250947266817084 10.971104241907597 5.410655289888382 4.9760990142822266 4.0912334322929382 19.87290908396244 10.292650014162062
leaf_count=36 214 19 31 29 28 38 72 32 27 22 131 61
internal_value=-0.000855907 -0.00988698 -0.0194213 -0.0113072 -0.0160945 0.0180082 0.0252597 -0.0215704 -0.0122574 -0.00026595 -0.0313724 -0.0267981
internal_weight=114.516 89.5147 66.9393 41.0293 34.7456 22.5754 14.9503 25.5454 10.3868 9.2002 25.91 15.1587
internal_count=740 526 397 230 199 129 91 148 59 51 167 89
is_linear=0
shrinkage=0.03


Tree=46
num_leaves=13
num_cat=0
split_feature=4 8 1 30 19 18 21 0 18 19 5 20
split_gain=35.9834 30.4476 5.28743 7.72023 3.56991 3.06706 3.6317 2.01481 1.37641 1.09794 0.809842 0.569371
threshold=1.0000000180025095e-35 1.0000000180025095e-35 1.0000000180025095e-35 1.0000000180025095e-35 7.1098043661219679 0.98766512271122087 2.9418004506160189 59.500000000000007 0.56814667781789929 3.7459677241450726 1.0000000180025095e-35 3.8969088522734538
decision_type=10 8 2 2 2 2 2 2 2 2 8 2
left_child=1 2 10 -4 11 7 -7 9 -2 -5 -1 -3
right_child=8 4 3 5 -6 6 -8 -9 -10 -11 -12 -13
leaf_value=-0.033030525613877336 0.0087210867531886463 0.01414145425261411 0.017397656314662103 -0.00023094478406135134 0.00054924120475421815 0.0080797407669052392 -0.020912617151044005 -0.033449634848607822 0.033059638162546028 -0.0204554260352298 -0.011761959127772104 0.031164243023324687
leaf_weight=22.798540115356449 3.2731548249721554 5.3108585625886944 5.5909525603055945 3.9038438498973864 6.615472897887229 6.9798590987920743 6.7739724069833755 11.778744757175444 20.947056904435158 5.437764048576355 3.3019790202379218 10.543486408889292
leaf_count=154 20 27 27 20 33 36 35 84 193 27 18 68
internal_value=-0.00143865 -0.0102982 -0.0204301 -0.0131121 0.0193087 -0.018352 -0.00664905 -0.025328 0.0302467 -0.0128432 -0.0308731 0.0266393
internal_weight=113.256 89.0355 66.5657 40.4651 22.4698 34.8742 13.7538 21.1204 24.2202 9.34161 26.1005 15.8543
internal_count=742 529 401 229 128 202 71 131 213 47 172 95
is_linear=0
shrinkage=0.03


Tree=47
num_leaves=13
num_cat=0
split_feature=4 8 0 2 1 0 29 19 20 0 19 17
split_gain=32.3008 16.9504 7.72767 7.68346 5.60498 2.67328 2.35254 2.33855 2.77822 2.29588 1.01142 0.86817
threshold=1.0000000180025095e-35 1.0000000180025095e-35 54.500000000000007 1.0000000180025095e-35 1.0000000180025095e-35 48.500000000000007 1.0000000180025095e-35 4.5293591628959149 3.9880572622396131 66.500000000000014 7.1627813413284871 1.0000000180025095e-35
decision_type=8 10 2 10 2 2 2 2 2 2 2 2
left_child=1 2 4 -2 -1 -6 -4 -3 -9 -10 -8 -5
right_child=3 7 6 11 5 -7 10 8 9 -11 -12 -13
leaf_value=-0.023708118754692333 -0.0091490773163503108 0.029526731824194144 -0.0050305196687747749 0.0081262627636956401 -0.0021546394545095145 0.025009293641621327 -0.030670610513306142 -0.012375846481795568 0.027679074834804824 -0.0021689376054322578 -0.01402868905545623 0.032009645274264843
leaf_weight=5.8317444324493417 4.7712483555078498 5.2257017195224789 4.9935518056154242 2.3009357452392605 7.1015237718820572 4.8114444762468338 29.748167507350445 3.9977549463510504 4.6102411895990354 3.7227281033992767 6.5591015368700019 25.201299197971821
leaf_count=33 26 32 26 13 34 24 211 20 29 20 37 221
internal_value=-0.000305896 -0.010906 -0.0185417 0.0244254 -0.0018183 0.00990355 -0.0255139 0.0143894 0.00624059 0.0155409 -0.0281208 0.0303667
internal_weight=108.875 76.602 59.0455 32.2735 17.7447 11.913 41.3008 17.5564 12.3307 8.33297 36.3073 27.5022
internal_count=726 466 365 260 91 58 274 101 69 49 248 234
is_linear=0
shrinkage=0.03


Tree=48
num_leaves=16
num_cat=0
split_feature=4 8 5 18 9 18 18 21 16 18 18 18 21 21 18
split_gain=32.8374 26.89 4.77313 4.08503 4.39564 3.54912 1.41487 1.2236 1.58341 0.760486 0.283418 1.60071 0.268266 0.196495 0.173463
threshold=1.0000000180025095e-35 1.0000000180025095e-35 1.0000000180025095e-35 0.73476597984497327 1.0000000180025095e-35 0.34712328800162312 0.56246479849274167 2.9096258622311582 1.0000000180025095e-35 1.767278129703421 1.9572699177762101 1.3493634368206633 2.9780741009902076 3.0750027876182671 1.3042696051166378
decision_type=10 8 10 2 8 2 2 2 8 2 2 2 2 2 2
left_child=1 2 3 12 -5 -3 -2 8 14 -9 11 -7 -1 -14 -6
right_child=6 5 -4 4 7 10 -8 9 -10 -11 -12 -13 13 -15 -16
leaf_value=-0.032765164270612893 0.0079295887245879968 -0.0076548216938578315 0.008883433425171729 0.014875956148583754 -0.0095563474625991757 0.024922578887304026 0.032721109617747143 -0.030125473623237333 0.001358473007928027 -0.0098981596155698487 0.031470909737894744 0.0034096880397138513 -0.0095544795938797625 -0.02389702668363575 -0.023973178377894731
leaf_weight=20.679429128766063 3.1490294784307507 3.6549757719039944 4.3303139954805365 3.6318870633840561 3.5567592754960105 9.110823296010496 19.73037177324295 7.4705649465322477 6.0022565275430688 3.7705000787973404 4.7047566100955001 5.0133603289723387 3.1753651425242406 7.4932372570037842 3.4916617125272751
leaf_count=147 19 17 23 17 21 56 190 44 33 20 32 26 20 49 20
internal_value=-0.00139526 -0.00992871 -0.0198298 -0.0220401 -0.0129724 0.017731 0.0297839 -0.0175596 -0.0100858 -0.0247036 0.0227962 0.0180169 -0.0294666 -0.0208128 -0.0187894
internal_weight=108.965 86.0859 63.602 59.2717 27.9236 22.4839 22.8794 24.2917 13.0507 11.2411 18.8289 14.1242 31.348 10.6686 7.04842
internal_count=734 525 394 371 155 131 209 138 74 64 114 82 216 69 41
is_linear=0
shrinkage=0.03


Tree=49
num_leaves=16
num_cat=0
split_feature=4 8 0 2 18 0 19 20 20 18 18 18 19 18 18
split_gain=29.9544 23.6534 7.23782 6.31401 7.58527 3.27486 2.6545 2.43778 2.59583 2.26896 1.98739 1.53335 1.37907 0.503542 1.54942
threshold=1.0000000180025095e-35 1.0000000180025095e-35 61.500000000000007 1.0000000180025095e-35 0.42198903513126457 47.500000000000007 6.6688615566375411 4.0951772018816319 4.5726464606779853 0.43501867367834662 2.1955377846462469 0.56814667781789929 8.239932249455304 0.98766512271122087 1.3042696051166378
decision_type=10 8 2 10 2 2 2 2 2 2 2 2 2 2 2
left_child=1 2 3 7 -5 -6 9 -1 -9 -3 13 -2 -8 -4 -15
right_child=11 6 10 4 5 -7 12 8 -10 -11 -12 -13 -14 14 -16
leaf_value=-0.028915851285830504 0.006873551052826981 0.0032804559825655405 -0.033850147060286308 -0.025478006575570363 0.0023875735021792665 0.035084142119605179 -0.0077159874408084805 0.009070285837082399 -0.02074547864984393 0.031943661360115602 -0.002701970358066315 0.0324884314455419 0.014868221637041287 -0.0069478935752130041 -0.029753284847876316
leaf_weight=9.1361946836113948 3.0493440777063396 3.5231197774410274 18.911521352827553 3.6605973243713406 5.3054396063089353 5.115920752286911 4.2426466494798651 4.3812049627304059 4.2937202602624893 10.081230655312536 2.896026447415351 18.875596523284912 3.6031455099582672 5.3148218989372236 6.6815527677536011
leaf_count=57 19 17 147 21 26 26 21 21 21 70 16 187 19 32 42
internal_value=-0.00117944 -0.00911413 -0.0179946 -0.0073944 0.00735208 0.020105 0.0176748 -0.0188244 -0.00630617 0.0252536 -0.0274958 0.0293811 0.00316403 -0.0296614 -0.0209617
internal_weight=109.072 87.1471 65.697 31.8931 14.082 10.4214 21.4501 17.8111 8.67493 13.6044 33.8039 21.9249 7.84579 30.9079 11.9964
internal_count=742 536 409 172 73 52 127 99 42 87 237 206 40 221 74
is_linear=0
shrinkage=0.03


Tree=50
num_leaves=17
num_cat=0
split_feature=3 8 2 17 19 18 0 20 0 18 19 0 18 18 18 18
split_gain=24.2486 18.8581 14.0915 5.59635 4.47866 2.52998 2.50218 2.28535 2.07409 1.81344 1.54532 1.14464 0.931878 0.527878 0.387973 0.137503
threshold=1.0000000180025095e-35 1.0000000180025095e-35 1.0000000180025095e-35 1.0000000180025095e-35 7.0259470364283807 0.47311890412105362 59.500000000000007 5.3520869618585527 66.500000000000014 0.31114771979399708 6.1081352352533109 51.500000000000007 1.8091077721813851 0.91628273181015452 0.64447856411546678 1.1801910958601314
decision_type=10 8 8 2 2 2 2 2 2 2 2 2 2 2 2 2
left_child=1 4 -2 -4 6 -3 9 -6 13 -1 -7 -11 15 14 -5 -10
right_child=2 5 3 8 7 10 -8 -9 12 11 -12 -13 -14 -15 -16 -17
leaf_value=-0.02717812605222451 -0.033251552476873676 -0.0043438739123417567 -0.0077603720424664789 0.023632395467454503 0.011505725165149463 0.032419779103804267 -0.032567329216904278 -0.015562983176091637 0.006688796235785441 -0.01643928498325254 0.0093364658087538837 0.0023713283734726341 0.02226407477934356 0.033521721852087301 0.006147786742694417 -0.0016562337192552823
leaf_weight=6.2616375312209156 3.7423447966575614 4.0700314939022055 4.565260834991931 3.1200598701834705 4.5230354592204076 5.5563088133931142 22.576547086238861 4.741089791059494 2.9100777581334096 4.5009055286645872 6.2530716583132744 5.7242617309093475 3.331556499004364 19.391896896064281 2.8855621591210365 2.6698608994483948
leaf_count=39 24 20 28 20 25 38 173 25 21 22 33 29 27 176 21 19
internal_value=-0.000804657 -0.0123794 0.016518 0.022023 -0.0215999 0.0152996 -0.0259506 -0.0025138 0.0260936 -0.0155456 0.0218802 -0.00663558 0.0117554 0.0304887 0.0173082 0.00305103
internal_weight=106.824 64.2069 42.6166 38.8743 48.3275 15.8794 39.0634 9.26413 34.309 16.4868 11.8094 10.2252 8.9115 25.3975 6.00562 5.57994
internal_count=740 404 336 312 313 91 263 50 284 90 71 51 67 217 41 40
is_linear=0
shrinkage=0.03


Tree=51
num_leaves=15
num_cat=0
split_feature=4 8 1 18 2 18 19 0 18 16 5 18 19 11
split_gain=30.1479 22.2564 5.77113 5.44201 5.67197 4.47142 3.00801 2.65536 2.81733 1.54561 1.36194 1.17239 1.00153 0.134466
threshold=1.0000000180025095e-35 1.0000000180025095e-35 1.0000000180025095e-35 0.73476597984497327 1.0000000180025095e-35 0.29638710320657907 6.6688615566375411 59.500000000000007 0.23506431071694328 1.0000000180025095e-35 1.0000000180025095e-35 0.56814667781789929 5.2806591939842535 inf
decision_type=10 8 2 2 10 2 2 2 2 8 8 2 2 8
left_child=1 2 10 7 9 -3 -7 8 -4 -5 13 -2 -6 -1
right_child=11 5 3 4 12 6 -8 -9 -10 -11 -12 -13 -14 -15
leaf_value=-0.015176242149734847 0.0093692972204341089 -0.013530560616718174 -0.026547721961572963 -0.023168925429507929 0.027061883353993219 0.03045362286768942 0.0057422188894437941 -0.032130590974836844 0.0034642677685939897 -0.0024222109239845969 -0.0087234472335701967 0.032246689460677838 0.0061796508125290042 -0.03356710088738879
leaf_weight=2.8775474280118942 3.3848518431186703 3.2120868414640453 3.8354292958974856 5.4399148523807517 4.0117380172014236 11.73371744155884 7.6532533913850775 9.6119416207075101 6.2647996991872787 7.0175769925117502 3.5760346055030814 18.79002108424902 4.8483676910400391 18.483988545835025
leaf_count=18 21 15 21 30 22 82 39 76 31 38 20 195 24 140
internal_value=-0.00119996 -0.00908075 -0.0178268 -0.0104932 0.000140775 0.0161229 0.0214586 -0.0214449 -0.00929732 -0.0125303 -0.029023 0.0293096 0.0174205 -0.0318792
internal_weight=110.741 88.5664 65.9673 41.0298 21.3176 22.5991 19.387 19.7122 10.1002 12.4575 24.9376 22.1749 8.86011 21.3615
internal_count=772 556 420 242 114 136 121 128 52 68 178 216 46 158
is_linear=0
shrinkage=0.03


Tree=52
num_leaves=13
num_cat=0
split_feature=4 8 0 2 17 19 16 21 0 30 17 1
split_gain=27.0737 26.3198 6.35658 5.7654 7.08306 3.42901 2.38943 1.94112 1.37764 1.01309 0.803452 0.255509
threshold=1.0000000180025095e-35 1.0000000180025095e-35 61.500000000000007 1.0000000180025095e-35 1.0000000180025095e-35 7.1098043661219679 1.0000000180025095e-35 2.9780741009902076 47.500000000000007 1.0000000180025095e-35 1.0000000180025095e-35 1.0000000180025095e-35
decision_type=10 8 2 10 2 2 10 2 2 2 2 2
left_child=1 2 3 6 -5 11 7 -1 -6 -4 -2 -3
right_child=10 5 9 4 8 -7 -8 -9 -10 -11 -12 -13
leaf_value=-0.03272350900345742 0.0068711031323694313 0.014980866295439722 -0.0089835024077350705 -0.025088312824419666 0.005645118220224515 0.0010998599633499113 0.00075498070825555049 -0.0065777248184051024 0.028550613983871227 -0.029421435082679134 0.03087931142847726 0.031438340907837627
leaf_weight=8.6793210506439227 2.0514887422323254 4.2071577757596978 3.5521155744791058 3.7046823650598517 4.8185678273439425 6.0877232104539862 4.0778202265501013 4.2890494912862769 5.173614963889122 28.069019116461277 18.794187247753143 10.124113641679287
leaf_count=53 12 20 19 23 24 31 19 24 26 212 194 74
internal_value=-0.00081282 -0.0085607 -0.0181928 -0.00808439 0.00619686 0.0203337 -0.0192671 -0.0251662 0.0190232 -0.0274713 0.0289393 0.0278993
internal_weight=103.629 82.7832 62.3642 30.7431 13.6969 20.419 17.0462 12.9684 9.99218 31.6211 20.8457 14.3313
internal_count=731 525 400 169 73 125 96 77 50 231 206 94
is_linear=0
shrinkage=0.03


Tree=53
num_leaves=14
num_cat=0
split_feature=4 8 3 0 18 1 0 21 19 0 4 18 19
split_gain=26.5964 14.1003 7.41674 5.87375 6.5277 2.63424 2.31436 2.13388 0.901539 0.813346 0.64886 0.536278 0.499112
threshold=1.0000000180025095e-35 1.0000000180025095e-35 1.0000000180025095e-35 65.500000000000014 0.73476597984497327 1.0000000180025095e-35 47.500000000000007 2.5055176070587919 5.9330023761382913 53.500000000000007 1.0000000180025095e-35 1.3571221556327686 7.8877687261915765
decision_type=8 10 10 2 2 2 2 2 2 2 10 2 2
left_child=1 3 11 4 7 -3 -6 -1 -7 -9 -4 -2 -5
right_child=2 5 10 12 6 8 -8 9 -10 -11 -12 -13 -14
leaf_value=0.00087338154035595703 -0.010338285792597615 -0.0036447507698633237 0.011401239942583734 -0.030556034944630352 -0.0072928176050786522 0.027955311019726686 0.018008339469323422 -0.012646590795357775 0.0089266926372139847 -0.030123962672196223 0.032632089687497257 0.0042286592595840175 -0.012932712894252131
leaf_weight=3.7669155076146188 3.704582259058955 5.5687269568443307 2.887811258435252 20.857114575803283 4.6373601108789426 6.1408604010939598 7.2887033522129059 6.3338432088494292 5.2336186021566391 8.6707064509391767 20.156295731663704 3.6022997945547104 3.8244634270668021
leaf_count=22 21 25 20 166 22 45 37 36 33 63 208 20 24
internal_value=-0.000628493 -0.0105109 0.0225041 -0.0177727 -0.00857326 0.0128923 0.00836709 -0.0192148 0.0206288 -0.0239974 0.0305563 -0.00351224 -0.0284352
internal_weight=102.673 72.3223 30.351 55.3791 30.6975 16.9432 11.9261 18.7715 11.3745 15.0045 23.0441 7.30688 24.6816
internal_count=742 473 269 370 180 103 59 121 78 99 228 41 190
is_linear=0
shrinkage=0.03


Tree=54
num_leaves=17
num_cat=0
split_feature=4 8 2 1 18 9 21 19 20 1 31 18 18 21 17 18
split_gain=26.2916 13.6476 7.7343 6.90023 4.30997 3.91791 3.16645 2.86586 3.48342 2.11741 1.00345 0.973909 1.32062 0.903673 0.350762 0.106767
threshold=1.0000000180025095e-35 1.0000000180025095e-35 1.0000000180025095e-35 1.0000000180025095e-35 0.23506431071694328 1.0000000180025095e-35 3.051637111079994 4.5293591628959149 3.9269111325907873 1.0000000180025095e-35 1.0000000180025095e-35 0.98766512271122087 1.556034910275196 2.6063797390931955 1.0000000180025095e-35 1.3257469794308614
decision_type=8 10 10 2 2 8 2 2 2 2 2 2 2 2 2 2
left_child=1 3 -2 10 -5 -6 11 -3 -9 -10 -1 13 -13 -7 -4 -8
right_child=2 7 14 4 5 6 15 8 9 -11 -12 12 -14 -15 -16 -17
leaf_value=-0.0093877522752056543 -0.010131516810394682 0.03191409232968944 0.011681789086566866 -0.031483381047989471 0.018027484418442059 0.0027866019469441777 -0.027030280372577951 -0.016852293177386384 -0.0031849277401958778 0.025835288318144776 -0.033099005032884599 0.017237470302791099 -0.004969975484238282 -0.015488117018668927 0.030827884513215033 -0.012168624838751084
leaf_weight=2.81794395297766 4.8924684450030353 4.2042834758758572 2.610105633735663 5.248708449304103 5.0365927368402481 3.9228732809424489 4.8778385892510396 3.6599653214216223 3.3363723605871183 4.9341032579541206 18.483242750167847 3.7576992660760871 4.1892114579677582 4.4642463997006416 21.968640528619286 3.5189577266573906
leaf_count=18 27 29 15 37 25 24 34 19 15 36 146 20 22 32 220 19
internal_value=-0.000773204 -0.0104848 0.0226623 -0.0173976 -0.00878682 -0.00389168 -0.00888279 0.0132513 0.00471501 0.0150476 -0.0305238 -0.000847602 0.00628378 -0.00755427 0.0293309 -0.0227598
internal_weight=101.923 72.452 29.4712 56.3173 35.0161 29.7674 24.7308 16.1347 11.9304 8.27048 21.3012 16.334 7.94691 8.38712 24.5787 8.3968
internal_count=738 476 262 377 213 176 151 99 70 51 164 98 42 56 235 53
is_linear=0
shrinkage=0.03


Tree=55
num_leaves=16
num_cat=0
split_feature=4 8 1 18 3 16 0 2 0 18 0 0 4 31 21
split_gain=26.6104 11.084 6.7 6.05969 4.91225 6.13997 4.51128 5.03252 3.42391 2.17337 1.17881 0.957105 0.744232 0.651462 0.214695
threshold=1.0000000180025095e-35 1.0000000180025095e-35 1.0000000180025095e-35 0.75376903420262753 1.0000000180025095e-35 1.0000000180025095e-35 65.500000000000014 1.0000000180025095e-35 53.500000000000007 0.47311890412105362 70.500000000000014 74.500000000000014 1.0000000180025095e-35 1.0000000180025095e-35 2.545523582195059
decision_type=8 10 2 2 10 8 2 10 2 2 2 2 10 2 2
left_child=1 2 13 8 5 -2 7 -5 -4 -3 14 -8 -6 -1 -11
right_child=4 9 3 6 12 -7 11 -9 -10 10 -12 -13 -14 -15 -16
leaf_value=-0.0109836718170651 -0.020769677022786807 -0.0062735875967907381 0.0008538394574248633 -0.0054382362216199229 0.010486675284614274 0.027329160915748898 -0.0011771590610462164 0.034038064668933797 -0.028893445870920586 0.011666935863263634 0.00094392254311353909 -0.022346911899604759 0.03236603463969185 -0.031544324773433892 0.027703684052937095
leaf_weight=3.0245597809553173 4.0673561841249493 3.9200869873166075 4.8245722204446784 4.8307885527610797 2.8202224001288441 3.5247604548931122 3.6637912169098845 5.4884467571973801 11.01402638107538 3.5610934942960721 2.9140756279230109 3.3360281735658646 19.729013793170452 17.826533913612366 5.1657872125506401
leaf_count=19 24 20 24 23 20 19 22 29 85 23 18 22 214 144 36
internal_value=0.000325435 -0.00987126 -0.0162423 -0.00747696 0.0234218 0.00214273 0.00473595 0.01671 -0.0203196 0.0118868 0.0180147 -0.0127986 0.0301911 -0.029201 0.0230319
internal_weight=99.7111 69.5698 54.0087 33.1577 30.1414 7.59212 17.3191 10.3192 15.8386 15.561 11.641 6.99982 22.5492 20.8511 8.72688
internal_count=742 465 368 205 277 43 96 52 109 97 77 44 234 163 59
is_linear=0
shrinkage=0.03


Tree=56
num_leaves=16
num_cat=0
split_feature=4 8 1 0 21 18 0 0 19 12 0 18 5 18 31
split_gain=23.1207 18.0825 5.70449 5.02334 3.9158 3.82309 2.44574 4.04511 2.20356 2.17482 1.68394 1.586 1.30224 0.888174 0.386411
threshold=1.0000000180025095e-35 1.0000000180025095e-35 1.0000000180025095e-35 59.500000000000007 2.6210322124986196 0.98766512271122087 48.500000000000007 54.500000000000007 5.9330023761382913 inf 74.500000000000014 0.57941449207832885 1.0000000180025095e-35 0.38184941825544505 1.0000000180025095e-35
decision_type=10 8 2 2 2 2 2 2 2 8 2 2 8 2 2
left_child=1 2 12 4 -4 -5 -6 -8 13 -10 -7 -2 14 -3 -1
right_child=11 8 3 5 6 10 7 -9 9 -11 -12 -13 -14 -15 -16
leaf_value=-0.011932708127454809 0.0053100918391868115 0.0081017777621224703 0.02432082168790976 -0.03008193057486545 -0.021986920228937102 0.008018212722465945 0.019658556723358797 -0.015863767543427301 0.020079043299700366 -0.0060625867099584193 -0.016884307339968461 0.031445717440843082 -0.0080724052824183504 0.029559535141674413 -0.032774789697890147
leaf_weight=2.4464569762349191 2.8977046683430698 3.388563424348833 4.4079682976007488 10.712446041405203 4.266795963048934 4.7825322747230512 5.1343879252672178 4.4732563048601151 3.7713132500648499 6.3470226824283582 3.2680913507938385 16.248491443693638 3.5121182203292838 7.6230060160160065 16.849647700786591
leaf_count=16 19 17 22 90 21 26 27 25 23 34 21 191 20 58 139
internal_value=-0.000853452 -0.00792107 -0.0162867 -0.00863542 0.00256671 -0.0191282 -0.00551509 0.00318325 0.015441 0.00461053 -0.00283938 0.0279501 -0.0278294 0.0241806 -0.0308505
internal_weight=100.13 80.9836 59.8537 37.0455 18.2824 18.7631 13.8744 9.60764 21.1299 10.1183 8.05062 19.1462 22.8082 11.0116 19.2961
internal_count=749 539 407 232 95 137 73 52 132 57 47 210 175 75 155
is_linear=0
shrinkage=0.03


Tree=57
num_leaves=19
num_cat=0
split_feature=4 8 0 18 2 1 16 0 18 18 18 1 1 2 18 18 21 21
split_gain=23.1129 17.3864 6.34265 4.64917 6.23799 3.47683 3.31039 1.69803 2.32685 1.46074 0.697052 1.67551 0.617222 1.41876 0.578711 0.418147 0.325857 0.0870978
threshold=1.0000000180025095e-35 1.0000000180025095e-35 65.500000000000014 0.42198903513126457 1.0000000180025095e-35 1.0000000180025095e-35 1.0000000180025095e-35 74.500000000000014 0.38184941825544505 0.56814667781789929 0.98766512271122087 1.0000000180025095e-35 1.0000000180025095e-35 1.0000000180025095e-35 1.167826148349121 1.53794133386841 2.4203582520096725 3.2827873905969294
decision_type=10 8 2 2 10 2 8 2 2 2 2 2 2 10 2 2 2 2
left_child=1 2 3 12 6 -6 -5 8 -3 -2 -4 -12 -1 -14 -7 -13 -10 -18
right_child=9 7 10 4 5 14 -8 -9 16 -11 11 15 13 -15 -16 -17 17 -19
leaf_value=-0.029105750755666036 0.0063509518973231729 -0.0013169044076892082 -0.032240148609248433 -0.025382687394649151 -0.0066534193528376999 0.013095550499174345 0.0063196481047146091 -0.0038991525913734211 0.011276375877905762 0.031414899299412789 -0.030380201576860801 0.00072642989212050226 -0.00046007313520477199 -0.024535948817067724 0.034792722037023431 -0.01301184903414254 0.030506788368422879 0.013024134086234811
leaf_weight=4.9048332720994932 3.0367345884442356 3.8159415274858537 13.383610852062704 6.9862589761614791 3.6871761158108711 3.9480935037136078 4.1845048367977151 3.008863039314746 3.4582190066575995 16.732693858444691 4.8408456966280919 3.3459339588880539 4.3846677988767624 3.5076067894697189 3.8574592918157578 3.5936491787433624 7.8169082105159742 2.6040089875459671
leaf_count=41 20 19 122 40 20 20 21 18 21 201 37 20 28 22 21 21 57 16
internal_value=-0.000226657 -0.00735892 -0.0154169 -0.00691904 0.00138052 0.0162188 -0.0139637 0.0158595 0.0192481 0.028056 -0.0266698 -0.018314 -0.0206522 -0.0127162 0.0265517 -0.00713071 0.0246108 0.0276611
internal_weight=101.098 81.3286 60.6246 35.4606 22.6635 11.4927 11.1708 20.7039 17.6951 19.7694 25.164 11.7804 12.7971 7.89227 7.80555 6.93958 13.8791 10.4209
internal_count=765 544 413 213 122 61 61 131 113 221 200 78 91 50 41 41 94 73
is_linear=0
shrinkage=0.03


Tree=58
num_leaves=17
num_cat=0
split_feature=4 1 2 0 0 21 32 17 0 21 20 21 0 20 20 17
split_gain=21.0614 9.34596 7.80247 5.16266 4.25832 2.69459 2.55016 2.37111 2.92201 2.44154 2.08193 2.13829 1.68796 1.43464 0.961471 0.599155
threshold=1.0000000180025095e-35 1.0000000180025095e-35 1.0000000180025095e-35 59.500000000000007 36.500000000000007 2.6210322124986196 1.0000000180025095e-35 1.0000000180025095e-35 79.500000000000014 2.8564536912166019 3.6082078789095555 2.6282787161499033 54.500000000000007 4.5422298191410926 4.7149146265557889 1.0000000180025095e-35
decision_type=8 2 10 2 2 2 2 2 2 2 2 2 2 2 2 2
left_child=1 10 -2 4 -3 -6 -7 -5 9 14 11 -1 -8 -11 -9 -4
right_child=2 3 15 7 5 6 12 8 -10 13 -12 -13 -14 -15 -16 -17
leaf_value=0.0077943838047395703 -0.011056628563691552 -0.018089421300264429 0.009513368180464955 -0.025518095919964446 0.031095826192077517 0.025064746210342825 0.0076683022152030144 0.022391726405079804 -0.025763220245678446 -0.02172305786128045 -0.028458746974682033 -0.02307720789520256 -0.016036174579360209 0.0043927292717429942 0.00029005123583461263 0.029551007076915953
leaf_weight=3.5147078111767796 5.1534350737929371 3.3368107527494457 2.7193138450384202 5.9028439968824413 5.4757573530077961 3.5188212543726012 5.6215542629361082 3.8788235634565371 3.2394902333617202 3.1080947145819664 18.546492464840412 2.8132072687149048 3.5925332009792328 2.9906797036528587 2.8230038955807686 21.306194640696045
leaf_count=22 30 16 16 50 32 21 33 27 23 21 143 20 22 20 18 231
internal_value=-0.000162119 -0.00926279 0.0207601 -0.000751105 0.00946137 0.0151891 0.00658218 -0.0107539 -0.00414195 0.00280015 -0.0235398 -0.00720653 -0.00223912 -0.0101018 0.0143283 0.0277538
internal_weight=97.5418 68.3628 29.1789 43.4884 21.5455 18.2087 12.7329 21.9429 16.0401 12.8006 24.8744 6.32792 9.21409 6.09877 6.70183 24.0255
internal_count=745 468 277 283 124 108 76 159 109 86 185 42 55 41 45 247
is_linear=0
shrinkage=0.03


Tree=59
num_leaves=16
num_cat=0
split_feature=4 8 0 18 20 20 0 2 19 18 18 1 18 18 2
split_gain=23.0293 14.7727 5.79562 4.98881 3.49178 5.05906 2.44661 3.70908 2.29496 1.73044 1.21754 2.49053 0.879366 0.268265 0.00224963
threshold=1.0000000180025095e-35 1.0000000180025095e-35 63.500000000000007 0.23506431071694328 4.0951772018816319 5.2652741739841078 48.500000000000007 1.0000000180025095e-35 6.6688615566375411 0.34712328800162312 0.98766512271122087 1.0000000180025095e-35 1.3150659509703899 0.56814667781789929 1.0000000180025095e-35
decision_type=10 8 2 2 2 2 2 10 2 2 2 2 2 2 10
left_child=1 2 3 -1 6 14 -5 -8 9 -3 -4 -12 -13 -2 -6
right_child=13 8 10 4 5 -7 7 -9 -10 -11 11 12 -14 -15 -16
